<?xml version="1.0"?>
<opencv_storage>
<cascade>
  <stageType>BOOST</stageType>
  <featureType>HAAR</featureType>
  <height>24</height>
  <width>24</width>
  <stageParams>
    <boostType>GAB</boostType>
    <minHitRate>9.9500000476837158e-01</minHitRate>
    <maxFalseAlarm>5.0000000000000000e-01</maxFalseAlarm>
    <weightTrimRate>9.4999999999999996e-01</weightTrimRate>
    <maxDepth>1</maxDepth>
    <maxWeakCount>100</maxWeakCount></stageParams>
  <featureParams>
    <maxCatCount>0</maxCatCount>
    <featSize>1</featSize>
    <mode>BASIC</mode></featureParams>
  <stageNum>20</stageNum>
  <stages>
    <!-- stage 0 -->
    <_>
      <maxWeakCount>2</maxWeakCount>
      <stageThreshold>4.1666667908430099e-02</stageThreshold>
      <weakClassifiers>
        <_>
          <internalNodes>
            0 -1 6 -8.5015043616294861e-02</internalNodes>
          <leafValues>
            8.8461536169052124e-01 -9.5833331346511841e-01</leafValues></_>
        <_>
          <internalNodes>
            0 -1 38 -3.0623935163021088e-02</internalNodes>
          <leafValues>
            1. -7.9489850997924805e-01</leafValues></_></weakClassifiers></_>
    <!-- stage 1 -->
    <_>
      <maxWeakCount>2</maxWeakCount>
      <stageThreshold>1.8082259595394135e-01</stageThreshold>
      <weakClassifiers>
        <_>
          <internalNodes>
            0 -1 1 2.5365792214870453e-02</internalNodes>
          <leafValues>
            -7.5000000000000000e-01 9.5454543828964233e-01</leafValues></_>
        <_>
          <internalNodes>
            0 -1 7 1.5288794413208961e-02</internalNodes>
          <leafValues>
            -6.6414523124694824e-01 9.3082261085510254e-01</leafValues></_></weakClassifiers></_>
    <!-- stage 2 -->
    <_>
      <maxWeakCount>2</maxWeakCount>
      <stageThreshold>5.3967252373695374e-02</stageThreshold>
      <weakClassifiers>
        <_>
          <internalNodes>
            0 -1 32 -1.8973279744386673e-02</internalNodes>
          <leafValues>
            7.3584908246994019e-01 -8.2978725433349609e-01</leafValues></_>
        <_>
          <internalNodes>
            0 -1 4 -2.4888473749160767e-01</internalNodes>
          <leafValues>
            9.6568202972412109e-01 -6.8188178539276123e-01</leafValues></_></weakClassifiers></_>
    <!-- stage 3 -->
    <_>
      <maxWeakCount>2</maxWeakCount>
      <stageThreshold>-2.5584256649017334e-01</stageThreshold>
      <weakClassifiers>
        <_>
          <internalNodes>
            0 -1 35 -4.0340893901884556e-03</internalNodes>
          <leafValues>
            6.4912283420562744e-01 -8.6046510934829712e-01</leafValues></_>
        <_>
          <internalNodes>
            0 -1 2 3.4702070057392120e-02</internalNodes>
          <leafValues>
            -8.9623361825942993e-01 6.0462254285812378e-01</leafValues></_></weakClassifiers></_>
    <!-- stage 4 -->
    <_>
      <maxWeakCount>2</maxWeakCount>
      <stageThreshold>-1.6733872890472412e-01</stageThreshold>
      <weakClassifiers>
        <_>
          <internalNodes>
            0 -1 39 -1.6827697400003672e-03</internalNodes>
          <leafValues>
            6.7857140302658081e-01 -8.6363637447357178e-01</leafValues></_>
        <_>
          <internalNodes>
            0 -1 14 -1.5037539415061474e-03</internalNodes>
          <leafValues>
            7.1943902969360352e-01 -8.4591013193130493e-01</leafValues></_></weakClassifiers></_>
    <!-- stage 5 -->
    <_>
      <maxWeakCount>2</maxWeakCount>
      <stageThreshold>-5.2223630249500275e-02</stageThreshold>
      <weakClassifiers>
        <_>
          <internalNodes>
            0 -1 45 -5.0818277522921562e-03</internalNodes>
          <leafValues>
            8.9999997615814209e-01 -6.0000002384185791e-01</leafValues></_>
        <_>
          <internalNodes>
            0 -1 10 2.8161842375993729e-02</internalNodes>
          <leafValues>
            -8.5519105195999146e-01 5.4777634143829346e-01</leafValues></_></weakClassifiers></_>
    <!-- stage 6 -->
    <_>
      <maxWeakCount>4</maxWeakCount>
      <stageThreshold>1.0807694494724274e-01</stageThreshold>
      <weakClassifiers>
        <_>
          <internalNodes>
            0 -1 16 -5.6777518242597580e-02</internalNodes>
          <leafValues>
            8.8888889551162720e-01 -5.0000000000000000e-01</leafValues></_>
        <_>
          <internalNodes>
            0 -1 27 -1.9966298714280128e-03</internalNodes>
          <leafValues>
            7.5138604640960693e-01 -6.5014165639877319e-01</leafValues></_>
        <_>
          <internalNodes>
            0 -1 18 -3.5695149563252926e-03</internalNodes>
          <leafValues>
            6.4276230335235596e-01 -8.3757120370864868e-01</leafValues></_>
        <_>
          <internalNodes>
            0 -1 34 7.8465146943926811e-03</internalNodes>
          <leafValues>
            -7.7343261241912842e-01 7.1706372499465942e-01</leafValues></_></weakClassifiers></_>
    <!-- stage 7 -->
    <_>
      <maxWeakCount>2</maxWeakCount>
      <stageThreshold>-8.5842669010162354e-02</stageThreshold>
      <weakClassifiers>
        <_>
          <internalNodes>
            0 -1 15 -2.2974239662289619e-02</internalNodes>
          <leafValues>
            7.7777779102325439e-01 -6.3636362552642822e-01</leafValues></_>
        <_>
          <internalNodes>
            0 -1 40 -8.2889106124639511e-04</internalNodes>
          <leafValues>
            5.7417052984237671e-01 -8.6362046003341675e-01</leafValues></_></weakClassifiers></_>
    <!-- stage 8 -->
    <_>
      <maxWeakCount>2</maxWeakCount>
      <stageThreshold>-9.5513992011547089e-02</stageThreshold>
      <weakClassifiers>
        <_>
          <internalNodes>
            0 -1 26 1.4054581988602877e-03</internalNodes>
          <leafValues>
            -7.3913043737411499e-01 6.2962961196899414e-01</leafValues></_>
        <_>
          <internalNodes>
            0 -1 13 2.5170200970023870e-03</internalNodes>
          <leafValues>
            -7.0842820405960083e-01 6.4361643791198730e-01</leafValues></_></weakClassifiers></_>
    <!-- stage 9 -->
    <_>
      <maxWeakCount>2</maxWeakCount>
      <stageThreshold>7.6597645878791809e-02</stageThreshold>
      <weakClassifiers>
        <_>
          <internalNodes>
            0 -1 20 -1.6685638576745987e-02</internalNodes>
          <leafValues>
            6.9811320304870605e-01 -7.8723406791687012e-01</leafValues></_>
        <_>
          <internalNodes>
            0 -1 3 4.9604577943682671e-03</internalNodes>
          <leafValues>
            -5.9562003612518311e-01 8.6383169889450073e-01</leafValues></_></weakClassifiers></_>
    <!-- stage 10 -->
    <_>
      <maxWeakCount>3</maxWeakCount>
      <stageThreshold>-5.7481658458709717e-01</stageThreshold>
      <weakClassifiers>
        <_>
          <internalNodes>
            0 -1 31 6.6726696677505970e-03</internalNodes>
          <leafValues>
            -7.3333334922790527e-01 6.0000002384185791e-01</leafValues></_>
        <_>
          <internalNodes>
            0 -1 29 2.8652756009250879e-04</internalNodes>
          <leafValues>
            8.0342650413513184e-01 -5.5738824605941772e-01</leafValues></_>
        <_>
          <internalNodes>
            0 -1 42 5.1971543580293655e-03</internalNodes>
          <leafValues>
            -6.1742836236953735e-01 7.9742926359176636e-01</leafValues></_></weakClassifiers></_>
    <!-- stage 11 -->
    <_>
      <maxWeakCount>3</maxWeakCount>
      <stageThreshold>-6.4604264497756958e-01</stageThreshold>
      <weakClassifiers>
        <_>
          <internalNodes>
            0 -1 44 -3.6835959181189537e-03</internalNodes>
          <leafValues>
            8.5000002384185791e-01 -5.6666666269302368e-01</leafValues></_>
        <_>
          <internalNodes>
            0 -1 11 2.7338255313225091e-04</internalNodes>
          <leafValues>
            -5.4375708103179932e-01 6.8582105636596680e-01</leafValues></_>
        <_>
          <internalNodes>
            0 -1 25 6.7943159956485033e-04</internalNodes>
          <leafValues>
            4.6438109874725342e-01 -9.5020139217376709e-01</leafValues></_></weakClassifiers></_>
    <!-- stage 12 -->
    <_>
      <maxWeakCount>3</maxWeakCount>
      <stageThreshold>6.8496756255626678e-02</stageThreshold>
      <weakClassifiers>
        <_>
          <internalNodes>
            0 -1 33 7.7093723230063915e-03</internalNodes>
          <leafValues>
            -7.7272725105285645e-01 6.0714286565780640e-01</leafValues></_>
        <_>
          <internalNodes>
            0 -1 8 -6.9265410304069519e-02</internalNodes>
          <leafValues>
            5.1775944232940674e-01 -9.6063083410263062e-01</leafValues></_>
        <_>
          <internalNodes>
            0 -1 17 -8.8573980610817671e-04</internalNodes>
          <leafValues>
            -9.6815407276153564e-01 4.2198470234870911e-01</leafValues></_></weakClassifiers></_>
    <!-- stage 13 -->
    <_>
      <maxWeakCount>2</maxWeakCount>
      <stageThreshold>-2.7895703911781311e-01</stageThreshold>
      <weakClassifiers>
        <_>
          <internalNodes>
            0 -1 23 -2.9534688219428062e-03</internalNodes>
          <leafValues>
            6.1403506994247437e-01 -8.1395345926284790e-01</leafValues></_>
        <_>
          <internalNodes>
            0 -1 9 -1.3146078214049339e-02</internalNodes>
          <leafValues>
            5.3499644994735718e-01 -8.2462430000305176e-01</leafValues></_></weakClassifiers></_>
    <!-- stage 14 -->
    <_>
      <maxWeakCount>2</maxWeakCount>
      <stageThreshold>-1.6076448559761047e-01</stageThreshold>
      <weakClassifiers>
        <_>
          <internalNodes>
            0 -1 43 8.0604450777173042e-03</internalNodes>
          <leafValues>
            -7.5510203838348389e-01 7.2549021244049072e-01</leafValues></_>
        <_>
          <internalNodes>
            0 -1 19 -2.5506988167762756e-02</internalNodes>
          <leafValues>
            -8.6377978324890137e-01 5.9433758258819580e-01</leafValues></_></weakClassifiers></_>
    <!-- stage 15 -->
    <_>
      <maxWeakCount>2</maxWeakCount>
      <stageThreshold>-7.5455710291862488e-02</stageThreshold>
      <weakClassifiers>
        <_>
          <internalNodes>
            0 -1 36 1.1618108488619328e-02</internalNodes>
          <leafValues>
            -5.8490568399429321e-01 6.5957444906234741e-01</leafValues></_>
        <_>
          <internalNodes>
            0 -1 24 -2.8326923493295908e-03</internalNodes>
          <leafValues>
            7.4771791696548462e-01 -7.3503017425537109e-01</leafValues></_></weakClassifiers></_>
    <!-- stage 16 -->
    <_>
      <maxWeakCount>2</maxWeakCount>
      <stageThreshold>-3.2401674985885620e-01</stageThreshold>
      <weakClassifiers>
        <_>
          <internalNodes>
            0 -1 28 8.6675817146897316e-04</internalNodes>
          <leafValues>
            4.4117647409439087e-01 -9.3750000000000000e-01</leafValues></_>
        <_>
          <internalNodes>
            0 -1 0 1.8864650279283524e-02</internalNodes>
          <leafValues>
            -6.8988955020904541e-01 6.1348325014114380e-01</leafValues></_></weakClassifiers></_>
    <!-- stage 17 -->
    <_>
      <maxWeakCount>2</maxWeakCount>
      <stageThreshold>2.0570725202560425e-01</stageThreshold>
      <weakClassifiers>
        <_>
          <internalNodes>
            0 -1 12 5.8032795786857605e-03</internalNodes>
          <leafValues>
            -4.6268656849861145e-01 9.3939393758773804e-01</leafValues></_>
        <_>
          <internalNodes>
            0 -1 21 -2.9566127806901932e-02</internalNodes>
          <leafValues>
            6.6839379072189331e-01 -6.1793106794357300e-01</leafValues></_></weakClassifiers></_>
    <!-- stage 18 -->
    <_>
      <maxWeakCount>2</maxWeakCount>
      <stageThreshold>-6.9188699126243591e-02</stageThreshold>
      <weakClassifiers>
        <_>
          <internalNodes>
            0 -1 41 1.6626322176307440e-03</internalNodes>
          <leafValues>
            -6.3999998569488525e-01 6.3999998569488525e-01</leafValues></_>
        <_>
          <internalNodes>
            0 -1 30 -6.7339482484385371e-05</internalNodes>
          <leafValues>
            6.2556588649749756e-01 -7.0918869972229004e-01</leafValues></_></weakClassifiers></_>
    <!-- stage 19 -->
    <_>
      <maxWeakCount>3</maxWeakCount>
      <stageThreshold>3.8089108467102051e-01</stageThreshold>
      <weakClassifiers>
        <_>
          <internalNodes>
            0 -1 5 9.5677957870066166e-04</internalNodes>
          <leafValues>
            -7.6190477609634399e-01 5.5172413587570190e-01</leafValues></_>
        <_>
          <internalNodes>
            0 -1 22 1.1755005689337850e-03</internalNodes>
          <leafValues>
            4.5189425349235535e-01 -9.5702970027923584e-01</leafValues></_>
        <_>
          <internalNodes>
            0 -1 37 1.0485792532563210e-02</internalNodes>
          <leafValues>
            -5.8562713861465454e-01 7.8619664907455444e-01</leafValues></_></weakClassifiers></_></stages>
  <features>
    <_>
      <rects>
        <_>
          0 0 12 2 -1.</_>
        <_>
          6 0 6 2 2.</_></rects>
      <tilted>0</tilted></_>
    <_>
      <rects>
        <_>
          0 0 24 1 -1.</_>
        <_>
          8 0 8 1 3.</_></rects>
      <tilted>0</tilted></_>
    <_>
      <rects>
        <_>
          0 5 8 18 -1.</_>
        <_>
          0 11 8 6 3.</_></rects>
      <tilted>0</tilted></_>
    <_>
      <rects>
        <_>
          0 7 4 3 -1.</_>
        <_>
          2 7 2 3 2.</_></rects>
      <tilted>0</tilted></_>
    <_>
      <rects>
        <_>
          0 8 24 16 -1.</_>
        <_>
          0 16 24 8 2.</_></rects>
      <tilted>0</tilted></_>
    <_>
      <rects>
        <_>
          0 11 4 1 -1.</_>
        <_>
          2 11 2 1 2.</_></rects>
      <tilted>0</tilted></_>
    <_>
      <rects>
        <_>
          1 11 22 10 -1.</_>
        <_>
          1 16 22 5 2.</_></rects>
      <tilted>0</tilted></_>
    <_>
      <rects>
        <_>
          1 23 21 1 -1.</_>
        <_>
          8 23 7 1 3.</_></rects>
      <tilted>0</tilted></_>
    <_>
      <rects>
        <_>
          2 11 22 8 -1.</_>
        <_>
          2 15 22 4 2.</_></rects>
      <tilted>0</tilted></_>
    <_>
      <rects>
        <_>
          3 2 9 6 -1.</_>
        <_>
          3 5 9 3 2.</_></rects>
      <tilted>0</tilted></_>
    <_>
      <rects>
        <_>
          3 3 21 14 -1.</_>
        <_>
          10 3 7 14 3.</_></rects>
      <tilted>0</tilted></_>
    <_>
      <rects>
        <_>
          3 4 3 3 -1.</_>
        <_>
          3 5 3 1 3.</_></rects>
      <tilted>0</tilted></_>
    <_>
      <rects>
        <_>
          3 7 19 3 -1.</_>
        <_>
          3 8 19 1 3.</_></rects>
      <tilted>0</tilted></_>
    <_>
      <rects>
        <_>
          3 19 4 3 -1.</_>
        <_>
          5 19 2 3 2.</_></rects>
      <tilted>0</tilted></_>
    <_>
      <rects>
        <_>
          3 22 8 2 -1.</_>
        <_>
          3 23 8 1 2.</_></rects>
      <tilted>0</tilted></_>
    <_>
      <rects>
        <_>
          4 2 20 2 -1.</_>
        <_>
          14 2 10 2 2.</_></rects>
      <tilted>0</tilted></_>
    <_>
      <rects>
        <_>
          4 6 14 14 -1.</_>
        <_>
          4 6 7 7 2.</_>
        <_>
          11 13 7 7 2.</_></rects>
      <tilted>0</tilted></_>
    <_>
      <rects>
        <_>
          4 9 2 6 -1.</_>
        <_>
          4 9 1 3 2.</_>
        <_>
          5 12 1 3 2.</_></rects>
      <tilted>0</tilted></_>
    <_>
      <rects>
        <_>
          4 18 2 6 -1.</_>
        <_>
          4 21 2 3 2.</_></rects>
      <tilted>0</tilted></_>
    <_>
      <rects>
        <_>
          5 3 6 16 -1.</_>
        <_>
          5 11 6 8 2.</_></rects>
      <tilted>0</tilted></_>
    <_>
      <rects>
        <_>
          5 3 7 9 -1.</_>
        <_>
          5 6 7 3 3.</_></rects>
      <tilted>0</tilted></_>
    <_>
      <rects>
        <_>
          5 4 14 6 -1.</_>
        <_>
          5 6 14 2 3.</_></rects>
      <tilted>0</tilted></_>
    <_>
      <rects>
        <_>
          7 2 3 4 -1.</_>
        <_>
          8 2 1 4 3.</_></rects>
      <tilted>0</tilted></_>
    <_>
      <rects>
        <_>
          9 9 5 15 -1.</_>
        <_>
          9 14 5 5 3.</_></rects>
      <tilted>0</tilted></_>
    <_>
      <rects>
        <_>
          9 21 12 2 -1.</_>
        <_>
          9 21 6 1 2.</_>
        <_>
          15 22 6 1 2.</_></rects>
      <tilted>0</tilted></_>
    <_>
      <rects>
        <_>
          10 0 3 2 -1.</_>
        <_>
          11 0 1 2 3.</_></rects>
      <tilted>0</tilted></_>
    <_>
      <rects>
        <_>
          11 8 1 6 -1.</_>
        <_>
          11 10 1 2 3.</_></rects>
      <tilted>0</tilted></_>
    <_>
      <rects>
        <_>
          12 0 2 6 -1.</_>
        <_>
          12 3 2 3 2.</_></rects>
      <tilted>0</tilted></_>
    <_>
      <rects>
        <_>
          12 1 4 1 -1.</_>
        <_>
          14 1 2 1 2.</_></rects>
      <tilted>0</tilted></_>
    <_>
      <rects>
        <_>
          12 4 8 4 -1.</_>
        <_>
          12 4 4 2 2.</_>
        <_>
          16 6 4 2 2.</_></rects>
      <tilted>0</tilted></_>
    <_>
      <rects>
        <_>
          13 3 2 14 -1.</_>
        <_>
          14 3 1 14 2.</_></rects>
      <tilted>0</tilted></_>
    <_>
      <rects>
        <_>
          13 18 9 4 -1.</_>
        <_>
          16 18 3 4 3.</_></rects>
      <tilted>0</tilted></_>
    <_>
      <rects>
        <_>
          14 1 10 5 -1.</_>
        <_>
          19 1 5 5 2.</_></rects>
      <tilted>0</tilted></_>
    <_>
      <rects>
        <_>
          15 1 8 8 -1.</_>
        <_>
          15 1 4 4 2.</_>
        <_>
          19 5 4 4 2.</_></rects>
      <tilted>0</tilted></_>
    <_>
      <rects>
        <_>
          15 11 9 6 -1.</_>
        <_>
          18 11 3 6 3.</_></rects>
      <tilted>0</tilted></_>
    <_>
      <rects>
        <_>
          16 11 8 9 -1.</_>
        <_>
          20 11 4 9 2.</_></rects>
      <tilted>0</tilted></_>
    <_>
      <rects>
        <_>
          18 5 1 12 -1.</_>
        <_>
          18 9 1 4 3.</_></rects>
      <tilted>0</tilted></_>
    <_>
      <rects>
        <_>
          18 20 6 4 -1.</_>
        <_>
          18 20 3 2 2.</_>
        <_>
          21 22 3 2 2.</_></rects>
      <tilted>0</tilted></_>
    <_>
      <rects>
        <_>
          19 8 3 16 -1.</_>
        <_>
          19 16 3 8 2.</_></rects>
      <tilted>0</tilted></_>
    <_>
      <rects>
        <_>
          19 18 1 6 -1.</_>
        <_>
          19 21 1 3 2.</_></rects>
      <tilted>0</tilted></_>
    <_>
      <rects>
        <_>
          19 18 2 5 -1.</_>
        <_>
          20 18 1 5 2.</_></rects>
      <tilted>0</tilted></_>
    <_>
      <rects>
        <_>
          20 18 4 4 -1.</_>
        <_>
          20 18 2 2 2.</_>
        <_>
          22 20 2 2 2.</_></rects>
      <tilted>0</tilted></_>
    <_>
      <rects>
        <_>
          21 1 3 15 -1.</_>
        <_>
          22 1 1 15 3.</_></rects>
      <tilted>0</tilted></_>
    <_>
      <rects>
        <_>
          22 0 2 14 -1.</_>
        <_>
          22 7 2 7 2.</_></rects>
      <tilted>0</tilted></_>
    <_>
      <rects>
        <_>
          22 3 2 4 -1.</_>
        <_>
          23 3 1 4 2.</_></rects>
      <tilted>0</tilted></_>
    <_>
      <rects>
        <_>
          22 4 2 7 -1.</_>
        <_>
          23 4 1 7 2.</_></rects>
      <tilted>0</tilted></_></features></cascade>
</opencv_storage>
