<?xml version="1.0"?>
<opencv_storage>
<cascade>
  <stageType>BOOST</stageType>
  <featureType>HAAR</featureType>
  <height>24</height>
  <width>24</width>
  <stageParams>
    <boostType>GAB</boostType>
    <minHitRate>9.9500000476837158e-01</minHitRate>
    <maxFalseAlarm>5.0000000000000000e-01</maxFalseAlarm>
    <weightTrimRate>9.4999999999999996e-01</weightTrimRate>
    <maxDepth>1</maxDepth>
    <maxWeakCount>100</maxWeakCount></stageParams>
  <featureParams>
    <maxCatCount>0</maxCatCount>
    <featSize>1</featSize>
    <mode>BASIC</mode></featureParams>
  <stageNum>16</stageNum>
  <stages>
    <!-- stage 0 -->
    <_>
      <maxWeakCount>3</maxWeakCount>
      <stageThreshold>-1.2181715965270996e+00</stageThreshold>
      <weakClassifiers>
        <_>
          <internalNodes>
            0 -1 14 -1.0525649785995483e-01</internalNodes>
          <leafValues>
            9.0909093618392944e-01 -9.3750000000000000e-01</leafValues></_>
        <_>
          <internalNodes>
            0 -1 21 4.8571478575468063e-02</internalNodes>
          <leafValues>
            -9.1822463274002075e-01 6.3224875926971436e-01</leafValues></_>
        <_>
          <internalNodes>
            0 -1 26 4.7966822981834412e-02</internalNodes>
          <leafValues>
            -9.5133191347122192e-01 6.3755309581756592e-01</leafValues></_></weakClassifiers></_>
    <!-- stage 1 -->
    <_>
      <maxWeakCount>3</maxWeakCount>
      <stageThreshold>-1.5330960750579834e+00</stageThreshold>
      <weakClassifiers>
        <_>
          <internalNodes>
            0 -1 53 3.8946986198425293e-02</internalNodes>
          <leafValues>
            -9.1129034757614136e-01 5.0000000000000000e-01</leafValues></_>
        <_>
          <internalNodes>
            0 -1 31 8.0326288938522339e-02</internalNodes>
          <leafValues>
            -9.5085173845291138e-01 4.5953500270843506e-01</leafValues></_>
        <_>
          <internalNodes>
            0 -1 34 1.1619960889220238e-02</internalNodes>
          <leafValues>
            -9.2310220003128052e-01 3.2904598116874695e-01</leafValues></_></weakClassifiers></_>
    <!-- stage 2 -->
    <_>
      <maxWeakCount>3</maxWeakCount>
      <stageThreshold>-1.0643594264984131e+00</stageThreshold>
      <weakClassifiers>
        <_>
          <internalNodes>
            0 -1 54 4.2338281869888306e-02</internalNodes>
          <leafValues>
            -8.7234044075012207e-01 6.1445784568786621e-01</leafValues></_>
        <_>
          <internalNodes>
            0 -1 2 8.4268860518932343e-02</internalNodes>
          <leafValues>
            -6.4860093593597412e-01 7.7975940704345703e-01</leafValues></_>
        <_>
          <internalNodes>
            0 -1 16 6.3593074679374695e-02</internalNodes>
          <leafValues>
            -9.7177839279174805e-01 4.9209719896316528e-01</leafValues></_></weakClassifiers></_>
    <!-- stage 3 -->
    <_>
      <maxWeakCount>3</maxWeakCount>
      <stageThreshold>-1.0826789140701294e+00</stageThreshold>
      <weakClassifiers>
        <_>
          <internalNodes>
            0 -1 13 -3.2808665186166763e-02</internalNodes>
          <leafValues>
            4.0816327929496765e-01 -8.7649405002593994e-01</leafValues></_>
        <_>
          <internalNodes>
            0 -1 35 7.4913091957569122e-03</internalNodes>
          <leafValues>
            -9.0470713376998901e-01 3.3203583955764771e-01</leafValues></_>
        <_>
          <internalNodes>
            0 -1 61 -6.3543617725372314e-02</internalNodes>
          <leafValues>
            9.2184162139892578e-01 -5.3822076320648193e-01</leafValues></_></weakClassifiers></_>
    <!-- stage 4 -->
    <_>
      <maxWeakCount>3</maxWeakCount>
      <stageThreshold>-1.2481906414031982e+00</stageThreshold>
      <weakClassifiers>
        <_>
          <internalNodes>
            0 -1 28 -1.8249687552452087e-01</internalNodes>
          <leafValues>
            1.8918919563293457e-01 -8.6094069480895996e-01</leafValues></_>
        <_>
          <internalNodes>
            0 -1 6 2.2276733070611954e-02</internalNodes>
          <leafValues>
            -5.6777960062026978e-01 5.8419895172119141e-01</leafValues></_>
        <_>
          <internalNodes>
            0 -1 3 2.6155946776270866e-02</internalNodes>
          <leafValues>
            -9.7144895792007446e-01 3.5037526488304138e-01</leafValues></_></weakClassifiers></_>
    <!-- stage 5 -->
    <_>
      <maxWeakCount>4</maxWeakCount>
      <stageThreshold>-1.3158322572708130e+00</stageThreshold>
      <weakClassifiers>
        <_>
          <internalNodes>
            0 -1 42 -5.6247683241963387e-03</internalNodes>
          <leafValues>
            1.4516128599643707e-01 -8.7815123796463013e-01</leafValues></_>
        <_>
          <internalNodes>
            0 -1 55 2.2331364452838898e-02</internalNodes>
          <leafValues>
            -7.9582697153091431e-01 2.8791600465774536e-01</leafValues></_>
        <_>
          <internalNodes>
            0 -1 37 5.0583167467266321e-04</internalNodes>
          <leafValues>
            -9.3460214138031006e-01 2.8598672151565552e-01</leafValues></_>
        <_>
          <internalNodes>
            0 -1 12 1.3127346523106098e-02</internalNodes>
          <leafValues>
            -9.2354518175125122e-01 2.6943558454513550e-01</leafValues></_></weakClassifiers></_>
    <!-- stage 6 -->
    <_>
      <maxWeakCount>4</maxWeakCount>
      <stageThreshold>-1.1975947618484497e+00</stageThreshold>
      <weakClassifiers>
        <_>
          <internalNodes>
            0 -1 47 -7.6037859544157982e-03</internalNodes>
          <leafValues>
            3.9473685622215271e-01 -8.2061070203781128e-01</leafValues></_>
        <_>
          <internalNodes>
            0 -1 29 -5.0224490463733673e-02</internalNodes>
          <leafValues>
            3.1564563512802124e-01 -7.0739233493804932e-01</leafValues></_>
        <_>
          <internalNodes>
            0 -1 58 1.2211892753839493e-02</internalNodes>
          <leafValues>
            -9.1263031959533691e-01 2.9569432139396667e-01</leafValues></_>
        <_>
          <internalNodes>
            0 -1 25 1.9552670419216156e-03</internalNodes>
          <leafValues>
            2.2000065445899963e-01 -1.</leafValues></_></weakClassifiers></_>
    <!-- stage 7 -->
    <_>
      <maxWeakCount>5</maxWeakCount>
      <stageThreshold>-1.7132587432861328e+00</stageThreshold>
      <weakClassifiers>
        <_>
          <internalNodes>
            0 -1 45 -6.0533047653734684e-03</internalNodes>
          <leafValues>
            -4.0935672819614410e-02 -9.1608393192291260e-01</leafValues></_>
        <_>
          <internalNodes>
            0 -1 15 5.9303138405084610e-03</internalNodes>
          <leafValues>
            -7.6457917690277100e-01 2.5568440556526184e-01</leafValues></_>
        <_>
          <internalNodes>
            0 -1 43 -1.0392967611551285e-02</internalNodes>
          <leafValues>
            2.2190086543560028e-01 -1.</leafValues></_>
        <_>
          <internalNodes>
            0 -1 57 -3.0358560383319855e-02</internalNodes>
          <leafValues>
            6.6598111391067505e-01 -4.8795163631439209e-01</leafValues></_>
        <_>
          <internalNodes>
            0 -1 38 -1.9725987687706947e-02</internalNodes>
          <leafValues>
            4.4991016387939453e-01 -7.8680843114852905e-01</leafValues></_></weakClassifiers></_>
    <!-- stage 8 -->
    <_>
      <maxWeakCount>3</maxWeakCount>
      <stageThreshold>-9.2789453268051147e-01</stageThreshold>
      <weakClassifiers>
        <_>
          <internalNodes>
            0 -1 0 -3.2842054963111877e-02</internalNodes>
          <leafValues>
            8.8235294818878174e-01 -7.5971728563308716e-01</leafValues></_>
        <_>
          <internalNodes>
            0 -1 4 7.4423998594284058e-02</internalNodes>
          <leafValues>
            -5.4787433147430420e-01 6.3319379091262817e-01</leafValues></_>
        <_>
          <internalNodes>
            0 -1 18 5.6307375431060791e-02</internalNodes>
          <leafValues>
            -8.0137103796005249e-01 5.3172403573989868e-01</leafValues></_></weakClassifiers></_>
    <!-- stage 9 -->
    <_>
      <maxWeakCount>5</maxWeakCount>
      <stageThreshold>-1.7827919721603394e+00</stageThreshold>
      <weakClassifiers>
        <_>
          <internalNodes>
            0 -1 9 1.4108536764979362e-02</internalNodes>
          <leafValues>
            -7.9284369945526123e-01 3.0434781312942505e-01</leafValues></_>
        <_>
          <internalNodes>
            0 -1 44 1.3004503212869167e-02</internalNodes>
          <leafValues>
            -8.7444990873336792e-01 1.6058249771595001e-01</leafValues></_>
        <_>
          <internalNodes>
            0 -1 46 -8.1584835425019264e-04</internalNodes>
          <leafValues>
            -8.8428938388824463e-01 2.1567438542842865e-01</leafValues></_>
        <_>
          <internalNodes>
            0 -1 48 -1.7448250204324722e-02</internalNodes>
          <leafValues>
            4.4598352909088135e-01 -5.7789480686187744e-01</leafValues></_>
        <_>
          <internalNodes>
            0 -1 8 3.7516038864850998e-03</internalNodes>
          <leafValues>
            -9.4941651821136475e-01 2.4672207236289978e-01</leafValues></_></weakClassifiers></_>
    <!-- stage 10 -->
    <_>
      <maxWeakCount>6</maxWeakCount>
      <stageThreshold>-1.2637960910797119e+00</stageThreshold>
      <weakClassifiers>
        <_>
          <internalNodes>
            0 -1 1 -6.7971020936965942e-02</internalNodes>
          <leafValues>
            7.2222220897674561e-01 -7.5531917810440063e-01</leafValues></_>
        <_>
          <internalNodes>
            0 -1 7 4.2284432798624039e-02</internalNodes>
          <leafValues>
            -4.7607755661010742e-01 7.2685462236404419e-01</leafValues></_>
        <_>
          <internalNodes>
            0 -1 27 1.1007644934579730e-03</internalNodes>
          <leafValues>
            3.1428787112236023e-01 -8.6613094806671143e-01</leafValues></_>
        <_>
          <internalNodes>
            0 -1 5 -1.9254358485341072e-03</internalNodes>
          <leafValues>
            -7.9694199562072754e-01 2.5150313973426819e-01</leafValues></_>
        <_>
          <internalNodes>
            0 -1 23 1.0917918756604195e-02</internalNodes>
          <leafValues>
            -7.3349606990814209e-01 3.1543260812759399e-01</leafValues></_>
        <_>
          <internalNodes>
            0 -1 51 -9.7648496739566326e-04</internalNodes>
          <leafValues>
            -9.0973651409149170e-01 2.6679581403732300e-01</leafValues></_></weakClassifiers></_>
    <!-- stage 11 -->
    <_>
      <maxWeakCount>4</maxWeakCount>
      <stageThreshold>-1.1352640390396118e+00</stageThreshold>
      <weakClassifiers>
        <_>
          <internalNodes>
            0 -1 39 -1.0316450148820877e-02</internalNodes>
          <leafValues>
            2.1621622145175934e-01 -7.9087454080581665e-01</leafValues></_>
        <_>
          <internalNodes>
            0 -1 10 -1.7048541456460953e-02</internalNodes>
          <leafValues>
            3.3771851658821106e-01 -6.3328778743743896e-01</leafValues></_>
        <_>
          <internalNodes>
            0 -1 17 -1.7821285873651505e-03</internalNodes>
          <leafValues>
            -9.1439521312713623e-01 2.4608163535594940e-01</leafValues></_>
        <_>
          <internalNodes>
            0 -1 41 3.8747000508010387e-04</internalNodes>
          <leafValues>
            -8.6138170957565308e-01 1.9620272517204285e-01</leafValues></_></weakClassifiers></_>
    <!-- stage 12 -->
    <_>
      <maxWeakCount>4</maxWeakCount>
      <stageThreshold>-1.0698326826095581e+00</stageThreshold>
      <weakClassifiers>
        <_>
          <internalNodes>
            0 -1 59 -1.0122607648372650e-01</internalNodes>
          <leafValues>
            4.8936170339584351e-01 -7.6491862535476685e-01</leafValues></_>
        <_>
          <internalNodes>
            0 -1 60 1.0097630321979523e-02</internalNodes>
          <leafValues>
            -7.0469212532043457e-01 2.3620307445526123e-01</leafValues></_>
        <_>
          <internalNodes>
            0 -1 24 -1.0099281789734960e-03</internalNodes>
          <leafValues>
            -9.1981208324432373e-01 1.8678960204124451e-01</leafValues></_>
        <_>
          <internalNodes>
            0 -1 40 9.7562582232058048e-04</internalNodes>
          <leafValues>
            2.1298845112323761e-01 -9.7358971834182739e-01</leafValues></_></weakClassifiers></_>
    <!-- stage 13 -->
    <_>
      <maxWeakCount>4</maxWeakCount>
      <stageThreshold>-1.2135518789291382e+00</stageThreshold>
      <weakClassifiers>
        <_>
          <internalNodes>
            0 -1 11 1.2973602861166000e-02</internalNodes>
          <leafValues>
            -7.6449275016784668e-01 4.5833334326744080e-01</leafValues></_>
        <_>
          <internalNodes>
            0 -1 50 2.7569515630602837e-02</internalNodes>
          <leafValues>
            -7.5190424919128418e-01 1.8927590548992157e-01</leafValues></_>
        <_>
          <internalNodes>
            0 -1 56 2.2889929823577404e-04</internalNodes>
          <leafValues>
            -6.6034787893295288e-01 3.2019761204719543e-01</leafValues></_>
        <_>
          <internalNodes>
            0 -1 20 3.9222382009029388e-02</internalNodes>
          <leafValues>
            1.9851803779602051e-01 -9.5853257179260254e-01</leafValues></_></weakClassifiers></_>
    <!-- stage 14 -->
    <_>
      <maxWeakCount>4</maxWeakCount>
      <stageThreshold>-1.2976269721984863e+00</stageThreshold>
      <weakClassifiers>
        <_>
          <internalNodes>
            0 -1 33 -8.9687975123524666e-03</internalNodes>
          <leafValues>
            1.4814814925193787e-01 -8.4552848339080811e-01</leafValues></_>
        <_>
          <internalNodes>
            0 -1 19 -4.3658015783876181e-04</internalNodes>
          <leafValues>
            -8.5535919666290283e-01 6.9743834435939789e-02</leafValues></_>
        <_>
          <internalNodes>
            0 -1 52 2.1288556978106499e-02</internalNodes>
          <leafValues>
            -9.0930503606796265e-01 1.7859718203544617e-01</leafValues></_>
        <_>
          <internalNodes>
            0 -1 32 -4.0987768443301320e-04</internalNodes>
          <leafValues>
            3.8746270537376404e-01 -5.6425744295120239e-01</leafValues></_></weakClassifiers></_>
    <!-- stage 15 -->
    <_>
      <maxWeakCount>5</maxWeakCount>
      <stageThreshold>-1.1391947269439697e+00</stageThreshold>
      <weakClassifiers>
        <_>
          <internalNodes>
            0 -1 22 -8.2795647904276848e-03</internalNodes>
          <leafValues>
            1.7948718369007111e-01 -7.9310345649719238e-01</leafValues></_>
        <_>
          <internalNodes>
            0 -1 49 -1.0141859529539943e-03</internalNodes>
          <leafValues>
            -9.8428219556808472e-01 4.1225768625736237e-02</leafValues></_>
        <_>
          <internalNodes>
            0 -1 36 -7.0850192569196224e-03</internalNodes>
          <leafValues>
            -8.9988332986831665e-01 1.5135283768177032e-01</leafValues></_>
        <_>
          <internalNodes>
            0 -1 30 1.2534091249108315e-02</internalNodes>
          <leafValues>
            -7.0273101329803467e-01 3.1727239489555359e-01</leafValues></_>
        <_>
          <internalNodes>
            0 -1 62 4.2758416384458542e-04</internalNodes>
          <leafValues>
            2.5427013635635376e-01 -8.5594230890274048e-01</leafValues></_></weakClassifiers></_></stages>
  <features>
    <_>
      <rects>
        <_>
          0 0 4 6 -1.</_>
        <_>
          2 0 2 6 2.</_></rects>
      <tilted>0</tilted></_>
    <_>
      <rects>
        <_>
          0 0 4 23 -1.</_>
        <_>
          2 0 2 23 2.</_></rects>
      <tilted>0</tilted></_>
    <_>
      <rects>
        <_>
          0 2 8 22 -1.</_>
        <_>
          4 2 4 22 2.</_></rects>
      <tilted>0</tilted></_>
    <_>
      <rects>
        <_>
          0 9 19 6 -1.</_>
        <_>
          0 12 19 3 2.</_></rects>
      <tilted>0</tilted></_>
    <_>
      <rects>
        <_>
          0 20 24 3 -1.</_>
        <_>
          8 20 8 3 3.</_></rects>
      <tilted>0</tilted></_>
    <_>
      <rects>
        <_>
          1 1 18 3 -1.</_>
        <_>
          1 2 18 1 3.</_></rects>
      <tilted>0</tilted></_>
    <_>
      <rects>
        <_>
          1 2 4 11 -1.</_>
        <_>
          3 2 2 11 2.</_></rects>
      <tilted>0</tilted></_>
    <_>
      <rects>
        <_>
          1 3 4 12 -1.</_>
        <_>
          3 3 2 12 2.</_></rects>
      <tilted>0</tilted></_>
    <_>
      <rects>
        <_>
          1 11 23 3 -1.</_>
        <_>
          1 12 23 1 3.</_></rects>
      <tilted>0</tilted></_>
    <_>
      <rects>
        <_>
          2 4 4 3 -1.</_>
        <_>
          4 4 2 3 2.</_></rects>
      <tilted>0</tilted></_>
    <_>
      <rects>
        <_>
          2 4 6 6 -1.</_>
        <_>
          2 4 3 3 2.</_>
        <_>
          5 7 3 3 2.</_></rects>
      <tilted>0</tilted></_>
    <_>
      <rects>
        <_>
          2 5 2 8 -1.</_>
        <_>
          3 5 1 8 2.</_></rects>
      <tilted>0</tilted></_>
    <_>
      <rects>
        <_>
          2 9 8 6 -1.</_>
        <_>
          2 11 8 2 3.</_></rects>
      <tilted>0</tilted></_>
    <_>
      <rects>
        <_>
          3 1 6 10 -1.</_>
        <_>
          3 1 3 5 2.</_>
        <_>
          6 6 3 5 2.</_></rects>
      <tilted>0</tilted></_>
    <_>
      <rects>
        <_>
          3 4 16 9 -1.</_>
        <_>
          3 7 16 3 3.</_></rects>
      <tilted>0</tilted></_>
    <_>
      <rects>
        <_>
          3 8 4 6 -1.</_>
        <_>
          3 8 2 3 2.</_>
        <_>
          5 11 2 3 2.</_></rects>
      <tilted>0</tilted></_>
    <_>
      <rects>
        <_>
          3 8 15 9 -1.</_>
        <_>
          3 11 15 3 3.</_></rects>
      <tilted>0</tilted></_>
    <_>
      <rects>
        <_>
          3 12 10 1 -1.</_>
        <_>
          8 12 5 1 2.</_></rects>
      <tilted>0</tilted></_>
    <_>
      <rects>
        <_>
          4 0 14 9 -1.</_>
        <_>
          4 3 14 3 3.</_></rects>
      <tilted>0</tilted></_>
    <_>
      <rects>
        <_>
          4 4 2 2 -1.</_>
        <_>
          4 5 2 1 2.</_></rects>
      <tilted>0</tilted></_>
    <_>
      <rects>
        <_>
          4 5 16 14 -1.</_>
        <_>
          4 5 8 7 2.</_>
        <_>
          12 12 8 7 2.</_></rects>
      <tilted>0</tilted></_>
    <_>
      <rects>
        <_>
          4 8 15 6 -1.</_>
        <_>
          4 11 15 3 2.</_></rects>
      <tilted>0</tilted></_>
    <_>
      <rects>
        <_>
          5 8 3 3 -1.</_>
        <_>
          5 9 3 1 3.</_></rects>
      <tilted>0</tilted></_>
    <_>
      <rects>
        <_>
          5 8 12 2 -1.</_>
        <_>
          9 8 4 2 3.</_></rects>
      <tilted>0</tilted></_>
    <_>
      <rects>
        <_>
          6 0 6 1 -1.</_>
        <_>
          8 0 2 1 3.</_></rects>
      <tilted>0</tilted></_>
    <_>
      <rects>
        <_>
          6 1 4 14 -1.</_>
        <_>
          6 1 2 7 2.</_>
        <_>
          8 8 2 7 2.</_></rects>
      <tilted>0</tilted></_>
    <_>
      <rects>
        <_>
          6 1 12 11 -1.</_>
        <_>
          10 1 4 11 3.</_></rects>
      <tilted>0</tilted></_>
    <_>
      <rects>
        <_>
          6 2 6 8 -1.</_>
        <_>
          8 2 2 8 3.</_></rects>
      <tilted>0</tilted></_>
    <_>
      <rects>
        <_>
          6 3 12 12 -1.</_>
        <_>
          6 7 12 4 3.</_></rects>
      <tilted>0</tilted></_>
    <_>
      <rects>
        <_>
          6 4 11 6 -1.</_>
        <_>
          6 7 11 3 2.</_></rects>
      <tilted>0</tilted></_>
    <_>
      <rects>
        <_>
          6 8 2 6 -1.</_>
        <_>
          6 11 2 3 2.</_></rects>
      <tilted>0</tilted></_>
    <_>
      <rects>
        <_>
          6 8 14 12 -1.</_>
        <_>
          6 12 14 4 3.</_></rects>
      <tilted>0</tilted></_>
    <_>
      <rects>
        <_>
          6 13 4 1 -1.</_>
        <_>
          8 13 2 1 2.</_></rects>
      <tilted>0</tilted></_>
    <_>
      <rects>
        <_>
          8 14 6 3 -1.</_>
        <_>
          8 15 6 1 3.</_></rects>
      <tilted>0</tilted></_>
    <_>
      <rects>
        <_>
          9 7 6 6 -1.</_>
        <_>
          11 7 2 6 3.</_></rects>
      <tilted>0</tilted></_>
    <_>
      <rects>
        <_>
          9 8 6 2 -1.</_>
        <_>
          11 8 2 2 3.</_></rects>
      <tilted>0</tilted></_>
    <_>
      <rects>
        <_>
          9 9 6 6 -1.</_>
        <_>
          9 9 3 3 2.</_>
        <_>
          12 12 3 3 2.</_></rects>
      <tilted>0</tilted></_>
    <_>
      <rects>
        <_>
          9 10 7 3 -1.</_>
        <_>
          9 11 7 1 3.</_></rects>
      <tilted>0</tilted></_>
    <_>
      <rects>
        <_>
          9 11 6 8 -1.</_>
        <_>
          9 15 6 4 2.</_></rects>
      <tilted>0</tilted></_>
    <_>
      <rects>
        <_>
          9 17 7 3 -1.</_>
        <_>
          9 18 7 1 3.</_></rects>
      <tilted>0</tilted></_>
    <_>
      <rects>
        <_>
          10 2 2 4 -1.</_>
        <_>
          10 2 1 2 2.</_>
        <_>
          11 4 1 2 2.</_></rects>
      <tilted>0</tilted></_>
    <_>
      <rects>
        <_>
          10 4 2 5 -1.</_>
        <_>
          11 4 1 5 2.</_></rects>
      <tilted>0</tilted></_>
    <_>
      <rects>
        <_>
          10 14 4 3 -1.</_>
        <_>
          10 15 4 1 3.</_></rects>
      <tilted>0</tilted></_>
    <_>
      <rects>
        <_>
          11 6 6 8 -1.</_>
        <_>
          14 6 3 8 2.</_></rects>
      <tilted>0</tilted></_>
    <_>
      <rects>
        <_>
          11 7 6 10 -1.</_>
        <_>
          11 7 3 5 2.</_>
        <_>
          14 12 3 5 2.</_></rects>
      <tilted>0</tilted></_>
    <_>
      <rects>
        <_>
          11 9 1 10 -1.</_>
        <_>
          11 14 1 5 2.</_></rects>
      <tilted>0</tilted></_>
    <_>
      <rects>
        <_>
          11 9 3 3 -1.</_>
        <_>
          11 10 3 1 3.</_></rects>
      <tilted>0</tilted></_>
    <_>
      <rects>
        <_>
          11 14 3 3 -1.</_>
        <_>
          11 15 3 1 3.</_></rects>
      <tilted>0</tilted></_>
    <_>
      <rects>
        <_>
          12 0 10 3 -1.</_>
        <_>
          17 0 5 3 2.</_></rects>
      <tilted>0</tilted></_>
    <_>
      <rects>
        <_>
          12 1 3 3 -1.</_>
        <_>
          13 1 1 3 3.</_></rects>
      <tilted>0</tilted></_>
    <_>
      <rects>
        <_>
          12 1 10 12 -1.</_>
        <_>
          12 1 5 6 2.</_>
        <_>
          17 7 5 6 2.</_></rects>
      <tilted>0</tilted></_>
    <_>
      <rects>
        <_>
          13 0 3 6 -1.</_>
        <_>
          14 0 1 6 3.</_></rects>
      <tilted>0</tilted></_>
    <_>
      <rects>
        <_>
          13 6 6 18 -1.</_>
        <_>
          13 12 6 6 3.</_></rects>
      <tilted>0</tilted></_>
    <_>
      <rects>
        <_>
          14 2 8 10 -1.</_>
        <_>
          14 2 4 5 2.</_>
        <_>
          18 7 4 5 2.</_></rects>
      <tilted>0</tilted></_>
    <_>
      <rects>
        <_>
          15 0 6 12 -1.</_>
        <_>
          15 0 3 6 2.</_>
        <_>
          18 6 3 6 2.</_></rects>
      <tilted>0</tilted></_>
    <_>
      <rects>
        <_>
          15 1 6 10 -1.</_>
        <_>
          15 1 3 5 2.</_>
        <_>
          18 6 3 5 2.</_></rects>
      <tilted>0</tilted></_>
    <_>
      <rects>
        <_>
          15 9 2 6 -1.</_>
        <_>
          15 9 1 3 2.</_>
        <_>
          16 12 1 3 2.</_></rects>
      <tilted>0</tilted></_>
    <_>
      <rects>
        <_>
          16 3 8 6 -1.</_>
        <_>
          20 3 4 6 2.</_></rects>
      <tilted>0</tilted></_>
    <_>
      <rects>
        <_>
          16 9 6 9 -1.</_>
        <_>
          16 12 6 3 3.</_></rects>
      <tilted>0</tilted></_>
    <_>
      <rects>
        <_>
          17 1 6 17 -1.</_>
        <_>
          20 1 3 17 2.</_></rects>
      <tilted>0</tilted></_>
    <_>
      <rects>
        <_>
          17 3 4 8 -1.</_>
        <_>
          17 3 2 4 2.</_>
        <_>
          19 7 2 4 2.</_></rects>
      <tilted>0</tilted></_>
    <_>
      <rects>
        <_>
          18 3 6 15 -1.</_>
        <_>
          21 3 3 15 2.</_></rects>
      <tilted>0</tilted></_>
    <_>
      <rects>
        <_>
          22 1 2 2 -1.</_>
        <_>
          22 2 2 1 2.</_></rects>
      <tilted>0</tilted></_></features></cascade>
</opencv_storage>
