<?xml version="1.0"?>
<opencv_storage>
<stage10>
  <maxWeakCount>6</maxWeakCount>
  <stageThreshold>-1.2637960910797119e+00</stageThreshold>
  <weakClassifiers>
    <_>
      <internalNodes>
        0 -1 156 -6.7971020936965942e-02</internalNodes>
      <leafValues>
        7.2222220897674561e-01 -7.5531917810440063e-01</leafValues></_>
    <_>
      <internalNodes>
        0 -1 16414 4.2284432798624039e-02</internalNodes>
      <leafValues>
        -4.7607755661010742e-01 7.2685462236404419e-01</leafValues></_>
    <_>
      <internalNodes>
        0 -1 72422 1.1007644934579730e-03</internalNodes>
      <leafValues>
        3.1428787112236023e-01 -8.6613094806671143e-01</leafValues></_>
    <_>
      <internalNodes>
        0 -1 15258 -1.9254358485341072e-03</internalNodes>
      <leafValues>
        -7.9694199562072754e-01 2.5150313973426819e-01</leafValues></_>
    <_>
      <internalNodes>
        0 -1 66290 1.0917918756604195e-02</internalNodes>
      <leafValues>
        -7.3349606990814209e-01 3.1543260812759399e-01</leafValues></_>
    <_>
      <internalNodes>
        0 -1 128067 -9.7648496739566326e-04</internalNodes>
      <leafValues>
        -9.0973651409149170e-01 2.6679581403732300e-01</leafValues></_></weakClassifiers></stage10>
</opencv_storage>
