<?xml version="1.0"?>
<opencv_storage>
<stage15>
  <maxWeakCount>5</maxWeakCount>
  <stageThreshold>-1.1391947269439697e+00</stageThreshold>
  <weakClassifiers>
    <_>
      <internalNodes>
        0 -1 66233 -8.2795647904276848e-03</internalNodes>
      <leafValues>
        1.7948718369007111e-01 -7.9310345649719238e-01</leafValues></_>
    <_>
      <internalNodes>
        0 -1 121908 -1.0141859529539943e-03</internalNodes>
      <leafValues>
        -9.8428219556808472e-01 4.1225768625736237e-02</leafValues></_>
    <_>
      <internalNodes>
        0 -1 103715 -7.0850192569196224e-03</internalNodes>
      <leafValues>
        -8.9988332986831665e-01 1.5135283768177032e-01</leafValues></_>
    <_>
      <internalNodes>
        0 -1 76336 1.2534091249108315e-02</internalNodes>
      <leafValues>
        -7.0273101329803467e-01 3.1727239489555359e-01</leafValues></_>
    <_>
      <internalNodes>
        0 -1 161312 4.2758416384458542e-04</internalNodes>
      <leafValues>
        2.5427013635635376e-01 -8.5594230890274048e-01</leafValues></_></weakClassifiers></stage15>
</opencv_storage>
