<?xml version="1.0"?>
<opencv_storage>
<cascade>
  <stageType>BOOST</stageType>
  <featureType>HAAR</featureType>
  <height>24</height>
  <width>24</width>
  <stageParams>
    <boostType>GAB</boostType>
    <minHitRate>9.9500000476837158e-01</minHitRate>
    <maxFalseAlarm>5.0000000000000000e-01</maxFalseAlarm>
    <weightTrimRate>9.4999999999999996e-01</weightTrimRate>
    <maxDepth>1</maxDepth>
    <maxWeakCount>100</maxWeakCount></stageParams>
  <featureParams>
    <maxCatCount>0</maxCatCount>
    <featSize>1</featSize>
    <mode>BASIC</mode></featureParams>
  <stageNum>20</stageNum>
  <stages>
    <!-- stage 0 -->
    <_>
      <maxWeakCount>3</maxWeakCount>
      <stageThreshold>-7.3920673131942749e-01</stageThreshold>
      <weakClassifiers>
        <_>
          <internalNodes>
            0 -1 15 -1.6474652290344238e-01</internalNodes>
          <leafValues>
            9.1578948497772217e-01 -8.2857143878936768e-01</leafValues></_>
        <_>
          <internalNodes>
            0 -1 7 1.9125912338495255e-02</internalNodes>
          <leafValues>
            -8.0971395969390869e-01 8.7395477294921875e-01</leafValues></_>
        <_>
          <internalNodes>
            0 -1 55 1.4562556147575378e-01</internalNodes>
          <leafValues>
            -7.0694130659103394e-01 8.9907866716384888e-01</leafValues></_></weakClassifiers></_>
    <!-- stage 1 -->
    <_>
      <maxWeakCount>2</maxWeakCount>
      <stageThreshold>1.3498671352863312e-01</stageThreshold>
      <weakClassifiers>
        <_>
          <internalNodes>
            0 -1 2 6.0459144413471222e-02</internalNodes>
          <leafValues>
            -7.3076921701431274e-01 7.9166668653488159e-01</leafValues></_>
        <_>
          <internalNodes>
            0 -1 58 -7.6414704322814941e-02</internalNodes>
          <leafValues>
            8.6575597524642944e-01 -6.1873090267181396e-01</leafValues></_></weakClassifiers></_>
    <!-- stage 2 -->
    <_>
      <maxWeakCount>3</maxWeakCount>
      <stageThreshold>-8.8985228538513184e-01</stageThreshold>
      <weakClassifiers>
        <_>
          <internalNodes>
            0 -1 24 4.5230269432067871e-02</internalNodes>
          <leafValues>
            -8.2978725433349609e-01 7.3584908246994019e-01</leafValues></_>
        <_>
          <internalNodes>
            0 -1 18 -4.0515720844268799e-02</internalNodes>
          <leafValues>
            9.1591644287109375e-01 -6.7053735256195068e-01</leafValues></_>
        <_>
          <internalNodes>
            0 -1 31 8.4814568981528282e-03</internalNodes>
          <leafValues>
            -7.9999601840972900e-01 6.1047232151031494e-01</leafValues></_></weakClassifiers></_>
    <!-- stage 3 -->
    <_>
      <maxWeakCount>4</maxWeakCount>
      <stageThreshold>-1.4453010559082031e+00</stageThreshold>
      <weakClassifiers>
        <_>
          <internalNodes>
            0 -1 6 2.6731394231319427e-02</internalNodes>
          <leafValues>
            -5.4330706596374512e-01 9.4520545005798340e-01</leafValues></_>
        <_>
          <internalNodes>
            0 -1 66 -9.5211770385503769e-03</internalNodes>
          <leafValues>
            6.5581303834915161e-01 -7.2237455844879150e-01</leafValues></_>
        <_>
          <internalNodes>
            0 -1 9 2.7451526373624802e-02</internalNodes>
          <leafValues>
            -6.3043040037155151e-01 5.7122611999511719e-01</leafValues></_>
        <_>
          <internalNodes>
            0 -1 50 -9.4410844147205353e-02</internalNodes>
          <leafValues>
            4.5081096887588501e-01 -9.4615876674652100e-01</leafValues></_></weakClassifiers></_>
    <!-- stage 4 -->
    <_>
      <maxWeakCount>3</maxWeakCount>
      <stageThreshold>-8.2368880510330200e-01</stageThreshold>
      <weakClassifiers>
        <_>
          <internalNodes>
            0 -1 8 2.9006429016590118e-02</internalNodes>
          <leafValues>
            -8.8764047622680664e-01 7.1171170473098755e-01</leafValues></_>
        <_>
          <internalNodes>
            0 -1 16 1.2953914701938629e-02</internalNodes>
          <leafValues>
            -7.7595359086990356e-01 7.0175629854202271e-01</leafValues></_>
        <_>
          <internalNodes>
            0 -1 74 -5.1449970342218876e-03</internalNodes>
          <leafValues>
            8.3990526199340820e-01 -5.8538365364074707e-01</leafValues></_></weakClassifiers></_>
    <!-- stage 5 -->
    <_>
      <maxWeakCount>5</maxWeakCount>
      <stageThreshold>-1.1695275306701660e+00</stageThreshold>
      <weakClassifiers>
        <_>
          <internalNodes>
            0 -1 3 1.6408707946538925e-02</internalNodes>
          <leafValues>
            -5.7627117633819580e-01 8.2926827669143677e-01</leafValues></_>
        <_>
          <internalNodes>
            0 -1 73 -2.9647480696439743e-03</internalNodes>
          <leafValues>
            6.6515803337097168e-01 -6.8784821033477783e-01</leafValues></_>
        <_>
          <internalNodes>
            0 -1 63 -4.6286806464195251e-03</internalNodes>
          <leafValues>
            5.6973886489868164e-01 -8.3232337236404419e-01</leafValues></_>
        <_>
          <internalNodes>
            0 -1 33 -7.3198578320443630e-04</internalNodes>
          <leafValues>
            5.5679017305374146e-01 -8.5464227199554443e-01</leafValues></_>
        <_>
          <internalNodes>
            0 -1 45 -7.3003196157515049e-03</internalNodes>
          <leafValues>
            3.7949532270431519e-01 -9.6164512634277344e-01</leafValues></_></weakClassifiers></_>
    <!-- stage 6 -->
    <_>
      <maxWeakCount>5</maxWeakCount>
      <stageThreshold>-7.7093130350112915e-01</stageThreshold>
      <weakClassifiers>
        <_>
          <internalNodes>
            0 -1 10 1.1410886421799660e-02</internalNodes>
          <leafValues>
            -4.9253731966018677e-01 1.</leafValues></_>
        <_>
          <internalNodes>
            0 -1 11 -1.8451013602316380e-04</internalNodes>
          <leafValues>
            -7.5443077087402344e-01 5.6283509731292725e-01</leafValues></_>
        <_>
          <internalNodes>
            0 -1 17 -5.4700054228305817e-02</internalNodes>
          <leafValues>
            5.0064957141876221e-01 -7.8983259201049805e-01</leafValues></_>
        <_>
          <internalNodes>
            0 -1 12 -1.0871250182390213e-01</internalNodes>
          <leafValues>
            6.5873855352401733e-01 -6.0407096147537231e-01</leafValues></_>
        <_>
          <internalNodes>
            0 -1 62 4.0291938930749893e-03</internalNodes>
          <leafValues>
            -6.8335127830505371e-01 6.5587359666824341e-01</leafValues></_></weakClassifiers></_>
    <!-- stage 7 -->
    <_>
      <maxWeakCount>3</maxWeakCount>
      <stageThreshold>-4.0805214643478394e-01</stageThreshold>
      <weakClassifiers>
        <_>
          <internalNodes>
            0 -1 52 2.1553449332714081e-02</internalNodes>
          <leafValues>
            -4.9618321657180786e-01 9.4202899932861328e-01</leafValues></_>
        <_>
          <internalNodes>
            0 -1 60 -4.0083341300487518e-03</internalNodes>
          <leafValues>
            5.4217725992202759e-01 -7.3719966411590576e-01</leafValues></_>
        <_>
          <internalNodes>
            0 -1 69 -2.4920245632529259e-02</internalNodes>
          <leafValues>
            8.7682396173477173e-01 -4.5404621958732605e-01</leafValues></_></weakClassifiers></_>
    <!-- stage 8 -->
    <_>
      <maxWeakCount>4</maxWeakCount>
      <stageThreshold>-4.3387925624847412e-01</stageThreshold>
      <weakClassifiers>
        <_>
          <internalNodes>
            0 -1 1 9.2500178143382072e-03</internalNodes>
          <leafValues>
            -4.4927537441253662e-01 1.</leafValues></_>
        <_>
          <internalNodes>
            0 -1 23 -6.1797550879418850e-03</internalNodes>
          <leafValues>
            5.2240270376205444e-01 -7.7283024787902832e-01</leafValues></_>
        <_>
          <internalNodes>
            0 -1 67 -6.0540158301591873e-05</internalNodes>
          <leafValues>
            -7.2112709283828735e-01 4.5541965961456299e-01</leafValues></_>
        <_>
          <internalNodes>
            0 -1 44 4.3349037878215313e-04</internalNodes>
          <leafValues>
            3.3280670642852783e-01 -9.1684782505035400e-01</leafValues></_></weakClassifiers></_>
    <!-- stage 9 -->
    <_>
      <maxWeakCount>4</maxWeakCount>
      <stageThreshold>-3.0713418126106262e-01</stageThreshold>
      <weakClassifiers>
        <_>
          <internalNodes>
            0 -1 0 6.7359972745180130e-03</internalNodes>
          <leafValues>
            -4.4927537441253662e-01 1.</leafValues></_>
        <_>
          <internalNodes>
            0 -1 27 -1.8404871225357056e-03</internalNodes>
          <leafValues>
            5.6431829929351807e-01 -5.9043306112289429e-01</leafValues></_>
        <_>
          <internalNodes>
            0 -1 57 -4.1432855650782585e-03</internalNodes>
          <leafValues>
            4.4073599576950073e-01 -7.9730379581451416e-01</leafValues></_>
        <_>
          <internalNodes>
            0 -1 44 -2.4692169972695410e-04</internalNodes>
          <leafValues>
            -8.6291313171386719e-01 3.7532159686088562e-01</leafValues></_></weakClassifiers></_>
    <!-- stage 10 -->
    <_>
      <maxWeakCount>3</maxWeakCount>
      <stageThreshold>-4.4005054235458374e-01</stageThreshold>
      <weakClassifiers>
        <_>
          <internalNodes>
            0 -1 40 1.3944700360298157e-02</internalNodes>
          <leafValues>
            -4.9618321657180786e-01 9.4202899932861328e-01</leafValues></_>
        <_>
          <internalNodes>
            0 -1 13 -4.2702201753854752e-02</internalNodes>
          <leafValues>
            6.4627200365066528e-01 -5.4060989618301392e-01</leafValues></_>
        <_>
          <internalNodes>
            0 -1 14 8.7316101416945457e-04</internalNodes>
          <leafValues>
            -5.9013932943344116e-01 6.2334483861923218e-01</leafValues></_></weakClassifiers></_>
    <!-- stage 11 -->
    <_>
      <maxWeakCount>3</maxWeakCount>
      <stageThreshold>-4.7602653503417969e-01</stageThreshold>
      <weakClassifiers>
        <_>
          <internalNodes>
            0 -1 20 1.4912631362676620e-02</internalNodes>
          <leafValues>
            -4.7058823704719543e-01 1.</leafValues></_>
        <_>
          <internalNodes>
            0 -1 72 -4.0920460596680641e-03</internalNodes>
          <leafValues>
            6.7070341110229492e-01 -5.4272621870040894e-01</leafValues></_>
        <_>
          <internalNodes>
            0 -1 56 -3.0239347834140062e-03</internalNodes>
          <leafValues>
            5.3728789091110229e-01 -6.2060862779617310e-01</leafValues></_></weakClassifiers></_>
    <!-- stage 12 -->
    <_>
      <maxWeakCount>3</maxWeakCount>
      <stageThreshold>-9.0963143110275269e-01</stageThreshold>
      <weakClassifiers>
        <_>
          <internalNodes>
            0 -1 28 -3.1876243650913239e-02</internalNodes>
          <leafValues>
            6.9090908765792847e-01 -8.4444445371627808e-01</leafValues></_>
        <_>
          <internalNodes>
            0 -1 39 1.1382573843002319e-01</internalNodes>
          <leafValues>
            -8.0265390872955322e-01 5.5555880069732666e-01</leafValues></_>
        <_>
          <internalNodes>
            0 -1 35 9.0704653412103653e-03</internalNodes>
          <leafValues>
            -6.2074577808380127e-01 7.7861505746841431e-01</leafValues></_></weakClassifiers></_>
    <!-- stage 13 -->
    <_>
      <maxWeakCount>4</maxWeakCount>
      <stageThreshold>-1.0435068607330322e+00</stageThreshold>
      <weakClassifiers>
        <_>
          <internalNodes>
            0 -1 26 -4.3013105168938637e-03</internalNodes>
          <leafValues>
            1. -4.4927537441253662e-01</leafValues></_>
        <_>
          <internalNodes>
            0 -1 70 7.6982448808848858e-04</internalNodes>
          <leafValues>
            -5.6908828020095825e-01 5.8145749568939209e-01</leafValues></_>
        <_>
          <internalNodes>
            0 -1 64 -2.5351127609610558e-02</internalNodes>
          <leafValues>
            6.2634128332138062e-01 -5.3686445951461792e-01</leafValues></_>
        <_>
          <internalNodes>
            0 -1 54 -3.5114683210849762e-02</internalNodes>
          <leafValues>
            5.4976493120193481e-01 -6.5148454904556274e-01</leafValues></_></weakClassifiers></_>
    <!-- stage 14 -->
    <_>
      <maxWeakCount>5</maxWeakCount>
      <stageThreshold>-4.9592283368110657e-01</stageThreshold>
      <weakClassifiers>
        <_>
          <internalNodes>
            0 -1 59 9.8723024129867554e-03</internalNodes>
          <leafValues>
            -5.3125000000000000e-01 9.4444441795349121e-01</leafValues></_>
        <_>
          <internalNodes>
            0 -1 42 -8.0523540964350104e-04</internalNodes>
          <leafValues>
            -9.0131276845932007e-01 4.3715330958366394e-01</leafValues></_>
        <_>
          <internalNodes>
            0 -1 29 2.9784964397549629e-02</internalNodes>
          <leafValues>
            -4.5807370543479919e-01 7.9380649328231812e-01</leafValues></_>
        <_>
          <internalNodes>
            0 -1 30 -2.4480609223246574e-02</internalNodes>
          <leafValues>
            9.5740050077438354e-01 -3.6693888902664185e-01</leafValues></_>
        <_>
          <internalNodes>
            0 -1 43 2.0557302981615067e-02</internalNodes>
          <leafValues>
            -9.0115290880203247e-01 5.3067421913146973e-01</leafValues></_></weakClassifiers></_>
    <!-- stage 15 -->
    <_>
      <maxWeakCount>5</maxWeakCount>
      <stageThreshold>-5.3621852397918701e-01</stageThreshold>
      <weakClassifiers>
        <_>
          <internalNodes>
            0 -1 4 2.3712357506155968e-02</internalNodes>
          <leafValues>
            -4.4927537441253662e-01 1.</leafValues></_>
        <_>
          <internalNodes>
            0 -1 51 -2.9105208814144135e-03</internalNodes>
          <leafValues>
            7.1298539638519287e-01 -3.6491107940673828e-01</leafValues></_>
        <_>
          <internalNodes>
            0 -1 61 4.6698423102498055e-03</internalNodes>
          <leafValues>
            -4.5244631171226501e-01 6.4283853769302368e-01</leafValues></_>
        <_>
          <internalNodes>
            0 -1 41 -5.9396913275122643e-04</internalNodes>
          <leafValues>
            -8.0623584985733032e-01 4.5336276292800903e-01</leafValues></_>
        <_>
          <internalNodes>
            0 -1 19 1.3989103026688099e-02</internalNodes>
          <leafValues>
            4.5875361561775208e-01 -8.0574327707290649e-01</leafValues></_></weakClassifiers></_>
    <!-- stage 16 -->
    <_>
      <maxWeakCount>4</maxWeakCount>
      <stageThreshold>-1.3443902730941772e+00</stageThreshold>
      <weakClassifiers>
        <_>
          <internalNodes>
            0 -1 1 9.6254665404558182e-03</internalNodes>
          <leafValues>
            -4.4927537441253662e-01 1.</leafValues></_>
        <_>
          <internalNodes>
            0 -1 68 1.2688664719462395e-03</internalNodes>
          <leafValues>
            -6.0825270414352417e-01 5.1834648847579956e-01</leafValues></_>
        <_>
          <internalNodes>
            0 -1 38 8.1007703556679189e-05</internalNodes>
          <leafValues>
            4.7689130902290344e-01 -7.5205564498901367e-01</leafValues></_>
        <_>
          <internalNodes>
            0 -1 36 3.3735872711986303e-03</internalNodes>
          <leafValues>
            -7.6375347375869751e-01 3.7331229448318481e-01</leafValues></_></weakClassifiers></_>
    <!-- stage 17 -->
    <_>
      <maxWeakCount>5</maxWeakCount>
      <stageThreshold>-5.6134372949600220e-01</stageThreshold>
      <weakClassifiers>
        <_>
          <internalNodes>
            0 -1 22 3.3007286489009857e-02</internalNodes>
          <leafValues>
            -5.5932205915451050e-01 8.0487805604934692e-01</leafValues></_>
        <_>
          <internalNodes>
            0 -1 49 -5.4688454838469625e-04</internalNodes>
          <leafValues>
            -8.2244735956192017e-01 4.3217653036117554e-01</leafValues></_>
        <_>
          <internalNodes>
            0 -1 71 1.7864786786958575e-04</internalNodes>
          <leafValues>
            -7.2383952140808105e-01 4.7298851609230042e-01</leafValues></_>
        <_>
          <internalNodes>
            0 -1 46 1.5233971178531647e-02</internalNodes>
          <leafValues>
            -3.8755309581756592e-01 8.2862246036529541e-01</leafValues></_>
        <_>
          <internalNodes>
            0 -1 47 -3.5290843807160854e-03</internalNodes>
          <leafValues>
            6.7719435691833496e-01 -4.7396638989448547e-01</leafValues></_></weakClassifiers></_>
    <!-- stage 18 -->
    <_>
      <maxWeakCount>5</maxWeakCount>
      <stageThreshold>-3.7318581342697144e-01</stageThreshold>
      <weakClassifiers>
        <_>
          <internalNodes>
            0 -1 34 -1.8117431551218033e-02</internalNodes>
          <leafValues>
            9.4117647409439087e-01 -4.8484849929809570e-01</leafValues></_>
        <_>
          <internalNodes>
            0 -1 32 9.0778968296945095e-04</internalNodes>
          <leafValues>
            3.8661479949951172e-01 -1.</leafValues></_>
        <_>
          <internalNodes>
            0 -1 48 2.7687650173902512e-02</internalNodes>
          <leafValues>
            -3.3827769756317139e-01 9.4464921951293945e-01</leafValues></_>
        <_>
          <internalNodes>
            0 -1 21 3.0397459864616394e-02</internalNodes>
          <leafValues>
            -2.9457718133926392e-01 8.9847975969314575e-01</leafValues></_>
        <_>
          <internalNodes>
            0 -1 65 -5.4159793071448803e-03</internalNodes>
          <leafValues>
            -1. 3.5790276527404785e-01</leafValues></_></weakClassifiers></_>
    <!-- stage 19 -->
    <_>
      <maxWeakCount>5</maxWeakCount>
      <stageThreshold>-5.4812103509902954e-01</stageThreshold>
      <weakClassifiers>
        <_>
          <internalNodes>
            0 -1 5 2.9200457036495209e-02</internalNodes>
          <leafValues>
            -4.4927537441253662e-01 1.</leafValues></_>
        <_>
          <internalNodes>
            0 -1 68 6.4575430005788803e-03</internalNodes>
          <leafValues>
            -3.0960965156555176e-01 7.6383745670318604e-01</leafValues></_>
        <_>
          <internalNodes>
            0 -1 25 -1.4912956394255161e-03</internalNodes>
          <leafValues>
            3.8072177767753601e-01 -8.3059138059616089e-01</leafValues></_>
        <_>
          <internalNodes>
            0 -1 53 2.4217836558818817e-02</internalNodes>
          <leafValues>
            -4.4299134612083435e-01 6.8668937683105469e-01</leafValues></_>
        <_>
          <internalNodes>
            0 -1 37 1.5448936028406024e-04</internalNodes>
          <leafValues>
            -8.5664719343185425e-01 4.3607294559478760e-01</leafValues></_></weakClassifiers></_></stages>
  <features>
    <_>
      <rects>
        <_>
          0 0 2 2 -1.</_>
        <_>
          0 1 2 1 2.</_></rects>
      <tilted>0</tilted></_>
    <_>
      <rects>
        <_>
          0 0 2 3 -1.</_>
        <_>
          0 1 2 1 3.</_></rects>
      <tilted>0</tilted></_>
    <_>
      <rects>
        <_>
          0 0 8 24 -1.</_>
        <_>
          4 0 4 24 2.</_></rects>
      <tilted>0</tilted></_>
    <_>
      <rects>
        <_>
          0 0 10 1 -1.</_>
        <_>
          5 0 5 1 2.</_></rects>
      <tilted>0</tilted></_>
    <_>
      <rects>
        <_>
          0 0 5 3 -1.</_>
        <_>
          0 1 5 1 3.</_></rects>
      <tilted>0</tilted></_>
    <_>
      <rects>
        <_>
          0 0 6 3 -1.</_>
        <_>
          0 1 6 1 3.</_></rects>
      <tilted>0</tilted></_>
    <_>
      <rects>
        <_>
          0 0 14 1 -1.</_>
        <_>
          7 0 7 1 2.</_></rects>
      <tilted>0</tilted></_>
    <_>
      <rects>
        <_>
          0 0 21 1 -1.</_>
        <_>
          7 0 7 1 3.</_></rects>
      <tilted>0</tilted></_>
    <_>
      <rects>
        <_>
          0 0 21 2 -1.</_>
        <_>
          7 0 7 2 3.</_></rects>
      <tilted>0</tilted></_>
    <_>
      <rects>
        <_>
          0 0 24 1 -1.</_>
        <_>
          8 0 8 1 3.</_></rects>
      <tilted>0</tilted></_>
    <_>
      <rects>
        <_>
          0 0 10 2 -1.</_>
        <_>
          0 1 10 1 2.</_></rects>
      <tilted>0</tilted></_>
    <_>
      <rects>
        <_>
          0 2 6 1 -1.</_>
        <_>
          2 2 2 1 3.</_></rects>
      <tilted>0</tilted></_>
    <_>
      <rects>
        <_>
          0 2 22 9 -1.</_>
        <_>
          0 5 22 3 3.</_></rects>
      <tilted>0</tilted></_>
    <_>
      <rects>
        <_>
          0 4 21 6 -1.</_>
        <_>
          0 6 21 2 3.</_></rects>
      <tilted>0</tilted></_>
    <_>
      <rects>
        <_>
          1 5 3 11 -1.</_>
        <_>
          2 5 1 11 3.</_></rects>
      <tilted>0</tilted></_>
    <_>
      <rects>
        <_>
          1 10 22 14 -1.</_>
        <_>
          1 17 22 7 2.</_></rects>
      <tilted>0</tilted></_>
    <_>
      <rects>
        <_>
          1 15 6 9 -1.</_>
        <_>
          4 15 3 9 2.</_></rects>
      <tilted>0</tilted></_>
    <_>
      <rects>
        <_>
          2 10 6 14 -1.</_>
        <_>
          2 17 6 7 2.</_></rects>
      <tilted>0</tilted></_>
    <_>
      <rects>
        <_>
          2 12 4 12 -1.</_>
        <_>
          2 18 4 6 2.</_></rects>
      <tilted>0</tilted></_>
    <_>
      <rects>
        <_>
          2 12 10 4 -1.</_>
        <_>
          7 12 5 4 2.</_></rects>
      <tilted>0</tilted></_>
    <_>
      <rects>
        <_>
          3 0 8 2 -1.</_>
        <_>
          3 1 8 1 2.</_></rects>
      <tilted>0</tilted></_>
    <_>
      <rects>
        <_>
          3 5 17 6 -1.</_>
        <_>
          3 7 17 2 3.</_></rects>
      <tilted>0</tilted></_>
    <_>
      <rects>
        <_>
          3 15 9 8 -1.</_>
        <_>
          6 15 3 8 3.</_></rects>
      <tilted>0</tilted></_>
    <_>
      <rects>
        <_>
          3 18 4 6 -1.</_>
        <_>
          3 21 4 3 2.</_></rects>
      <tilted>0</tilted></_>
    <_>
      <rects>
        <_>
          4 0 20 10 -1.</_>
        <_>
          4 0 10 5 2.</_>
        <_>
          14 5 10 5 2.</_></rects>
      <tilted>0</tilted></_>
    <_>
      <rects>
        <_>
          4 22 7 2 -1.</_>
        <_>
          4 23 7 1 2.</_></rects>
      <tilted>0</tilted></_>
    <_>
      <rects>
        <_>
          5 0 2 2 -1.</_>
        <_>
          5 0 1 1 2.</_>
        <_>
          6 1 1 1 2.</_></rects>
      <tilted>0</tilted></_>
    <_>
      <rects>
        <_>
          5 0 2 10 -1.</_>
        <_>
          5 0 1 5 2.</_>
        <_>
          6 5 1 5 2.</_></rects>
      <tilted>0</tilted></_>
    <_>
      <rects>
        <_>
          5 0 7 15 -1.</_>
        <_>
          5 5 7 5 3.</_></rects>
      <tilted>0</tilted></_>
    <_>
      <rects>
        <_>
          5 2 12 8 -1.</_>
        <_>
          5 2 6 4 2.</_>
        <_>
          11 6 6 4 2.</_></rects>
      <tilted>0</tilted></_>
    <_>
      <rects>
        <_>
          5 5 8 10 -1.</_>
        <_>
          5 5 4 5 2.</_>
        <_>
          9 10 4 5 2.</_></rects>
      <tilted>0</tilted></_>
    <_>
      <rects>
        <_>
          5 6 7 8 -1.</_>
        <_>
          5 10 7 4 2.</_></rects>
      <tilted>0</tilted></_>
    <_>
      <rects>
        <_>
          5 11 3 8 -1.</_>
        <_>
          5 15 3 4 2.</_></rects>
      <tilted>0</tilted></_>
    <_>
      <rects>
        <_>
          5 22 6 2 -1.</_>
        <_>
          5 23 6 1 2.</_></rects>
      <tilted>0</tilted></_>
    <_>
      <rects>
        <_>
          6 7 9 2 -1.</_>
        <_>
          9 7 3 2 3.</_></rects>
      <tilted>0</tilted></_>
    <_>
      <rects>
        <_>
          6 7 17 3 -1.</_>
        <_>
          6 8 17 1 3.</_></rects>
      <tilted>0</tilted></_>
    <_>
      <rects>
        <_>
          6 8 6 4 -1.</_>
        <_>
          6 10 6 2 2.</_></rects>
      <tilted>0</tilted></_>
    <_>
      <rects>
        <_>
          6 9 5 2 -1.</_>
        <_>
          6 10 5 1 2.</_></rects>
      <tilted>0</tilted></_>
    <_>
      <rects>
        <_>
          6 15 2 4 -1.</_>
        <_>
          6 15 1 2 2.</_>
        <_>
          7 17 1 2 2.</_></rects>
      <tilted>0</tilted></_>
    <_>
      <rects>
        <_>
          7 2 15 18 -1.</_>
        <_>
          7 8 15 6 3.</_></rects>
      <tilted>0</tilted></_>
    <_>
      <rects>
        <_>
          7 7 15 3 -1.</_>
        <_>
          7 8 15 1 3.</_></rects>
      <tilted>0</tilted></_>
    <_>
      <rects>
        <_>
          7 19 3 3 -1.</_>
        <_>
          7 20 3 1 3.</_></rects>
      <tilted>0</tilted></_>
    <_>
      <rects>
        <_>
          7 21 3 2 -1.</_>
        <_>
          8 21 1 2 3.</_></rects>
      <tilted>0</tilted></_>
    <_>
      <rects>
        <_>
          8 0 16 10 -1.</_>
        <_>
          8 0 8 5 2.</_>
        <_>
          16 5 8 5 2.</_></rects>
      <tilted>0</tilted></_>
    <_>
      <rects>
        <_>
          8 1 3 1 -1.</_>
        <_>
          9 1 1 1 3.</_></rects>
      <tilted>0</tilted></_>
    <_>
      <rects>
        <_>
          8 2 16 2 -1.</_>
        <_>
          16 2 8 2 2.</_></rects>
      <tilted>0</tilted></_>
    <_>
      <rects>
        <_>
          8 6 9 9 -1.</_>
        <_>
          11 6 3 9 3.</_></rects>
      <tilted>0</tilted></_>
    <_>
      <rects>
        <_>
          9 5 6 1 -1.</_>
        <_>
          12 5 3 1 2.</_></rects>
      <tilted>0</tilted></_>
    <_>
      <rects>
        <_>
          9 6 6 7 -1.</_>
        <_>
          11 6 2 7 3.</_></rects>
      <tilted>0</tilted></_>
    <_>
      <rects>
        <_>
          9 8 6 3 -1.</_>
        <_>
          9 9 6 1 3.</_></rects>
      <tilted>0</tilted></_>
    <_>
      <rects>
        <_>
          9 8 14 16 -1.</_>
        <_>
          9 16 14 8 2.</_></rects>
      <tilted>0</tilted></_>
    <_>
      <rects>
        <_>
          9 21 12 2 -1.</_>
        <_>
          9 21 6 1 2.</_>
        <_>
          15 22 6 1 2.</_></rects>
      <tilted>0</tilted></_>
    <_>
      <rects>
        <_>
          10 4 6 7 -1.</_>
        <_>
          13 4 3 7 2.</_></rects>
      <tilted>0</tilted></_>
    <_>
      <rects>
        <_>
          10 19 12 4 -1.</_>
        <_>
          14 19 4 4 3.</_></rects>
      <tilted>0</tilted></_>
    <_>
      <rects>
        <_>
          11 0 3 22 -1.</_>
        <_>
          11 11 3 11 2.</_></rects>
      <tilted>0</tilted></_>
    <_>
      <rects>
        <_>
          11 2 13 18 -1.</_>
        <_>
          11 8 13 6 3.</_></rects>
      <tilted>0</tilted></_>
    <_>
      <rects>
        <_>
          11 15 12 2 -1.</_>
        <_>
          11 16 12 1 2.</_></rects>
      <tilted>0</tilted></_>
    <_>
      <rects>
        <_>
          13 0 8 3 -1.</_>
        <_>
          17 0 4 3 2.</_></rects>
      <tilted>0</tilted></_>
    <_>
      <rects>
        <_>
          13 0 8 12 -1.</_>
        <_>
          13 4 8 4 3.</_></rects>
      <tilted>0</tilted></_>
    <_>
      <rects>
        <_>
          13 7 8 3 -1.</_>
        <_>
          13 8 8 1 3.</_></rects>
      <tilted>0</tilted></_>
    <_>
      <rects>
        <_>
          13 20 8 4 -1.</_>
        <_>
          17 20 4 4 2.</_></rects>
      <tilted>0</tilted></_>
    <_>
      <rects>
        <_>
          14 12 6 6 -1.</_>
        <_>
          16 12 2 6 3.</_></rects>
      <tilted>0</tilted></_>
    <_>
      <rects>
        <_>
          14 17 9 3 -1.</_>
        <_>
          17 17 3 3 3.</_></rects>
      <tilted>0</tilted></_>
    <_>
      <rects>
        <_>
          14 17 8 7 -1.</_>
        <_>
          18 17 4 7 2.</_></rects>
      <tilted>0</tilted></_>
    <_>
      <rects>
        <_>
          16 2 5 9 -1.</_>
        <_>
          16 5 5 3 3.</_></rects>
      <tilted>0</tilted></_>
    <_>
      <rects>
        <_>
          16 13 6 4 -1.</_>
        <_>
          16 13 3 2 2.</_>
        <_>
          19 15 3 2 2.</_></rects>
      <tilted>0</tilted></_>
    <_>
      <rects>
        <_>
          18 16 3 8 -1.</_>
        <_>
          18 20 3 4 2.</_></rects>
      <tilted>0</tilted></_>
    <_>
      <rects>
        <_>
          18 17 3 4 -1.</_>
        <_>
          19 17 1 4 3.</_></rects>
      <tilted>0</tilted></_>
    <_>
      <rects>
        <_>
          18 20 6 4 -1.</_>
        <_>
          18 20 3 2 2.</_>
        <_>
          21 22 3 2 2.</_></rects>
      <tilted>0</tilted></_>
    <_>
      <rects>
        <_>
          20 0 4 13 -1.</_>
        <_>
          22 0 2 13 2.</_></rects>
      <tilted>0</tilted></_>
    <_>
      <rects>
        <_>
          20 19 4 4 -1.</_>
        <_>
          20 19 2 2 2.</_>
        <_>
          22 21 2 2 2.</_></rects>
      <tilted>0</tilted></_>
    <_>
      <rects>
        <_>
          20 20 4 2 -1.</_>
        <_>
          20 20 2 1 2.</_>
        <_>
          22 21 2 1 2.</_></rects>
      <tilted>0</tilted></_>
    <_>
      <rects>
        <_>
          22 2 2 9 -1.</_>
        <_>
          23 2 1 9 2.</_></rects>
      <tilted>0</tilted></_>
    <_>
      <rects>
        <_>
          22 3 2 9 -1.</_>
        <_>
          23 3 1 9 2.</_></rects>
      <tilted>0</tilted></_>
    <_>
      <rects>
        <_>
          22 4 2 7 -1.</_>
        <_>
          23 4 1 7 2.</_></rects>
      <tilted>0</tilted></_></features></cascade>
</opencv_storage>
