<?xml version="1.0"?>
<opencv_storage>
<stage13>
  <maxWeakCount>5</maxWeakCount>
  <stageThreshold>-1.6820950508117676e+00</stageThreshold>
  <weakClassifiers>
    <_>
      <internalNodes>
        0 -1 90 -2.5990996509790421e-02</internalNodes>
      <leafValues>
        6.0000002384185791e-01 -8.5116279125213623e-01</leafValues></_>
    <_>
      <internalNodes>
        0 -1 155890 -2.1148849278688431e-02</internalNodes>
      <leafValues>
        2.4391213059425354e-01 -6.4816737174987793e-01</leafValues></_>
    <_>
      <internalNodes>
        0 -1 125649 -2.2508143447339535e-03</internalNodes>
      <leafValues>
        2.0541788637638092e-01 -8.2186788320541382e-01</leafValues></_>
    <_>
      <internalNodes>
        0 -1 143022 1.4650944649474695e-05</internalNodes>
      <leafValues>
        -6.2670809030532837e-01 3.0551576614379883e-01</leafValues></_>
    <_>
      <internalNodes>
        0 -1 142826 6.7648116964846849e-04</internalNodes>
      <leafValues>
        2.3852528631687164e-01 -1.</leafValues></_></weakClassifiers></stage13>
</opencv_storage>
