<?xml version="1.0"?>
<opencv_storage>
<stage7>
  <maxWeakCount>5</maxWeakCount>
  <stageThreshold>-1.4034079313278198e+00</stageThreshold>
  <weakClassifiers>
    <_>
      <internalNodes>
        0 -1 148791 -1.0227441042661667e-01</internalNodes>
      <leafValues>
        3.7254902720451355e-01 -8.7607246637344360e-01</leafValues></_>
    <_>
      <internalNodes>
        0 -1 27977 -4.4398613274097443e-02</internalNodes>
      <leafValues>
        4.9979525804519653e-01 -6.9844102859497070e-01</leafValues></_>
    <_>
      <internalNodes>
        0 -1 76831 5.0476035103201866e-03</internalNodes>
      <leafValues>
        -8.3228391408920288e-01 2.2333927452564240e-01</leafValues></_>
    <_>
      <internalNodes>
        0 -1 50245 5.6191541254520416e-02</internalNodes>
      <leafValues>
        -6.5596640110015869e-01 3.6285701394081116e-01</leafValues></_>
    <_>
      <internalNodes>
        0 -1 13101 7.5169250369071960e-02</internalNodes>
      <leafValues>
        -4.1509070992469788e-01 8.1823807954788208e-01</leafValues></_></weakClassifiers></stage7>
</opencv_storage>
