<?xml version="1.0"?>
<opencv_storage>
<stage9>
  <maxWeakCount>5</maxWeakCount>
  <stageThreshold>-1.5067652463912964e+00</stageThreshold>
  <weakClassifiers>
    <_>
      <internalNodes>
        0 -1 156048 -3.6943715065717697e-02</internalNodes>
      <leafValues>
        2.2807016968727112e-01 -8.7535953521728516e-01</leafValues></_>
    <_>
      <internalNodes>
        0 -1 7618 -1.2037243694067001e-01</internalNodes>
      <leafValues>
        7.7228522300720215e-01 -5.4635131359100342e-01</leafValues></_>
    <_>
      <internalNodes>
        0 -1 15583 5.6178253144025803e-02</internalNodes>
      <leafValues>
        -4.5842126011848450e-01 5.5692368745803833e-01</leafValues></_>
    <_>
      <internalNodes>
        0 -1 109124 2.9100445681251585e-04</internalNodes>
      <leafValues>
        2.6680451631546021e-01 -8.8839960098266602e-01</leafValues></_>
    <_>
      <internalNodes>
        0 -1 95295 -3.0478721018880606e-03</internalNodes>
      <leafValues>
        2.4642151594161987e-01 -7.8369146585464478e-01</leafValues></_></weakClassifiers></stage9>
</opencv_storage>
