<?xml version="1.0"?>
<opencv_storage>
<stage6>
  <maxWeakCount>5</maxWeakCount>
  <stageThreshold>-1.8204231262207031e+00</stageThreshold>
  <weakClassifiers>
    <_>
      <internalNodes>
        0 -1 26073 -5.9309259057044983e-02</internalNodes>
      <leafValues>
        -2.4390242993831635e-02 -9.1811668872833252e-01</leafValues></_>
    <_>
      <internalNodes>
        0 -1 105500 -7.2156721726059914e-03</internalNodes>
      <leafValues>
        4.0943247079849243e-01 -7.2299462556838989e-01</leafValues></_>
    <_>
      <internalNodes>
        0 -1 22661 3.7587641272693872e-03</internalNodes>
      <leafValues>
        -9.7784286737442017e-01 1.9176577031612396e-01</leafValues></_>
    <_>
      <internalNodes>
        0 -1 128307 3.5081535577774048e-02</internalNodes>
      <leafValues>
        -6.1613559722900391e-01 3.8040298223495483e-01</leafValues></_>
    <_>
      <internalNodes>
        0 -1 109668 2.6124059222638607e-03</internalNodes>
      <leafValues>
        -7.5148057937622070e-01 4.2722508311271667e-01</leafValues></_></weakClassifiers></stage6>
</opencv_storage>
