<?xml version="1.0"?>
<opencv_storage>
<stage8>
  <maxWeakCount>6</maxWeakCount>
  <stageThreshold>-1.7419730424880981e+00</stageThreshold>
  <weakClassifiers>
    <_>
      <internalNodes>
        0 -1 144 -8.1369340419769287e-02</internalNodes>
      <leafValues>
        6.9696968793869019e-01 -8.6504215002059937e-01</leafValues></_>
    <_>
      <internalNodes>
        0 -1 2329 5.6686095893383026e-02</internalNodes>
      <leafValues>
        -6.8278020620346069e-01 4.7241726517677307e-01</leafValues></_>
    <_>
      <internalNodes>
        0 -1 100906 -1.4980653068050742e-03</internalNodes>
      <leafValues>
        -8.7570321559906006e-01 2.2585602104663849e-01</leafValues></_>
    <_>
      <internalNodes>
        0 -1 96224 -1.0842664167284966e-02</internalNodes>
      <leafValues>
        2.7785328030586243e-01 -8.4649175405502319e-01</leafValues></_>
    <_>
      <internalNodes>
        0 -1 70936 8.9157409965991974e-03</internalNodes>
      <leafValues>
        -9.1753864288330078e-01 2.7633923292160034e-01</leafValues></_>
    <_>
      <internalNodes>
        0 -1 137622 -1.1930605251109228e-04</internalNodes>
      <leafValues>
        -9.3270653486251831e-01 2.1967865526676178e-01</leafValues></_></weakClassifiers></stage8>
</opencv_storage>
