<?xml version="1.0"?>
<opencv_storage>
<stage16>
  <maxWeakCount>13</maxWeakCount>
  <stageThreshold>-2.2332112789154053e+00</stageThreshold>
  <weakClassifiers>
    <_>
      <internalNodes>
        0 -1 15406 -1.9916601479053497e-02</internalNodes>
      <leafValues>
        -5.4054055362939835e-02 -8.4477895498275757e-01</leafValues></_>
    <_>
      <internalNodes>
        0 -1 120644 2.8042374178767204e-03</internalNodes>
      <leafValues>
        -5.6763577461242676e-01 8.9415870606899261e-02</leafValues></_>
    <_>
      <internalNodes>
        0 -1 47326 1.8531301990151405e-02</internalNodes>
      <leafValues>
        1.0563629120588303e-01 -7.5681561231613159e-01</leafValues></_>
    <_>
      <internalNodes>
        0 -1 102322 -5.2398163825273514e-04</internalNodes>
      <leafValues>
        1.9037038087844849e-01 -6.3814598321914673e-01</leafValues></_>
    <_>
      <internalNodes>
        0 -1 105115 1.1479055974632502e-03</internalNodes>
      <leafValues>
        -3.7696275115013123e-01 2.7267825603485107e-01</leafValues></_>
    <_>
      <internalNodes>
        0 -1 87956 4.4747864012606442e-04</internalNodes>
      <leafValues>
        1.6159409284591675e-01 -8.0586481094360352e-01</leafValues></_>
    <_>
      <internalNodes>
        0 -1 118732 6.3481484539806843e-03</internalNodes>
      <leafValues>
        -4.7298976778984070e-01 2.4911199510097504e-01</leafValues></_>
    <_>
      <internalNodes>
        0 -1 128392 1.3588836009148508e-04</internalNodes>
      <leafValues>
        -4.9126905202865601e-01 2.3446108400821686e-01</leafValues></_>
    <_>
      <internalNodes>
        0 -1 173 7.9558668658137321e-03</internalNodes>
      <leafValues>
        1.4213605225086212e-01 -6.7247718572616577e-01</leafValues></_>
    <_>
      <internalNodes>
        0 -1 4555 -2.0801962818950415e-03</internalNodes>
      <leafValues>
        1.2426321208477020e-01 -8.5762137174606323e-01</leafValues></_>
    <_>
      <internalNodes>
        0 -1 114248 -8.9099770411849022e-03</internalNodes>
      <leafValues>
        4.3393990397453308e-01 -2.8422605991363525e-01</leafValues></_>
    <_>
      <internalNodes>
        0 -1 8345 2.5841664522886276e-02</internalNodes>
      <leafValues>
        1.7765417695045471e-01 -6.7052549123764038e-01</leafValues></_>
    <_>
      <internalNodes>
        0 -1 162102 6.8255123915150762e-04</internalNodes>
      <leafValues>
        1.6579651832580566e-01 -6.1849802732467651e-01</leafValues></_></weakClassifiers></stage16>
</opencv_storage>
