<?xml version="1.0"?>
<opencv_storage>
<stage5>
  <maxWeakCount>5</maxWeakCount>
  <stageThreshold>-1.7608002424240112e+00</stageThreshold>
  <weakClassifiers>
    <_>
      <internalNodes>
        0 -1 113174 -7.1313115768134594e-03</internalNodes>
      <leafValues>
        -2.1897810697555542e-01 -9.0342676639556885e-01</leafValues></_>
    <_>
      <internalNodes>
        0 -1 3406 7.7676132321357727e-02</internalNodes>
      <leafValues>
        -6.4276522397994995e-01 2.8823807835578918e-01</leafValues></_>
    <_>
      <internalNodes>
        0 -1 116122 -5.1836641505360603e-03</internalNodes>
      <leafValues>
        3.3521279692649841e-01 -6.4681446552276611e-01</leafValues></_>
    <_>
      <internalNodes>
        0 -1 85291 2.4745226837694645e-03</internalNodes>
      <leafValues>
        -8.4402972459793091e-01 2.8440853953361511e-01</leafValues></_>
    <_>
      <internalNodes>
        0 -1 96182 -4.1201645508408546e-03</internalNodes>
      <leafValues>
        2.9420870542526245e-01 -7.6409840583801270e-01</leafValues></_></weakClassifiers></stage5>
</opencv_storage>
