<?xml version="1.0"?>
<opencv_storage>
<stage3>
  <maxWeakCount>5</maxWeakCount>
  <stageThreshold>-2.1264271736145020e+00</stageThreshold>
  <weakClassifiers>
    <_>
      <internalNodes>
        0 -1 17453 -2.6065882295370102e-02</internalNodes>
      <leafValues>
        -2.0110192894935608e-01 -9.4011974334716797e-01</leafValues></_>
    <_>
      <internalNodes>
        0 -1 140164 8.9645795524120331e-03</internalNodes>
      <leafValues>
        -8.9155125617980957e-01 1.3302651047706604e-01</leafValues></_>
    <_>
      <internalNodes>
        0 -1 80970 1.7144976183772087e-02</internalNodes>
      <leafValues>
        -8.8141244649887085e-01 2.5231605768203735e-01</leafValues></_>
    <_>
      <internalNodes>
        0 -1 65523 -3.0356507748365402e-02</internalNodes>
      <leafValues>
        3.7935724854469299e-01 -7.9337835311889648e-01</leafValues></_>
    <_>
      <internalNodes>
        0 -1 105757 7.2943000122904778e-04</internalNodes>
      <leafValues>
        -4.9271166324615479e-01 5.9961253404617310e-01</leafValues></_></weakClassifiers></stage3>
</opencv_storage>
