<?xml version="1.0"?>
<opencv_storage>
<stage15>
  <maxWeakCount>10</maxWeakCount>
  <stageThreshold>-1.9642001390457153e+00</stageThreshold>
  <weakClassifiers>
    <_>
      <internalNodes>
        0 -1 120193 -7.5179492123425007e-03</internalNodes>
      <leafValues>
        -4.1549295186996460e-01 -8.7787055969238281e-01</leafValues></_>
    <_>
      <internalNodes>
        0 -1 155453 -4.0307231247425079e-03</internalNodes>
      <leafValues>
        1.1928788572549820e-01 -5.5641299486160278e-01</leafValues></_>
    <_>
      <internalNodes>
        0 -1 148821 -8.0335196107625961e-03</internalNodes>
      <leafValues>
        -7.2275054454803467e-01 1.1564217507839203e-01</leafValues></_>
    <_>
      <internalNodes>
        0 -1 130453 4.8091087955981493e-04</internalNodes>
      <leafValues>
        -6.7107629776000977e-01 1.5458467602729797e-01</leafValues></_>
    <_>
      <internalNodes>
        0 -1 66589 3.5198353230953217e-02</internalNodes>
      <leafValues>
        1.6267728805541992e-01 -8.5832071304321289e-01</leafValues></_>
    <_>
      <internalNodes>
        0 -1 86430 2.4266559630632401e-03</internalNodes>
      <leafValues>
        1.4467459917068481e-01 -7.5556552410125732e-01</leafValues></_>
    <_>
      <internalNodes>
        0 -1 35549 -1.9887853413820267e-03</internalNodes>
      <leafValues>
        -7.7862858772277832e-01 1.4206692576408386e-01</leafValues></_>
    <_>
      <internalNodes>
        0 -1 132179 -3.5828374326229095e-02</internalNodes>
      <leafValues>
        -7.0380526781082153e-01 1.2128977477550507e-01</leafValues></_>
    <_>
      <internalNodes>
        0 -1 119425 1.3557707461586688e-05</internalNodes>
      <leafValues>
        -5.0162369012832642e-01 2.1343788504600525e-01</leafValues></_>
    <_>
      <internalNodes>
        0 -1 158240 -2.5027947500348091e-02</internalNodes>
      <leafValues>
        -7.3939228057861328e-01 1.4161117374897003e-01</leafValues></_></weakClassifiers></stage15>
</opencv_storage>
