<?xml version="1.0"?>
<opencv_storage>
<stage11>
  <maxWeakCount>8</maxWeakCount>
  <stageThreshold>-1.7596498727798462e+00</stageThreshold>
  <weakClassifiers>
    <_>
      <internalNodes>
        0 -1 49353 9.3268170952796936e-02</internalNodes>
      <leafValues>
        -8.6213594675064087e-01 -1.7142857611179352e-01</leafValues></_>
    <_>
      <internalNodes>
        0 -1 113174 -7.8014591708779335e-03</internalNodes>
      <leafValues>
        2.6355770230293274e-01 -5.7787817716598511e-01</leafValues></_>
    <_>
      <internalNodes>
        0 -1 111017 1.1110110208392143e-03</internalNodes>
      <leafValues>
        -5.7891011238098145e-01 2.5311258435249329e-01</leafValues></_>
    <_>
      <internalNodes>
        0 -1 128760 3.0819054692983627e-02</internalNodes>
      <leafValues>
        -4.1387993097305298e-01 3.6242285370826721e-01</leafValues></_>
    <_>
      <internalNodes>
        0 -1 91244 1.9881194457411766e-03</internalNodes>
      <leafValues>
        1.4938649535179138e-01 -9.3499195575714111e-01</leafValues></_>
    <_>
      <internalNodes>
        0 -1 90579 -1.2790870387107134e-03</internalNodes>
      <leafValues>
        -6.9085043668746948e-01 1.9482536613941193e-01</leafValues></_>
    <_>
      <internalNodes>
        0 -1 28107 1.7023603431880474e-03</internalNodes>
      <leafValues>
        1.8763445317745209e-01 -7.0900058746337891e-01</leafValues></_>
    <_>
      <internalNodes>
        0 -1 80267 -1.2851338833570480e-03</internalNodes>
      <leafValues>
        2.6164022088050842e-01 -5.3365987539291382e-01</leafValues></_></weakClassifiers></stage11>
</opencv_storage>
