<?xml version="1.0"?>
<opencv_storage>
<stage12>
  <maxWeakCount>6</maxWeakCount>
  <stageThreshold>-1.9753600358963013e+00</stageThreshold>
  <weakClassifiers>
    <_>
      <internalNodes>
        0 -1 116978 2.2189993411302567e-02</internalNodes>
      <leafValues>
        -9.1133004426956177e-01 2.9411765933036804e-01</leafValues></_>
    <_>
      <internalNodes>
        0 -1 3154 5.8920616284012794e-03</internalNodes>
      <leafValues>
        -6.8582600355148315e-01 2.9115596413612366e-01</leafValues></_>
    <_>
      <internalNodes>
        0 -1 25964 1.2574879219755530e-03</internalNodes>
      <leafValues>
        -7.1755653619766235e-01 2.4952125549316406e-01</leafValues></_>
    <_>
      <internalNodes>
        0 -1 154798 -5.1315510645508766e-03</internalNodes>
      <leafValues>
        4.7024402022361755e-01 -4.6511727571487427e-01</leafValues></_>
    <_>
      <internalNodes>
        0 -1 155368 -2.9219922726042569e-04</internalNodes>
      <leafValues>
        -9.0399605035781860e-01 2.3773799836635590e-01</leafValues></_>
    <_>
      <internalNodes>
        0 -1 113713 3.6374721676111221e-03</internalNodes>
      <leafValues>
        -3.6862945556640625e-01 5.7067781686782837e-01</leafValues></_></weakClassifiers></stage12>
</opencv_storage>
