<?xml version="1.0"?>
<opencv_storage>
<stage16>
  <maxWeakCount>6</maxWeakCount>
  <stageThreshold>-1.9623792171478271e+00</stageThreshold>
  <weakClassifiers>
    <_>
      <internalNodes>
        0 -1 2437 -1.2079896032810211e-01</internalNodes>
      <leafValues>
        8.1818181276321411e-01 -8.8636362552642822e-01</leafValues></_>
    <_>
      <internalNodes>
        0 -1 5230 -1.2093272060155869e-01</internalNodes>
      <leafValues>
        8.0676144361495972e-01 -6.1700904369354248e-01</leafValues></_>
    <_>
      <internalNodes>
        0 -1 160914 8.6385500617325306e-04</internalNodes>
      <leafValues>
        1.6757355630397797e-01 -8.6343479156494141e-01</leafValues></_>
    <_>
      <internalNodes>
        0 -1 134064 -4.6692565083503723e-02</internalNodes>
      <leafValues>
        5.1894629001617432e-01 -3.7742152810096741e-01</leafValues></_>
    <_>
      <internalNodes>
        0 -1 154796 4.5161354355514050e-03</internalNodes>
      <leafValues>
        -5.1264566183090210e-01 4.5778673887252808e-01</leafValues></_>
    <_>
      <internalNodes>
        0 -1 121901 5.4392265155911446e-04</internalNodes>
      <leafValues>
        2.6348710060119629e-01 -9.0316087007522583e-01</leafValues></_></weakClassifiers></stage16>
</opencv_storage>
