<?xml version="1.0"?>
<opencv_storage>
<stage7>
  <maxWeakCount>5</maxWeakCount>
  <stageThreshold>-1.8682308197021484e+00</stageThreshold>
  <weakClassifiers>
    <_>
      <internalNodes>
        0 -1 111418 1.7747828364372253e-01</internalNodes>
      <leafValues>
        -9.2133724689483643e-01 4.4578313827514648e-01</leafValues></_>
    <_>
      <internalNodes>
        0 -1 43114 -1.0904704220592976e-02</internalNodes>
      <leafValues>
        1.1502984166145325e-01 -8.1085801124572754e-01</leafValues></_>
    <_>
      <internalNodes>
        0 -1 39385 4.1566073894500732e-02</internalNodes>
      <leafValues>
        -6.4701950550079346e-01 3.8907927274703979e-01</leafValues></_>
    <_>
      <internalNodes>
        0 -1 10486 -4.6762574464082718e-02</internalNodes>
      <leafValues>
        2.9878997802734375e-01 -7.8306889533996582e-01</leafValues></_>
    <_>
      <internalNodes>
        0 -1 142906 -8.9773081708699465e-04</internalNodes>
      <leafValues>
        -9.6474230289459229e-01 2.5795403122901917e-01</leafValues></_></weakClassifiers></stage7>
</opencv_storage>
