<?xml version="1.0"?>
<opencv_storage>
<stage4>
  <maxWeakCount>5</maxWeakCount>
  <stageThreshold>-2.0635697841644287e+00</stageThreshold>
  <weakClassifiers>
    <_>
      <internalNodes>
        0 -1 110106 -1.5245164930820465e-01</internalNodes>
      <leafValues>
        5.7333332300186157e-01 -9.2000001668930054e-01</leafValues></_>
    <_>
      <internalNodes>
        0 -1 13571 -1.7450962215662003e-02</internalNodes>
      <leafValues>
        1.5525968372821808e-01 -8.1103879213333130e-01</leafValues></_>
    <_>
      <internalNodes>
        0 -1 1317 4.8995584249496460e-02</internalNodes>
      <leafValues>
        -4.9406060576438904e-01 6.6568732261657715e-01</leafValues></_>
    <_>
      <internalNodes>
        0 -1 149715 2.5988742709159851e-02</internalNodes>
      <leafValues>
        -6.0715478658676147e-01 5.6579488515853882e-01</leafValues></_>
    <_>
      <internalNodes>
        0 -1 42927 -1.7488773912191391e-02</internalNodes>
      <leafValues>
        7.9805982112884521e-01 -3.9106348156929016e-01</leafValues></_></weakClassifiers></stage4>
</opencv_storage>
