<?xml version="1.0"?>
<opencv_storage>
<stage10>
  <maxWeakCount>5</maxWeakCount>
  <stageThreshold>-1.9891693592071533e+00</stageThreshold>
  <weakClassifiers>
    <_>
      <internalNodes>
        0 -1 141952 2.0510952919721603e-02</internalNodes>
      <leafValues>
        -9.2055612802505493e-01 2.9032257199287415e-01</leafValues></_>
    <_>
      <internalNodes>
        0 -1 43114 -1.0826665908098221e-02</internalNodes>
      <leafValues>
        4.6089317649602890e-02 -8.3605831861495972e-01</leafValues></_>
    <_>
      <internalNodes>
        0 -1 38382 7.8293196856975555e-03</internalNodes>
      <leafValues>
        -7.4209123849868774e-01 1.9461588561534882e-01</leafValues></_>
    <_>
      <internalNodes>
        0 -1 159396 -2.9568886384367943e-04</internalNodes>
      <leafValues>
        -6.6856777667999268e-01 2.8695330023765564e-01</leafValues></_>
    <_>
      <internalNodes>
        0 -1 160923 -1.7078035743907094e-03</internalNodes>
      <leafValues>
        2.9595652222633362e-01 -7.5757735967636108e-01</leafValues></_></weakClassifiers></stage10>
</opencv_storage>
