<?xml version="1.0"?>
<opencv_storage>
<cascade>
  <stageType>BOOST</stageType>
  <featureType>HAAR</featureType>
  <height>24</height>
  <width>24</width>
  <stageParams>
    <boostType>GAB</boostType>
    <minHitRate>9.9500000476837158e-01</minHitRate>
    <maxFalseAlarm>5.0000000000000000e-01</maxFalseAlarm>
    <weightTrimRate>9.4999999999999996e-01</weightTrimRate>
    <maxDepth>1</maxDepth>
    <maxWeakCount>100</maxWeakCount></stageParams>
  <featureParams>
    <maxCatCount>0</maxCatCount>
    <featSize>1</featSize>
    <mode>BASIC</mode></featureParams>
  <stageNum>15</stageNum>
  <stages>
    <!-- stage 0 -->
    <_>
      <maxWeakCount>4</maxWeakCount>
      <stageThreshold>-2.5316071510314941e+00</stageThreshold>
      <weakClassifiers>
        <_>
          <internalNodes>
            0 -1 41 -1.0917380452156067e-01</internalNodes>
          <leafValues>
            9.4850949943065643e-02 -9.8033189773559570e-01</leafValues></_>
        <_>
          <internalNodes>
            0 -1 65 2.8563991189002991e-02</internalNodes>
          <leafValues>
            -9.2852097749710083e-01 2.7203625440597534e-01</leafValues></_>
        <_>
          <internalNodes>
            0 -1 45 -4.3941423296928406e-02</internalNodes>
          <leafValues>
            3.4326866269111633e-01 -9.3329781293869019e-01</leafValues></_>
        <_>
          <internalNodes>
            0 -1 37 -9.6512474119663239e-03</internalNodes>
          <leafValues>
            3.1054350733757019e-01 -9.2306333780288696e-01</leafValues></_></weakClassifiers></_>
    <!-- stage 1 -->
    <_>
      <maxWeakCount>4</maxWeakCount>
      <stageThreshold>-2.2897408008575439e+00</stageThreshold>
      <weakClassifiers>
        <_>
          <internalNodes>
            0 -1 66 3.7867803126573563e-02</internalNodes>
          <leafValues>
            -9.6466785669326782e-01 9.4276092946529388e-02</leafValues></_>
        <_>
          <internalNodes>
            0 -1 28 1.1375430226325989e-01</internalNodes>
          <leafValues>
            -8.7137091159820557e-01 4.1447597742080688e-01</leafValues></_>
        <_>
          <internalNodes>
            0 -1 56 2.1810218691825867e-02</internalNodes>
          <leafValues>
            -8.3050107955932617e-01 4.6585589647293091e-01</leafValues></_>
        <_>
          <internalNodes>
            0 -1 46 7.1792183443903923e-03</internalNodes>
          <leafValues>
            -9.4612300395965576e-01 3.7679910659790039e-01</leafValues></_></weakClassifiers></_>
    <!-- stage 2 -->
    <_>
      <maxWeakCount>4</maxWeakCount>
      <stageThreshold>-2.1486039161682129e+00</stageThreshold>
      <weakClassifiers>
        <_>
          <internalNodes>
            0 -1 77 2.2190919145941734e-02</internalNodes>
          <leafValues>
            -9.5407438278198242e-01 -1.6717325150966644e-01</leafValues></_>
        <_>
          <internalNodes>
            0 -1 5 1.5048223733901978e-01</internalNodes>
          <leafValues>
            -8.3351230621337891e-01 4.5189940929412842e-01</leafValues></_>
        <_>
          <internalNodes>
            0 -1 57 1.1622249148786068e-02</internalNodes>
          <leafValues>
            -8.1782501935958862e-01 3.8650131225585938e-01</leafValues></_>
        <_>
          <internalNodes>
            0 -1 54 -3.0165212228894234e-02</internalNodes>
          <leafValues>
            4.7024387121200562e-01 -7.4751847982406616e-01</leafValues></_></weakClassifiers></_>
    <!-- stage 3 -->
    <_>
      <maxWeakCount>5</maxWeakCount>
      <stageThreshold>-2.3370175361633301e+00</stageThreshold>
      <weakClassifiers>
        <_>
          <internalNodes>
            0 -1 115 2.5310685858130455e-02</internalNodes>
          <leafValues>
            -9.5938867330551147e-01 -5.3134328126907349e-01</leafValues></_>
        <_>
          <internalNodes>
            0 -1 94 -1.0498903691768646e-02</internalNodes>
          <leafValues>
            -1.2062453478574753e-01 -9.2546170949935913e-01</leafValues></_>
        <_>
          <internalNodes>
            0 -1 30 6.4716339111328125e-02</internalNodes>
          <leafValues>
            -7.9745149612426758e-01 2.5857028365135193e-01</leafValues></_>
        <_>
          <internalNodes>
            0 -1 21 3.2810091972351074e-02</internalNodes>
          <leafValues>
            -5.8534860610961914e-01 4.4187960028648376e-01</leafValues></_>
        <_>
          <internalNodes>
            0 -1 35 4.4483589008450508e-03</internalNodes>
          <leafValues>
            -9.0143257379531860e-01 3.0221655964851379e-01</leafValues></_></weakClassifiers></_>
    <!-- stage 4 -->
    <_>
      <maxWeakCount>7</maxWeakCount>
      <stageThreshold>-2.5638232231140137e+00</stageThreshold>
      <weakClassifiers>
        <_>
          <internalNodes>
            0 -1 126 -3.9487943053245544e-02</internalNodes>
          <leafValues>
            -2.8491619229316711e-01 -9.3817120790481567e-01</leafValues></_>
        <_>
          <internalNodes>
            0 -1 114 2.1429020911455154e-02</internalNodes>
          <leafValues>
            -8.6889547109603882e-01 -1.8520440906286240e-02</leafValues></_>
        <_>
          <internalNodes>
            0 -1 39 5.0422646105289459e-02</internalNodes>
          <leafValues>
            -7.4522411823272705e-01 2.0852556824684143e-01</leafValues></_>
        <_>
          <internalNodes>
            0 -1 73 6.7152893170714378e-03</internalNodes>
          <leafValues>
            -7.9436779022216797e-01 2.8791645169258118e-01</leafValues></_>
        <_>
          <internalNodes>
            0 -1 43 6.6724464297294617e-02</internalNodes>
          <leafValues>
            -8.4265786409378052e-01 2.4157141149044037e-01</leafValues></_>
        <_>
          <internalNodes>
            0 -1 82 5.3482269868254662e-03</internalNodes>
          <leafValues>
            2.9674324393272400e-01 -7.6224213838577271e-01</leafValues></_>
        <_>
          <internalNodes>
            0 -1 8 8.4272958338260651e-02</internalNodes>
          <leafValues>
            -4.0873432159423828e-01 5.7016646862030029e-01</leafValues></_></weakClassifiers></_>
    <!-- stage 5 -->
    <_>
      <maxWeakCount>7</maxWeakCount>
      <stageThreshold>-2.2825753688812256e+00</stageThreshold>
      <weakClassifiers>
        <_>
          <internalNodes>
            0 -1 120 -1.2676313519477844e-01</internalNodes>
          <leafValues>
            4.3859649449586868e-02 -9.2581772804260254e-01</leafValues></_>
        <_>
          <internalNodes>
            0 -1 90 -5.9619452804327011e-03</internalNodes>
          <leafValues>
            2.2510714828968048e-01 -7.5415277481079102e-01</leafValues></_>
        <_>
          <internalNodes>
            0 -1 29 -2.5399064645171165e-02</internalNodes>
          <leafValues>
            3.2468241453170776e-01 -6.7028909921646118e-01</leafValues></_>
        <_>
          <internalNodes>
            0 -1 110 -1.1909545399248600e-02</internalNodes>
          <leafValues>
            2.9247707128524780e-01 -6.9647914171218872e-01</leafValues></_>
        <_>
          <internalNodes>
            0 -1 51 2.2179167717695236e-02</internalNodes>
          <leafValues>
            -7.5387150049209595e-01 2.4134464561939240e-01</leafValues></_>
        <_>
          <internalNodes>
            0 -1 44 2.0761247724294662e-02</internalNodes>
          <leafValues>
            -8.7099492549896240e-01 2.1843545138835907e-01</leafValues></_>
        <_>
          <internalNodes>
            0 -1 108 2.6376720517873764e-02</internalNodes>
          <leafValues>
            -4.2774289846420288e-01 4.0485742688179016e-01</leafValues></_></weakClassifiers></_>
    <!-- stage 6 -->
    <_>
      <maxWeakCount>8</maxWeakCount>
      <stageThreshold>-2.7649121284484863e+00</stageThreshold>
      <weakClassifiers>
        <_>
          <internalNodes>
            0 -1 2 -7.7280320227146149e-02</internalNodes>
          <leafValues>
            2.6666668057441711e-01 -9.2173910140991211e-01</leafValues></_>
        <_>
          <internalNodes>
            0 -1 7 7.9378738999366760e-02</internalNodes>
          <leafValues>
            -7.1741425991058350e-01 2.7121883630752563e-01</leafValues></_>
        <_>
          <internalNodes>
            0 -1 78 1.9716724753379822e-02</internalNodes>
          <leafValues>
            -5.8488088846206665e-01 3.3773225545883179e-01</leafValues></_>
        <_>
          <internalNodes>
            0 -1 111 1.8637433648109436e-02</internalNodes>
          <leafValues>
            -7.4169588088989258e-01 2.3526455461978912e-01</leafValues></_>
        <_>
          <internalNodes>
            0 -1 38 1.0157978162169456e-02</internalNodes>
          <leafValues>
            -8.2720547914505005e-01 2.2651784121990204e-01</leafValues></_>
        <_>
          <internalNodes>
            0 -1 31 -7.8193109948188066e-04</internalNodes>
          <leafValues>
            1.7185068130493164e-01 -8.7206935882568359e-01</leafValues></_>
        <_>
          <internalNodes>
            0 -1 103 -3.5922840237617493e-02</internalNodes>
          <leafValues>
            3.8457775115966797e-01 -4.4166874885559082e-01</leafValues></_>
        <_>
          <internalNodes>
            0 -1 33 2.4709478020668030e-03</internalNodes>
          <leafValues>
            2.4411821365356445e-01 -6.1367487907409668e-01</leafValues></_></weakClassifiers></_>
    <!-- stage 7 -->
    <_>
      <maxWeakCount>10</maxWeakCount>
      <stageThreshold>-2.4271759986877441e+00</stageThreshold>
      <weakClassifiers>
        <_>
          <internalNodes>
            0 -1 13 -1.7374832928180695e-01</internalNodes>
          <leafValues>
            2.0289854705333710e-01 -9.1951358318328857e-01</leafValues></_>
        <_>
          <internalNodes>
            0 -1 4 5.7297348976135254e-01</internalNodes>
          <leafValues>
            -7.0012336969375610e-01 3.5829004645347595e-01</leafValues></_>
        <_>
          <internalNodes>
            0 -1 76 9.0909544378519058e-03</internalNodes>
          <leafValues>
            -6.3073080778121948e-01 2.7041617035865784e-01</leafValues></_>
        <_>
          <internalNodes>
            0 -1 109 1.8424462527036667e-02</internalNodes>
          <leafValues>
            -6.5328764915466309e-01 2.5688788294792175e-01</leafValues></_>
        <_>
          <internalNodes>
            0 -1 47 4.1513117030262947e-03</internalNodes>
          <leafValues>
            -6.6171813011169434e-01 2.5815108418464661e-01</leafValues></_>
        <_>
          <internalNodes>
            0 -1 55 -9.3699269928038120e-04</internalNodes>
          <leafValues>
            1.7831289768218994e-01 -7.2469472885131836e-01</leafValues></_>
        <_>
          <internalNodes>
            0 -1 42 -5.1356861367821693e-03</internalNodes>
          <leafValues>
            1.6369991004467010e-01 -8.0819958448410034e-01</leafValues></_>
        <_>
          <internalNodes>
            0 -1 20 3.1598418951034546e-02</internalNodes>
          <leafValues>
            -3.6605653166770935e-01 4.2196220159530640e-01</leafValues></_>
        <_>
          <internalNodes>
            0 -1 83 -1.8394328653812408e-03</internalNodes>
          <leafValues>
            2.0987112820148468e-01 -7.2463536262512207e-01</leafValues></_>
        <_>
          <internalNodes>
            0 -1 98 9.5626153051853180e-03</internalNodes>
          <leafValues>
            -7.1935069561004639e-01 1.8868231773376465e-01</leafValues></_></weakClassifiers></_>
    <!-- stage 8 -->
    <_>
      <maxWeakCount>10</maxWeakCount>
      <stageThreshold>-2.3345196247100830e+00</stageThreshold>
      <weakClassifiers>
        <_>
          <internalNodes>
            0 -1 16 -9.0789988636970520e-02</internalNodes>
          <leafValues>
            -1.7730496823787689e-01 -9.2483854293823242e-01</leafValues></_>
        <_>
          <internalNodes>
            0 -1 116 -1.4433233439922333e-01</internalNodes>
          <leafValues>
            3.5588297247886658e-01 -6.9424939155578613e-01</leafValues></_>
        <_>
          <internalNodes>
            0 -1 59 9.6775460988283157e-03</internalNodes>
          <leafValues>
            -5.8192968368530273e-01 2.6556518673896790e-01</leafValues></_>
        <_>
          <internalNodes>
            0 -1 32 -2.0921140909194946e-02</internalNodes>
          <leafValues>
            2.7947553992271423e-01 -5.6963068246841431e-01</leafValues></_>
        <_>
          <internalNodes>
            0 -1 18 7.1504071354866028e-02</internalNodes>
          <leafValues>
            -2.3301675915718079e-01 6.3215321302413940e-01</leafValues></_>
        <_>
          <internalNodes>
            0 -1 25 1.2615132145583630e-03</internalNodes>
          <leafValues>
            2.8223088383674622e-01 -7.0482522249221802e-01</leafValues></_>
        <_>
          <internalNodes>
            0 -1 112 3.1052259728312492e-02</internalNodes>
          <leafValues>
            -7.0593500137329102e-01 1.9183282554149628e-01</leafValues></_>
        <_>
          <internalNodes>
            0 -1 95 -1.8807367887347937e-03</internalNodes>
          <leafValues>
            -9.1636812686920166e-01 1.2080845981836319e-01</leafValues></_>
        <_>
          <internalNodes>
            0 -1 88 -7.8180793207138777e-04</internalNodes>
          <leafValues>
            -8.9850282669067383e-01 1.2824332714080811e-01</leafValues></_>
        <_>
          <internalNodes>
            0 -1 100 -2.5704193394631147e-03</internalNodes>
          <leafValues>
            1.3571153581142426e-01 -8.6071991920471191e-01</leafValues></_></weakClassifiers></_>
    <!-- stage 9 -->
    <_>
      <maxWeakCount>11</maxWeakCount>
      <stageThreshold>-2.4466645717620850e+00</stageThreshold>
      <weakClassifiers>
        <_>
          <internalNodes>
            0 -1 119 1.0526269674301147e-01</internalNodes>
          <leafValues>
            -9.1847407817840576e-01 -8.1395350396633148e-02</leafValues></_>
        <_>
          <internalNodes>
            0 -1 125 -2.7385685592889786e-02</internalNodes>
          <leafValues>
            -7.1490732952952385e-03 -7.2787243127822876e-01</leafValues></_>
        <_>
          <internalNodes>
            0 -1 23 -1.2076148763298988e-02</internalNodes>
          <leafValues>
            1.3905380666255951e-01 -6.9613283872604370e-01</leafValues></_>
        <_>
          <internalNodes>
            0 -1 86 -2.3097053635865450e-03</internalNodes>
          <leafValues>
            -8.1216585636138916e-01 1.3482682406902313e-01</leafValues></_>
        <_>
          <internalNodes>
            0 -1 105 -6.9541850825771689e-04</internalNodes>
          <leafValues>
            -6.7062819004058838e-01 1.8194806575775146e-01</leafValues></_>
        <_>
          <internalNodes>
            0 -1 52 -2.5118275516433641e-05</internalNodes>
          <leafValues>
            2.6914280652999878e-01 -4.9593195319175720e-01</leafValues></_>
        <_>
          <internalNodes>
            0 -1 74 4.5592118112836033e-05</internalNodes>
          <leafValues>
            -6.5478765964508057e-01 2.0364190638065338e-01</leafValues></_>
        <_>
          <internalNodes>
            0 -1 92 7.6773401815444231e-05</internalNodes>
          <leafValues>
            -5.0196307897567749e-01 2.5530123710632324e-01</leafValues></_>
        <_>
          <internalNodes>
            0 -1 72 7.3320275987498462e-05</internalNodes>
          <leafValues>
            -7.5439012050628662e-01 1.6237284243106842e-01</leafValues></_>
        <_>
          <internalNodes>
            0 -1 62 -2.4295141920447350e-03</internalNodes>
          <leafValues>
            -8.4031504392623901e-01 1.4482326805591583e-01</leafValues></_>
        <_>
          <internalNodes>
            0 -1 85 -4.9931188113987446e-03</internalNodes>
          <leafValues>
            4.3705862760543823e-01 -3.3925089240074158e-01</leafValues></_></weakClassifiers></_>
    <!-- stage 10 -->
    <_>
      <maxWeakCount>13</maxWeakCount>
      <stageThreshold>-2.2567424774169922e+00</stageThreshold>
      <weakClassifiers>
        <_>
          <internalNodes>
            0 -1 3 -9.4576507806777954e-02</internalNodes>
          <leafValues>
            1.5873016417026520e-01 -9.1767883300781250e-01</leafValues></_>
        <_>
          <internalNodes>
            0 -1 19 1.2512534856796265e-01</internalNodes>
          <leafValues>
            -6.6082125902175903e-01 3.4197044372558594e-01</leafValues></_>
        <_>
          <internalNodes>
            0 -1 79 -7.2734057903289795e-04</internalNodes>
          <leafValues>
            1.4153218269348145e-01 -6.9926506280899048e-01</leafValues></_>
        <_>
          <internalNodes>
            0 -1 104 1.7664037644863129e-02</internalNodes>
          <leafValues>
            -6.8310987949371338e-01 1.7465949058532715e-01</leafValues></_>
        <_>
          <internalNodes>
            0 -1 70 -7.3606353253126144e-03</internalNodes>
          <leafValues>
            5.3160005807876587e-01 -2.3049615323543549e-01</leafValues></_>
        <_>
          <internalNodes>
            0 -1 99 -3.1017488799989223e-04</internalNodes>
          <leafValues>
            -7.2310745716094971e-01 1.8671996891498566e-01</leafValues></_>
        <_>
          <internalNodes>
            0 -1 67 2.1290339529514313e-02</internalNodes>
          <leafValues>
            1.2569370865821838e-01 -8.8226073980331421e-01</leafValues></_>
        <_>
          <internalNodes>
            0 -1 96 -3.9594451664015651e-04</internalNodes>
          <leafValues>
            -6.5372973680496216e-01 1.5626601874828339e-01</leafValues></_>
        <_>
          <internalNodes>
            0 -1 12 -4.6068471856415272e-03</internalNodes>
          <leafValues>
            1.3935853540897369e-01 -7.4207317829132080e-01</leafValues></_>
        <_>
          <internalNodes>
            0 -1 10 1.2282435595989227e-01</internalNodes>
          <leafValues>
            -2.0229598879814148e-01 6.3761889934539795e-01</leafValues></_>
        <_>
          <internalNodes>
            0 -1 50 -4.3859596189577132e-05</internalNodes>
          <leafValues>
            2.1606521308422089e-01 -6.0318714380264282e-01</leafValues></_>
        <_>
          <internalNodes>
            0 -1 17 -7.7814280986785889e-02</internalNodes>
          <leafValues>
            7.0560705661773682e-01 -1.8233758211135864e-01</leafValues></_>
        <_>
          <internalNodes>
            0 -1 97 1.1731516569852829e-03</internalNodes>
          <leafValues>
            -1.9545336067676544e-01 5.7650065422058105e-01</leafValues></_></weakClassifiers></_>
    <!-- stage 11 -->
    <_>
      <maxWeakCount>11</maxWeakCount>
      <stageThreshold>-2.7402346134185791e+00</stageThreshold>
      <weakClassifiers>
        <_>
          <internalNodes>
            0 -1 129 2.1513888612389565e-02</internalNodes>
          <leafValues>
            -9.2188262939453125e-01 -2.2779922187328339e-01</leafValues></_>
        <_>
          <internalNodes>
            0 -1 113 -1.3998144865036011e-01</internalNodes>
          <leafValues>
            1.5096341073513031e-01 -6.5983033180236816e-01</leafValues></_>
        <_>
          <internalNodes>
            0 -1 75 1.7016107216477394e-02</internalNodes>
          <leafValues>
            -6.2101107835769653e-01 1.4719606935977936e-01</leafValues></_>
        <_>
          <internalNodes>
            0 -1 89 8.0801197327673435e-05</internalNodes>
          <leafValues>
            -6.3511282205581665e-01 1.8783698976039886e-01</leafValues></_>
        <_>
          <internalNodes>
            0 -1 117 7.9912021756172180e-03</internalNodes>
          <leafValues>
            -7.4086707830429077e-01 1.6978599131107330e-01</leafValues></_>
        <_>
          <internalNodes>
            0 -1 58 2.5312914513051510e-03</internalNodes>
          <leafValues>
            1.2991049885749817e-01 -7.6585882902145386e-01</leafValues></_>
        <_>
          <internalNodes>
            0 -1 128 1.0034238919615746e-02</internalNodes>
          <leafValues>
            1.5166816115379333e-01 -7.1197623014450073e-01</leafValues></_>
        <_>
          <internalNodes>
            0 -1 93 -3.5644223680719733e-04</internalNodes>
          <leafValues>
            1.2881855666637421e-01 -7.2480350732803345e-01</leafValues></_>
        <_>
          <internalNodes>
            0 -1 81 -9.0301246382296085e-04</internalNodes>
          <leafValues>
            -6.0825324058532715e-01 1.6515907645225525e-01</leafValues></_>
        <_>
          <internalNodes>
            0 -1 9 2.5367117486894131e-03</internalNodes>
          <leafValues>
            1.1240614950656891e-01 -8.1256306171417236e-01</leafValues></_>
        <_>
          <internalNodes>
            0 -1 22 -3.8176998496055603e-03</internalNodes>
          <leafValues>
            -9.8042631149291992e-01 8.6085714399814606e-02</leafValues></_></weakClassifiers></_>
    <!-- stage 12 -->
    <_>
      <maxWeakCount>12</maxWeakCount>
      <stageThreshold>-2.4661726951599121e+00</stageThreshold>
      <weakClassifiers>
        <_>
          <internalNodes>
            0 -1 1 -7.1742333471775055e-02</internalNodes>
          <leafValues>
            -2.1276595070958138e-02 -9.1678732633590698e-01</leafValues></_>
        <_>
          <internalNodes>
            0 -1 123 -7.3363140225410461e-02</internalNodes>
          <leafValues>
            1.6805464029312134e-01 -6.5018367767333984e-01</leafValues></_>
        <_>
          <internalNodes>
            0 -1 34 3.1565488316118717e-03</internalNodes>
          <leafValues>
            -5.9986686706542969e-01 1.3895213603973389e-01</leafValues></_>
        <_>
          <internalNodes>
            0 -1 91 -1.4444855041801929e-03</internalNodes>
          <leafValues>
            3.0087441205978394e-01 -3.6548557877540588e-01</leafValues></_>
        <_>
          <internalNodes>
            0 -1 106 -4.0659558726474643e-04</internalNodes>
          <leafValues>
            2.7803200483322144e-01 -3.7734255194664001e-01</leafValues></_>
        <_>
          <internalNodes>
            0 -1 124 2.2156075574457645e-03</internalNodes>
          <leafValues>
            1.4959169924259186e-01 -8.8527894020080566e-01</leafValues></_>
        <_>
          <internalNodes>
            0 -1 48 4.0799509733915329e-02</internalNodes>
          <leafValues>
            1.1293009668588638e-01 -8.9682728052139282e-01</leafValues></_>
        <_>
          <internalNodes>
            0 -1 36 -5.3022857755422592e-03</internalNodes>
          <leafValues>
            -6.6542679071426392e-01 1.1841268092393875e-01</leafValues></_>
        <_>
          <internalNodes>
            0 -1 122 1.7390372231602669e-03</internalNodes>
          <leafValues>
            1.4140066504478455e-01 -7.5584948062896729e-01</leafValues></_>
        <_>
          <internalNodes>
            0 -1 87 2.6131357299163938e-04</internalNodes>
          <leafValues>
            -5.8142542839050293e-01 1.6309407353401184e-01</leafValues></_>
        <_>
          <internalNodes>
            0 -1 53 -1.1553266085684299e-03</internalNodes>
          <leafValues>
            -7.4845182895660400e-01 1.4402166008949280e-01</leafValues></_>
        <_>
          <internalNodes>
            0 -1 64 3.5545770515454933e-05</internalNodes>
          <leafValues>
            -5.9643763303756714e-01 1.5070997178554535e-01</leafValues></_></weakClassifiers></_>
    <!-- stage 13 -->
    <_>
      <maxWeakCount>12</maxWeakCount>
      <stageThreshold>-2.4335982799530029e+00</stageThreshold>
      <weakClassifiers>
        <_>
          <internalNodes>
            0 -1 0 -2.8827279806137085e-02</internalNodes>
          <leafValues>
            -1.3157895207405090e-01 -9.1611903905868530e-01</leafValues></_>
        <_>
          <internalNodes>
            0 -1 27 1.7519172281026840e-02</internalNodes>
          <leafValues>
            -7.0071846246719360e-01 -5.6274697184562683e-02</leafValues></_>
        <_>
          <internalNodes>
            0 -1 121 9.6615217626094818e-03</internalNodes>
          <leafValues>
            -4.7848293185234070e-01 1.8878118693828583e-01</leafValues></_>
        <_>
          <internalNodes>
            0 -1 61 -4.2731975554488599e-05</internalNodes>
          <leafValues>
            1.5731795132160187e-01 -6.3387721776962280e-01</leafValues></_>
        <_>
          <internalNodes>
            0 -1 68 2.1361019753385335e-04</internalNodes>
          <leafValues>
            -2.8804823756217957e-01 4.0276113152503967e-01</leafValues></_>
        <_>
          <internalNodes>
            0 -1 49 -7.8173568472266197e-03</internalNodes>
          <leafValues>
            -7.8642702102661133e-01 1.1993265151977539e-01</leafValues></_>
        <_>
          <internalNodes>
            0 -1 118 -1.0059156920760870e-03</internalNodes>
          <leafValues>
            1.7219959199428558e-01 -5.2764689922332764e-01</leafValues></_>
        <_>
          <internalNodes>
            0 -1 15 -2.5695823132991791e-02</internalNodes>
          <leafValues>
            -7.0009982585906982e-01 1.3971202075481415e-01</leafValues></_>
        <_>
          <internalNodes>
            0 -1 80 7.9793408513069153e-03</internalNodes>
          <leafValues>
            1.3069728016853333e-01 -6.8740051984786987e-01</leafValues></_>
        <_>
          <internalNodes>
            0 -1 40 -1.8947143107652664e-02</internalNodes>
          <leafValues>
            1.1147269606590271e-01 -7.9025644063949585e-01</leafValues></_>
        <_>
          <internalNodes>
            0 -1 63 3.1699920073151588e-03</internalNodes>
          <leafValues>
            8.7799109518527985e-02 -8.3153760433197021e-01</leafValues></_>
        <_>
          <internalNodes>
            0 -1 101 1.8484866013750434e-03</internalNodes>
          <leafValues>
            -4.9173873662948608e-01 1.8444089591503143e-01</leafValues></_></weakClassifiers></_>
    <!-- stage 14 -->
    <_>
      <maxWeakCount>12</maxWeakCount>
      <stageThreshold>-2.4060807228088379e+00</stageThreshold>
      <weakClassifiers>
        <_>
          <internalNodes>
            0 -1 127 1.4928840100765228e-02</internalNodes>
          <leafValues>
            -9.2032968997955322e-01 -3.8961037993431091e-01</leafValues></_>
        <_>
          <internalNodes>
            0 -1 69 6.8659875541925430e-03</internalNodes>
          <leafValues>
            -6.6843277215957642e-01 -4.7061998397111893e-02</leafValues></_>
        <_>
          <internalNodes>
            0 -1 26 5.8163680136203766e-02</internalNodes>
          <leafValues>
            -3.5771563649177551e-01 3.1148245930671692e-01</leafValues></_>
        <_>
          <internalNodes>
            0 -1 14 2.5595953688025475e-02</internalNodes>
          <leafValues>
            -8.9962357282638550e-01 1.1413239687681198e-01</leafValues></_>
        <_>
          <internalNodes>
            0 -1 102 2.9155141673982143e-03</internalNodes>
          <leafValues>
            2.1392394602298737e-01 -5.5731076002120972e-01</leafValues></_>
        <_>
          <internalNodes>
            0 -1 84 1.1472834739834070e-03</internalNodes>
          <leafValues>
            -3.9649534225463867e-01 2.5888487696647644e-01</leafValues></_>
        <_>
          <internalNodes>
            0 -1 6 9.3961320817470551e-03</internalNodes>
          <leafValues>
            -7.1442437171936035e-01 1.4352786540985107e-01</leafValues></_>
        <_>
          <internalNodes>
            0 -1 11 2.5397480931133032e-03</internalNodes>
          <leafValues>
            1.2102535367012024e-01 -7.3642402887344360e-01</leafValues></_>
        <_>
          <internalNodes>
            0 -1 60 -1.1086029699072242e-03</internalNodes>
          <leafValues>
            -8.0031657218933105e-01 1.0481366515159607e-01</leafValues></_>
        <_>
          <internalNodes>
            0 -1 24 2.8909392654895782e-02</internalNodes>
          <leafValues>
            -2.1100367605686188e-01 4.5789417624473572e-01</leafValues></_>
        <_>
          <internalNodes>
            0 -1 71 6.9172750227153301e-03</internalNodes>
          <leafValues>
            1.7903518676757812e-01 -5.3205120563507080e-01</leafValues></_>
        <_>
          <internalNodes>
            0 -1 107 3.1657167710363865e-05</internalNodes>
          <leafValues>
            -4.4480249285697937e-01 1.8969874083995819e-01</leafValues></_></weakClassifiers></_></stages>
  <features>
    <_>
      <rects>
        <_>
          0 0 2 11 -1.</_>
        <_>
          1 0 1 11 2.</_></rects>
      <tilted>0</tilted></_>
    <_>
      <rects>
        <_>
          0 0 4 10 -1.</_>
        <_>
          2 0 2 10 2.</_></rects>
      <tilted>0</tilted></_>
    <_>
      <rects>
        <_>
          0 0 4 16 -1.</_>
        <_>
          2 0 2 16 2.</_></rects>
      <tilted>0</tilted></_>
    <_>
      <rects>
        <_>
          0 0 4 17 -1.</_>
        <_>
          2 0 2 17 2.</_></rects>
      <tilted>0</tilted></_>
    <_>
      <rects>
        <_>
          0 0 24 24 -1.</_>
        <_>
          8 0 8 24 3.</_></rects>
      <tilted>0</tilted></_>
    <_>
      <rects>
        <_>
          0 1 24 5 -1.</_>
        <_>
          8 1 8 5 3.</_></rects>
      <tilted>0</tilted></_>
    <_>
      <rects>
        <_>
          0 1 15 9 -1.</_>
        <_>
          0 4 15 3 3.</_></rects>
      <tilted>0</tilted></_>
    <_>
      <rects>
        <_>
          0 2 6 17 -1.</_>
        <_>
          3 2 3 17 2.</_></rects>
      <tilted>0</tilted></_>
    <_>
      <rects>
        <_>
          0 2 8 22 -1.</_>
        <_>
          4 2 4 22 2.</_></rects>
      <tilted>0</tilted></_>
    <_>
      <rects>
        <_>
          0 3 5 3 -1.</_>
        <_>
          0 4 5 1 3.</_></rects>
      <tilted>0</tilted></_>
    <_>
      <rects>
        <_>
          0 4 8 17 -1.</_>
        <_>
          4 4 4 17 2.</_></rects>
      <tilted>0</tilted></_>
    <_>
      <rects>
        <_>
          0 4 5 3 -1.</_>
        <_>
          0 5 5 1 3.</_></rects>
      <tilted>0</tilted></_>
    <_>
      <rects>
        <_>
          0 4 8 9 -1.</_>
        <_>
          0 7 8 3 3.</_></rects>
      <tilted>0</tilted></_>
    <_>
      <rects>
        <_>
          0 7 8 17 -1.</_>
        <_>
          4 7 4 17 2.</_></rects>
      <tilted>0</tilted></_>
    <_>
      <rects>
        <_>
          0 7 16 15 -1.</_>
        <_>
          0 12 16 5 3.</_></rects>
      <tilted>0</tilted></_>
    <_>
      <rects>
        <_>
          0 13 7 9 -1.</_>
        <_>
          0 16 7 3 3.</_></rects>
      <tilted>0</tilted></_>
    <_>
      <rects>
        <_>
          0 16 8 8 -1.</_>
        <_>
          4 16 4 8 2.</_></rects>
      <tilted>0</tilted></_>
    <_>
      <rects>
        <_>
          0 17 10 7 -1.</_>
        <_>
          5 17 5 7 2.</_></rects>
      <tilted>0</tilted></_>
    <_>
      <rects>
        <_>
          0 20 16 4 -1.</_>
        <_>
          8 20 8 4 2.</_></rects>
      <tilted>0</tilted></_>
    <_>
      <rects>
        <_>
          0 21 24 3 -1.</_>
        <_>
          8 21 8 3 3.</_></rects>
      <tilted>0</tilted></_>
    <_>
      <rects>
        <_>
          1 1 6 13 -1.</_>
        <_>
          4 1 3 13 2.</_></rects>
      <tilted>0</tilted></_>
    <_>
      <rects>
        <_>
          1 1 10 6 -1.</_>
        <_>
          6 1 5 6 2.</_></rects>
      <tilted>0</tilted></_>
    <_>
      <rects>
        <_>
          1 3 9 2 -1.</_>
        <_>
          1 4 9 1 2.</_></rects>
      <tilted>0</tilted></_>
    <_>
      <rects>
        <_>
          1 4 8 6 -1.</_>
        <_>
          1 4 4 3 2.</_>
        <_>
          5 7 4 3 2.</_></rects>
      <tilted>0</tilted></_>
    <_>
      <rects>
        <_>
          1 5 4 10 -1.</_>
        <_>
          3 5 2 10 2.</_></rects>
      <tilted>0</tilted></_>
    <_>
      <rects>
        <_>
          1 12 12 4 -1.</_>
        <_>
          1 12 6 2 2.</_>
        <_>
          7 14 6 2 2.</_></rects>
      <tilted>0</tilted></_>
    <_>
      <rects>
        <_>
          2 0 21 2 -1.</_>
        <_>
          9 0 7 2 3.</_></rects>
      <tilted>0</tilted></_>
    <_>
      <rects>
        <_>
          2 1 4 6 -1.</_>
        <_>
          4 1 2 6 2.</_></rects>
      <tilted>0</tilted></_>
    <_>
      <rects>
        <_>
          2 1 21 5 -1.</_>
        <_>
          9 1 7 5 3.</_></rects>
      <tilted>0</tilted></_>
    <_>
      <rects>
        <_>
          2 2 8 10 -1.</_>
        <_>
          2 2 4 5 2.</_>
        <_>
          6 7 4 5 2.</_></rects>
      <tilted>0</tilted></_>
    <_>
      <rects>
        <_>
          2 8 17 9 -1.</_>
        <_>
          2 11 17 3 3.</_></rects>
      <tilted>0</tilted></_>
    <_>
      <rects>
        <_>
          2 12 21 4 -1.</_>
        <_>
          2 14 21 2 2.</_></rects>
      <tilted>0</tilted></_>
    <_>
      <rects>
        <_>
          3 0 8 14 -1.</_>
        <_>
          3 0 4 7 2.</_>
        <_>
          7 7 4 7 2.</_></rects>
      <tilted>0</tilted></_>
    <_>
      <rects>
        <_>
          3 2 12 3 -1.</_>
        <_>
          3 3 12 1 3.</_></rects>
      <tilted>0</tilted></_>
    <_>
      <rects>
        <_>
          3 8 4 8 -1.</_>
        <_>
          3 8 2 4 2.</_>
        <_>
          5 12 2 4 2.</_></rects>
      <tilted>0</tilted></_>
    <_>
      <rects>
        <_>
          3 10 15 4 -1.</_>
        <_>
          3 12 15 2 2.</_></rects>
      <tilted>0</tilted></_>
    <_>
      <rects>
        <_>
          3 13 20 4 -1.</_>
        <_>
          3 13 10 2 2.</_>
        <_>
          13 15 10 2 2.</_></rects>
      <tilted>0</tilted></_>
    <_>
      <rects>
        <_>
          3 13 17 6 -1.</_>
        <_>
          3 16 17 3 2.</_></rects>
      <tilted>0</tilted></_>
    <_>
      <rects>
        <_>
          4 0 9 9 -1.</_>
        <_>
          4 3 9 3 3.</_></rects>
      <tilted>0</tilted></_>
    <_>
      <rects>
        <_>
          4 0 14 9 -1.</_>
        <_>
          4 3 14 3 3.</_></rects>
      <tilted>0</tilted></_>
    <_>
      <rects>
        <_>
          4 3 20 9 -1.</_>
        <_>
          4 6 20 3 3.</_></rects>
      <tilted>0</tilted></_>
    <_>
      <rects>
        <_>
          4 4 15 9 -1.</_>
        <_>
          4 7 15 3 3.</_></rects>
      <tilted>0</tilted></_>
    <_>
      <rects>
        <_>
          4 7 19 6 -1.</_>
        <_>
          4 9 19 2 3.</_></rects>
      <tilted>0</tilted></_>
    <_>
      <rects>
        <_>
          4 8 19 12 -1.</_>
        <_>
          4 12 19 4 3.</_></rects>
      <tilted>0</tilted></_>
    <_>
      <rects>
        <_>
          5 1 15 11 -1.</_>
        <_>
          10 1 5 11 3.</_></rects>
      <tilted>0</tilted></_>
    <_>
      <rects>
        <_>
          5 5 14 9 -1.</_>
        <_>
          5 8 14 3 3.</_></rects>
      <tilted>0</tilted></_>
    <_>
      <rects>
        <_>
          5 8 15 4 -1.</_>
        <_>
          5 10 15 2 2.</_></rects>
      <tilted>0</tilted></_>
    <_>
      <rects>
        <_>
          5 9 11 2 -1.</_>
        <_>
          5 10 11 1 2.</_></rects>
      <tilted>0</tilted></_>
    <_>
      <rects>
        <_>
          5 11 14 10 -1.</_>
        <_>
          5 11 7 5 2.</_>
        <_>
          12 16 7 5 2.</_></rects>
      <tilted>0</tilted></_>
    <_>
      <rects>
        <_>
          5 17 3 6 -1.</_>
        <_>
          5 19 3 2 3.</_></rects>
      <tilted>0</tilted></_>
    <_>
      <rects>
        <_>
          6 0 2 10 -1.</_>
        <_>
          6 0 1 5 2.</_>
        <_>
          7 5 1 5 2.</_></rects>
      <tilted>0</tilted></_>
    <_>
      <rects>
        <_>
          6 6 3 15 -1.</_>
        <_>
          6 11 3 5 3.</_></rects>
      <tilted>0</tilted></_>
    <_>
      <rects>
        <_>
          6 12 4 3 -1.</_>
        <_>
          8 12 2 3 2.</_></rects>
      <tilted>0</tilted></_>
    <_>
      <rects>
        <_>
          7 3 3 3 -1.</_>
        <_>
          8 3 1 3 3.</_></rects>
      <tilted>0</tilted></_>
    <_>
      <rects>
        <_>
          7 4 11 6 -1.</_>
        <_>
          7 7 11 3 2.</_></rects>
      <tilted>0</tilted></_>
    <_>
      <rects>
        <_>
          7 6 4 10 -1.</_>
        <_>
          7 6 2 5 2.</_>
        <_>
          9 11 2 5 2.</_></rects>
      <tilted>0</tilted></_>
    <_>
      <rects>
        <_>
          7 6 9 5 -1.</_>
        <_>
          10 6 3 5 3.</_></rects>
      <tilted>0</tilted></_>
    <_>
      <rects>
        <_>
          7 7 6 4 -1.</_>
        <_>
          10 7 3 4 2.</_></rects>
      <tilted>0</tilted></_>
    <_>
      <rects>
        <_>
          7 8 8 8 -1.</_>
        <_>
          7 8 4 4 2.</_>
        <_>
          11 12 4 4 2.</_></rects>
      <tilted>0</tilted></_>
    <_>
      <rects>
        <_>
          7 9 9 1 -1.</_>
        <_>
          10 9 3 1 3.</_></rects>
      <tilted>0</tilted></_>
    <_>
      <rects>
        <_>
          7 11 2 2 -1.</_>
        <_>
          8 11 1 2 2.</_></rects>
      <tilted>0</tilted></_>
    <_>
      <rects>
        <_>
          7 14 3 6 -1.</_>
        <_>
          7 17 3 3 2.</_></rects>
      <tilted>0</tilted></_>
    <_>
      <rects>
        <_>
          8 1 3 6 -1.</_>
        <_>
          9 1 1 6 3.</_></rects>
      <tilted>0</tilted></_>
    <_>
      <rects>
        <_>
          8 1 3 7 -1.</_>
        <_>
          9 1 1 7 3.</_></rects>
      <tilted>0</tilted></_>
    <_>
      <rects>
        <_>
          8 3 2 5 -1.</_>
        <_>
          9 3 1 5 2.</_></rects>
      <tilted>0</tilted></_>
    <_>
      <rects>
        <_>
          8 6 9 5 -1.</_>
        <_>
          11 6 3 5 3.</_></rects>
      <tilted>0</tilted></_>
    <_>
      <rects>
        <_>
          8 7 9 4 -1.</_>
        <_>
          11 7 3 4 3.</_></rects>
      <tilted>0</tilted></_>
    <_>
      <rects>
        <_>
          8 7 6 14 -1.</_>
        <_>
          8 14 6 7 2.</_></rects>
      <tilted>0</tilted></_>
    <_>
      <rects>
        <_>
          8 15 3 2 -1.</_>
        <_>
          8 16 3 1 2.</_></rects>
      <tilted>0</tilted></_>
    <_>
      <rects>
        <_>
          8 16 8 3 -1.</_>
        <_>
          8 17 8 1 3.</_></rects>
      <tilted>0</tilted></_>
    <_>
      <rects>
        <_>
          8 17 8 3 -1.</_>
        <_>
          8 18 8 1 3.</_></rects>
      <tilted>0</tilted></_>
    <_>
      <rects>
        <_>
          9 0 6 5 -1.</_>
        <_>
          11 0 2 5 3.</_></rects>
      <tilted>0</tilted></_>
    <_>
      <rects>
        <_>
          9 1 2 8 -1.</_>
        <_>
          10 1 1 8 2.</_></rects>
      <tilted>0</tilted></_>
    <_>
      <rects>
        <_>
          9 4 6 6 -1.</_>
        <_>
          11 4 2 6 3.</_></rects>
      <tilted>0</tilted></_>
    <_>
      <rects>
        <_>
          9 4 4 3 -1.</_>
        <_>
          9 5 4 1 3.</_></rects>
      <tilted>0</tilted></_>
    <_>
      <rects>
        <_>
          9 6 6 13 -1.</_>
        <_>
          11 6 2 13 3.</_></rects>
      <tilted>0</tilted></_>
    <_>
      <rects>
        <_>
          9 7 4 4 -1.</_>
        <_>
          11 7 2 4 2.</_></rects>
      <tilted>0</tilted></_>
    <_>
      <rects>
        <_>
          9 8 6 3 -1.</_>
        <_>
          11 8 2 3 3.</_></rects>
      <tilted>0</tilted></_>
    <_>
      <rects>
        <_>
          9 8 6 7 -1.</_>
        <_>
          11 8 2 7 3.</_></rects>
      <tilted>0</tilted></_>
    <_>
      <rects>
        <_>
          9 9 4 4 -1.</_>
        <_>
          9 9 2 2 2.</_>
        <_>
          11 11 2 2 2.</_></rects>
      <tilted>0</tilted></_>
    <_>
      <rects>
        <_>
          9 9 3 15 -1.</_>
        <_>
          9 14 3 5 3.</_></rects>
      <tilted>0</tilted></_>
    <_>
      <rects>
        <_>
          9 9 8 4 -1.</_>
        <_>
          9 9 4 2 2.</_>
        <_>
          13 11 4 2 2.</_></rects>
      <tilted>0</tilted></_>
    <_>
      <rects>
        <_>
          9 9 5 8 -1.</_>
        <_>
          9 13 5 4 2.</_></rects>
      <tilted>0</tilted></_>
    <_>
      <rects>
        <_>
          9 12 7 12 -1.</_>
        <_>
          9 16 7 4 3.</_></rects>
      <tilted>0</tilted></_>
    <_>
      <rects>
        <_>
          9 13 6 1 -1.</_>
        <_>
          11 13 2 1 3.</_></rects>
      <tilted>0</tilted></_>
    <_>
      <rects>
        <_>
          9 14 5 3 -1.</_>
        <_>
          9 15 5 1 3.</_></rects>
      <tilted>0</tilted></_>
    <_>
      <rects>
        <_>
          10 4 9 1 -1.</_>
        <_>
          13 4 3 1 3.</_></rects>
      <tilted>0</tilted></_>
    <_>
      <rects>
        <_>
          10 8 2 1 -1.</_>
        <_>
          11 8 1 1 2.</_></rects>
      <tilted>0</tilted></_>
    <_>
      <rects>
        <_>
          10 10 4 2 -1.</_>
        <_>
          10 11 4 1 2.</_></rects>
      <tilted>0</tilted></_>
    <_>
      <rects>
        <_>
          10 10 5 3 -1.</_>
        <_>
          10 11 5 1 3.</_></rects>
      <tilted>0</tilted></_>
    <_>
      <rects>
        <_>
          10 14 4 3 -1.</_>
        <_>
          10 15 4 1 3.</_></rects>
      <tilted>0</tilted></_>
    <_>
      <rects>
        <_>
          10 21 10 2 -1.</_>
        <_>
          10 21 5 1 2.</_>
        <_>
          15 22 5 1 2.</_></rects>
      <tilted>0</tilted></_>
    <_>
      <rects>
        <_>
          11 0 6 3 -1.</_>
        <_>
          11 1 6 1 3.</_></rects>
      <tilted>0</tilted></_>
    <_>
      <rects>
        <_>
          11 5 3 4 -1.</_>
        <_>
          11 7 3 2 2.</_></rects>
      <tilted>0</tilted></_>
    <_>
      <rects>
        <_>
          11 7 6 4 -1.</_>
        <_>
          14 7 3 4 2.</_></rects>
      <tilted>0</tilted></_>
    <_>
      <rects>
        <_>
          11 9 3 3 -1.</_>
        <_>
          11 10 3 1 3.</_></rects>
      <tilted>0</tilted></_>
    <_>
      <rects>
        <_>
          11 11 3 2 -1.</_>
        <_>
          11 12 3 1 2.</_></rects>
      <tilted>0</tilted></_>
    <_>
      <rects>
        <_>
          11 17 1 3 -1.</_>
        <_>
          11 18 1 1 3.</_></rects>
      <tilted>0</tilted></_>
    <_>
      <rects>
        <_>
          12 0 12 9 -1.</_>
        <_>
          12 3 12 3 3.</_></rects>
      <tilted>0</tilted></_>
    <_>
      <rects>
        <_>
          12 3 2 2 -1.</_>
        <_>
          12 3 1 1 2.</_>
        <_>
          13 4 1 1 2.</_></rects>
      <tilted>0</tilted></_>
    <_>
      <rects>
        <_>
          12 5 4 5 -1.</_>
        <_>
          14 5 2 5 2.</_></rects>
      <tilted>0</tilted></_>
    <_>
      <rects>
        <_>
          12 6 2 18 -1.</_>
        <_>
          12 6 1 9 2.</_>
        <_>
          13 15 1 9 2.</_></rects>
      <tilted>0</tilted></_>
    <_>
      <rects>
        <_>
          12 8 1 15 -1.</_>
        <_>
          12 13 1 5 3.</_></rects>
      <tilted>0</tilted></_>
    <_>
      <rects>
        <_>
          13 1 10 5 -1.</_>
        <_>
          18 1 5 5 2.</_></rects>
      <tilted>0</tilted></_>
    <_>
      <rects>
        <_>
          13 2 10 8 -1.</_>
        <_>
          13 2 5 4 2.</_>
        <_>
          18 6 5 4 2.</_></rects>
      <tilted>0</tilted></_>
    <_>
      <rects>
        <_>
          13 3 4 2 -1.</_>
        <_>
          13 3 2 1 2.</_>
        <_>
          15 4 2 1 2.</_></rects>
      <tilted>0</tilted></_>
    <_>
      <rects>
        <_>
          13 15 6 2 -1.</_>
        <_>
          13 15 3 1 2.</_>
        <_>
          16 16 3 1 2.</_></rects>
      <tilted>0</tilted></_>
    <_>
      <rects>
        <_>
          14 0 1 2 -1.</_>
        <_>
          14 1 1 1 2.</_></rects>
      <tilted>0</tilted></_>
    <_>
      <rects>
        <_>
          14 2 9 17 -1.</_>
        <_>
          17 2 3 17 3.</_></rects>
      <tilted>0</tilted></_>
    <_>
      <rects>
        <_>
          14 2 8 10 -1.</_>
        <_>
          14 2 4 5 2.</_>
        <_>
          18 7 4 5 2.</_></rects>
      <tilted>0</tilted></_>
    <_>
      <rects>
        <_>
          14 6 4 6 -1.</_>
        <_>
          14 8 4 2 3.</_></rects>
      <tilted>0</tilted></_>
    <_>
      <rects>
        <_>
          14 7 4 8 -1.</_>
        <_>
          14 11 4 4 2.</_></rects>
      <tilted>0</tilted></_>
    <_>
      <rects>
        <_>
          14 7 6 15 -1.</_>
        <_>
          14 12 6 5 3.</_></rects>
      <tilted>0</tilted></_>
    <_>
      <rects>
        <_>
          14 11 10 13 -1.</_>
        <_>
          19 11 5 13 2.</_></rects>
      <tilted>0</tilted></_>
    <_>
      <rects>
        <_>
          15 1 6 10 -1.</_>
        <_>
          15 1 3 5 2.</_>
        <_>
          18 6 3 5 2.</_></rects>
      <tilted>0</tilted></_>
    <_>
      <rects>
        <_>
          15 2 6 8 -1.</_>
        <_>
          15 2 3 4 2.</_>
        <_>
          18 6 3 4 2.</_></rects>
      <tilted>0</tilted></_>
    <_>
      <rects>
        <_>
          16 2 8 19 -1.</_>
        <_>
          20 2 4 19 2.</_></rects>
      <tilted>0</tilted></_>
    <_>
      <rects>
        <_>
          16 8 5 6 -1.</_>
        <_>
          16 11 5 3 2.</_></rects>
      <tilted>0</tilted></_>
    <_>
      <rects>
        <_>
          16 14 4 4 -1.</_>
        <_>
          16 16 4 2 2.</_></rects>
      <tilted>0</tilted></_>
    <_>
      <rects>
        <_>
          16 15 8 9 -1.</_>
        <_>
          20 15 4 9 2.</_></rects>
      <tilted>0</tilted></_>
    <_>
      <rects>
        <_>
          17 2 6 19 -1.</_>
        <_>
          20 2 3 19 2.</_></rects>
      <tilted>0</tilted></_>
    <_>
      <rects>
        <_>
          17 3 4 8 -1.</_>
        <_>
          17 3 2 4 2.</_>
        <_>
          19 7 2 4 2.</_></rects>
      <tilted>0</tilted></_>
    <_>
      <rects>
        <_>
          17 14 3 3 -1.</_>
        <_>
          17 15 3 1 3.</_></rects>
      <tilted>0</tilted></_>
    <_>
      <rects>
        <_>
          18 0 6 23 -1.</_>
        <_>
          20 0 2 23 3.</_></rects>
      <tilted>0</tilted></_>
    <_>
      <rects>
        <_>
          18 13 3 3 -1.</_>
        <_>
          18 14 3 1 3.</_></rects>
      <tilted>0</tilted></_>
    <_>
      <rects>
        <_>
          19 2 4 12 -1.</_>
        <_>
          21 2 2 12 2.</_></rects>
      <tilted>0</tilted></_>
    <_>
      <rects>
        <_>
          19 2 4 13 -1.</_>
        <_>
          21 2 2 13 2.</_></rects>
      <tilted>0</tilted></_>
    <_>
      <rects>
        <_>
          20 0 4 2 -1.</_>
        <_>
          22 0 2 2 2.</_></rects>
      <tilted>0</tilted></_>
    <_>
      <rects>
        <_>
          20 10 4 6 -1.</_>
        <_>
          20 12 4 2 3.</_></rects>
      <tilted>0</tilted></_>
    <_>
      <rects>
        <_>
          22 0 2 14 -1.</_>
        <_>
          23 0 1 14 2.</_></rects>
      <tilted>0</tilted></_></features></cascade>
</opencv_storage>
