<?xml version="1.0"?>
<opencv_storage>
<stage13>
  <maxWeakCount>12</maxWeakCount>
  <stageThreshold>-2.4335982799530029e+00</stageThreshold>
  <weakClassifiers>
    <_>
      <internalNodes>
        0 -1 48 -2.8827279806137085e-02</internalNodes>
      <leafValues>
        -1.3157895207405090e-01 -9.1611903905868530e-01</leafValues></_>
    <_>
      <internalNodes>
        0 -1 26908 1.7519172281026840e-02</internalNodes>
      <leafValues>
        -7.0071846246719360e-01 -5.6274697184562683e-02</leafValues></_>
    <_>
      <internalNodes>
        0 -1 149227 9.6615217626094818e-03</internalNodes>
      <leafValues>
        -4.7848293185234070e-01 1.8878118693828583e-01</leafValues></_>
    <_>
      <internalNodes>
        0 -1 88306 -4.2731975554488599e-05</internalNodes>
      <leafValues>
        1.5731795132160187e-01 -6.3387721776962280e-01</leafValues></_>
    <_>
      <internalNodes>
        0 -1 97454 2.1361019753385335e-04</internalNodes>
      <leafValues>
        -2.8804823756217957e-01 4.0276113152503967e-01</leafValues></_>
    <_>
      <internalNodes>
        0 -1 69879 -7.8173568472266197e-03</internalNodes>
      <leafValues>
        -7.8642702102661133e-01 1.1993265151977539e-01</leafValues></_>
    <_>
      <internalNodes>
        0 -1 147644 -1.0059156920760870e-03</internalNodes>
      <leafValues>
        1.7219959199428558e-01 -5.2764689922332764e-01</leafValues></_>
    <_>
      <internalNodes>
        0 -1 10783 -2.5695823132991791e-02</internalNodes>
      <leafValues>
        -7.0009982585906982e-01 1.3971202075481415e-01</leafValues></_>
    <_>
      <internalNodes>
        0 -1 103724 7.9793408513069153e-03</internalNodes>
      <leafValues>
        1.3069728016853333e-01 -6.8740051984786987e-01</leafValues></_>
    <_>
      <internalNodes>
        0 -1 52804 -1.8947143107652664e-02</internalNodes>
      <leafValues>
        1.1147269606590271e-01 -7.9025644063949585e-01</leafValues></_>
    <_>
      <internalNodes>
        0 -1 90584 3.1699920073151588e-03</internalNodes>
      <leafValues>
        8.7799109518527985e-02 -8.3153760433197021e-01</leafValues></_>
    <_>
      <internalNodes>
        0 -1 124301 1.8484866013750434e-03</internalNodes>
      <leafValues>
        -4.9173873662948608e-01 1.8444089591503143e-01</leafValues></_></weakClassifiers></stage13>
</opencv_storage>
