<?xml version="1.0"?>
<opencv_storage>
<stage4>
  <maxWeakCount>7</maxWeakCount>
  <stageThreshold>-2.5638232231140137e+00</stageThreshold>
  <weakClassifiers>
    <_>
      <internalNodes>
        0 -1 155723 -3.9487943053245544e-02</internalNodes>
      <leafValues>
        -2.8491619229316711e-01 -9.3817120790481567e-01</leafValues></_>
    <_>
      <internalNodes>
        0 -1 139806 2.1429020911455154e-02</internalNodes>
      <leafValues>
        -8.6889547109603882e-01 -1.8520440906286240e-02</leafValues></_>
    <_>
      <internalNodes>
        0 -1 50245 5.0422646105289459e-02</internalNodes>
      <leafValues>
        -7.4522411823272705e-01 2.0852556824684143e-01</leafValues></_>
    <_>
      <internalNodes>
        0 -1 101228 6.7152893170714378e-03</internalNodes>
      <leafValues>
        -7.9436779022216797e-01 2.8791645169258118e-01</leafValues></_>
    <_>
      <internalNodes>
        0 -1 56117 6.6724464297294617e-02</internalNodes>
      <leafValues>
        -8.4265786409378052e-01 2.4157141149044037e-01</leafValues></_>
    <_>
      <internalNodes>
        0 -1 103815 5.3482269868254662e-03</internalNodes>
      <leafValues>
        2.9674324393272400e-01 -7.6224213838577271e-01</leafValues></_>
    <_>
      <internalNodes>
        0 -1 2418 8.4272958338260651e-02</internalNodes>
      <leafValues>
        -4.0873432159423828e-01 5.7016646862030029e-01</leafValues></_></weakClassifiers></stage4>
</opencv_storage>
