<?xml version="1.0"?>
<opencv_storage>
<stage9>
  <maxWeakCount>11</maxWeakCount>
  <stageThreshold>-2.4466645717620850e+00</stageThreshold>
  <weakClassifiers>
    <_>
      <internalNodes>
        0 -1 147791 1.0526269674301147e-01</internalNodes>
      <leafValues>
        -9.1847407817840576e-01 -8.1395350396633148e-02</leafValues></_>
    <_>
      <internalNodes>
        0 -1 155722 -2.7385685592889786e-02</internalNodes>
      <leafValues>
        -7.1490732952952385e-03 -7.2787243127822876e-01</leafValues></_>
    <_>
      <internalNodes>
        0 -1 17387 -1.2076148763298988e-02</internalNodes>
      <leafValues>
        1.3905380666255951e-01 -6.9613283872604370e-01</leafValues></_>
    <_>
      <internalNodes>
        0 -1 109254 -2.3097053635865450e-03</internalNodes>
      <leafValues>
        -8.1216585636138916e-01 1.3482682406902313e-01</leafValues></_>
    <_>
      <internalNodes>
        0 -1 129451 -6.9541850825771689e-04</internalNodes>
      <leafValues>
        -6.7062819004058838e-01 1.8194806575775146e-01</leafValues></_>
    <_>
      <internalNodes>
        0 -1 78272 -2.5118275516433641e-05</internalNodes>
      <leafValues>
        2.6914280652999878e-01 -4.9593195319175720e-01</leafValues></_>
    <_>
      <internalNodes>
        0 -1 101336 4.5592118112836033e-05</internalNodes>
      <leafValues>
        -6.5478765964508057e-01 2.0364190638065338e-01</leafValues></_>
    <_>
      <internalNodes>
        0 -1 114790 7.6773401815444231e-05</internalNodes>
      <leafValues>
        -5.0196307897567749e-01 2.5530123710632324e-01</leafValues></_>
    <_>
      <internalNodes>
        0 -1 99359 7.3320275987498462e-05</internalNodes>
      <leafValues>
        -7.5439012050628662e-01 1.6237284243106842e-01</leafValues></_>
    <_>
      <internalNodes>
        0 -1 90579 -2.4295141920447350e-03</internalNodes>
      <leafValues>
        -8.4031504392623901e-01 1.4482326805591583e-01</leafValues></_>
    <_>
      <internalNodes>
        0 -1 105500 -4.9931188113987446e-03</internalNodes>
      <leafValues>
        4.3705862760543823e-01 -3.3925089240074158e-01</leafValues></_></weakClassifiers></stage9>
</opencv_storage>
