<?xml version="1.0"?>
<opencv_storage>
<stage5>
  <maxWeakCount>5</maxWeakCount>
  <stageThreshold>-1.1695275306701660e+00</stageThreshold>
  <weakClassifiers>
    <_>
      <internalNodes>
        0 -1 320 1.6408707946538925e-02</internalNodes>
      <leafValues>
        -5.7627117633819580e-01 8.2926827669143677e-01</leafValues></_>
    <_>
      <internalNodes>
        0 -1 161430 -2.9647480696439743e-03</internalNodes>
      <leafValues>
        6.6515803337097168e-01 -6.8784821033477783e-01</leafValues></_>
    <_>
      <internalNodes>
        0 -1 138842 -4.6286806464195251e-03</internalNodes>
      <leafValues>
        5.6973886489868164e-01 -8.3232337236404419e-01</leafValues></_>
    <_>
      <internalNodes>
        0 -1 70674 -7.3198578320443630e-04</internalNodes>
      <leafValues>
        5.5679017305374146e-01 -8.5464227199554443e-01</leafValues></_>
    <_>
      <internalNodes>
        0 -1 91698 -7.3003196157515049e-03</internalNodes>
      <leafValues>
        3.7949532270431519e-01 -9.6164512634277344e-01</leafValues></_></weakClassifiers></stage5>
</opencv_storage>
