<?xml version="1.0"?>
<opencv_storage>
<stage18>
  <maxWeakCount>5</maxWeakCount>
  <stageThreshold>-3.7318581342697144e-01</stageThreshold>
  <weakClassifiers>
    <_>
      <internalNodes>
        0 -1 75828 -1.8117431551218033e-02</internalNodes>
      <leafValues>
        9.4117647409439087e-01 -4.8484849929809570e-01</leafValues></_>
    <_>
      <internalNodes>
        0 -1 67781 9.0778968296945095e-04</internalNodes>
      <leafValues>
        3.8661479949951172e-01 -1.</leafValues></_>
    <_>
      <internalNodes>
        0 -1 102293 2.7687650173902512e-02</internalNodes>
      <leafValues>
        -3.3827769756317139e-01 9.4464921951293945e-01</leafValues></_>
    <_>
      <internalNodes>
        0 -1 42915 3.0397459864616394e-02</internalNodes>
      <leafValues>
        -2.9457718133926392e-01 8.9847975969314575e-01</leafValues></_>
    <_>
      <internalNodes>
        0 -1 147477 -5.4159793071448803e-03</internalNodes>
      <leafValues>
        -1. 3.5790276527404785e-01</leafValues></_></weakClassifiers></stage18>
</opencv_storage>
