<?xml version="1.0"?>
<opencv_storage>
<cascade>
  <stageType>BOOST</stageType>
  <featureType>HAAR</featureType>
  <height>24</height>
  <width>24</width>
  <stageParams>
    <boostType>GAB</boostType>
    <minHitRate>9.9500000476837158e-01</minHitRate>
    <maxFalseAlarm>5.0000000000000000e-01</maxFalseAlarm>
    <weightTrimRate>9.4999999999999996e-01</weightTrimRate>
    <maxDepth>1</maxDepth>
    <maxWeakCount>100</maxWeakCount></stageParams>
  <featureParams>
    <maxCatCount>0</maxCatCount>
    <featSize>1</featSize>
    <mode>BASIC</mode></featureParams>
  <stageNum>20</stageNum>
  <stages>
    <!-- stage 0 -->
    <_>
      <maxWeakCount>2</maxWeakCount>
      <stageThreshold>-1.8119856715202332e-01</stageThreshold>
      <weakClassifiers>
        <_>
          <internalNodes>
            0 -1 8 1.1802785098552704e-01</internalNodes>
          <leafValues>
            -8.9999997615814209e-01 8.9999997615814209e-01</leafValues></_>
        <_>
          <internalNodes>
            0 -1 25 4.1932262480258942e-02</internalNodes>
          <leafValues>
            -9.4457185268402100e-01 7.1880143880844116e-01</leafValues></_></weakClassifiers></_>
    <!-- stage 1 -->
    <_>
      <maxWeakCount>3</maxWeakCount>
      <stageThreshold>-6.4989227056503296e-01</stageThreshold>
      <weakClassifiers>
        <_>
          <internalNodes>
            0 -1 34 1.5731166303157806e-01</internalNodes>
          <leafValues>
            -8.0952382087707520e-01 8.9473682641983032e-01</leafValues></_>
        <_>
          <internalNodes>
            0 -1 30 7.0445016026496887e-02</internalNodes>
          <leafValues>
            -7.1547001600265503e-01 8.5402441024780273e-01</leafValues></_>
        <_>
          <internalNodes>
            0 -1 16 -1.4374589920043945e-01</internalNodes>
          <leafValues>
            8.7637877464294434e-01 -6.9439285993576050e-01</leafValues></_></weakClassifiers></_>
    <!-- stage 2 -->
    <_>
      <maxWeakCount>3</maxWeakCount>
      <stageThreshold>-7.1824991703033447e-01</stageThreshold>
      <weakClassifiers>
        <_>
          <internalNodes>
            0 -1 35 9.0805873274803162e-02</internalNodes>
          <leafValues>
            -6.4406782388687134e-01 9.2682927846908569e-01</leafValues></_>
        <_>
          <internalNodes>
            0 -1 21 1.3468524813652039e-01</internalNodes>
          <leafValues>
            -8.4404259920120239e-01 6.8482047319412231e-01</leafValues></_>
        <_>
          <internalNodes>
            0 -1 69 -2.3759827017784119e-02</internalNodes>
          <leafValues>
            7.6986050605773926e-01 -6.7209184169769287e-01</leafValues></_></weakClassifiers></_>
    <!-- stage 3 -->
    <_>
      <maxWeakCount>3</maxWeakCount>
      <stageThreshold>-5.6231576204299927e-01</stageThreshold>
      <weakClassifiers>
        <_>
          <internalNodes>
            0 -1 65 -3.5919606685638428e-02</internalNodes>
          <leafValues>
            8.6206895112991333e-01 -6.6371679306030273e-01</leafValues></_>
        <_>
          <internalNodes>
            0 -1 37 -3.7929594516754150e-02</internalNodes>
          <leafValues>
            8.7214004993438721e-01 -5.2606952190399170e-01</leafValues></_>
        <_>
          <internalNodes>
            0 -1 45 8.7961519602686167e-04</internalNodes>
          <leafValues>
            -7.7073901891708374e-01 6.7017668485641479e-01</leafValues></_></weakClassifiers></_>
    <!-- stage 4 -->
    <_>
      <maxWeakCount>4</maxWeakCount>
      <stageThreshold>-1.3184099197387695e+00</stageThreshold>
      <weakClassifiers>
        <_>
          <internalNodes>
            0 -1 49 -4.3148726224899292e-02</internalNodes>
          <leafValues>
            8.9999997615814209e-01 -6.0000002384185791e-01</leafValues></_>
        <_>
          <internalNodes>
            0 -1 13 7.6840437948703766e-02</internalNodes>
          <leafValues>
            -6.1725807189941406e-01 6.4270275831222534e-01</leafValues></_>
        <_>
          <internalNodes>
            0 -1 76 -3.0037638498470187e-04</internalNodes>
          <leafValues>
            -7.8392827510833740e-01 5.0925081968307495e-01</leafValues></_>
        <_>
          <internalNodes>
            0 -1 67 -3.3741660416126251e-02</internalNodes>
          <leafValues>
            6.1015933752059937e-01 -6.1040264368057251e-01</leafValues></_></weakClassifiers></_>
    <!-- stage 5 -->
    <_>
      <maxWeakCount>3</maxWeakCount>
      <stageThreshold>-6.9680517911911011e-01</stageThreshold>
      <weakClassifiers>
        <_>
          <internalNodes>
            0 -1 33 4.0760897099971771e-02</internalNodes>
          <leafValues>
            -6.5217393636703491e-01 8.8235294818878174e-01</leafValues></_>
        <_>
          <internalNodes>
            0 -1 58 -5.8411154896020889e-03</internalNodes>
          <leafValues>
            6.2748080492019653e-01 -7.6130384206771851e-01</leafValues></_>
        <_>
          <internalNodes>
            0 -1 24 4.8174656927585602e-02</internalNodes>
          <leafValues>
            -6.1066043376922607e-01 7.1667253971099854e-01</leafValues></_></weakClassifiers></_>
    <!-- stage 6 -->
    <_>
      <maxWeakCount>4</maxWeakCount>
      <stageThreshold>-3.1711009144783020e-01</stageThreshold>
      <weakClassifiers>
        <_>
          <internalNodes>
            0 -1 12 -1.7465978860855103e-02</internalNodes>
          <leafValues>
            7.6842105388641357e-01 -6.9523811340332031e-01</leafValues></_>
        <_>
          <internalNodes>
            0 -1 10 3.9304670644924045e-04</internalNodes>
          <leafValues>
            -8.4784311056137085e-01 6.2033838033676147e-01</leafValues></_>
        <_>
          <internalNodes>
            0 -1 64 -3.4422963857650757e-02</internalNodes>
          <leafValues>
            6.4862728118896484e-01 -8.1011170148849487e-01</leafValues></_>
        <_>
          <internalNodes>
            0 -1 40 3.1660980312153697e-04</internalNodes>
          <leafValues>
            -7.1082860231399536e-01 5.7734382152557373e-01</leafValues></_></weakClassifiers></_>
    <!-- stage 7 -->
    <_>
      <maxWeakCount>5</maxWeakCount>
      <stageThreshold>-4.3575701117515564e-01</stageThreshold>
      <weakClassifiers>
        <_>
          <internalNodes>
            0 -1 56 6.5261766314506531e-02</internalNodes>
          <leafValues>
            -4.7761192917823792e-01 9.6969699859619141e-01</leafValues></_>
        <_>
          <internalNodes>
            0 -1 62 -3.0406206846237183e-02</internalNodes>
          <leafValues>
            5.3909462690353394e-01 -6.7908984422683716e-01</leafValues></_>
        <_>
          <internalNodes>
            0 -1 79 -9.4624962657690048e-03</internalNodes>
          <leafValues>
            8.4655880928039551e-01 -4.1757416725158691e-01</leafValues></_>
        <_>
          <internalNodes>
            0 -1 17 -7.9433750361204147e-03</internalNodes>
          <leafValues>
            5.8120596408843994e-01 -7.0776116847991943e-01</leafValues></_>
        <_>
          <internalNodes>
            0 -1 51 -3.2369678374379873e-03</internalNodes>
          <leafValues>
            6.2809562683105469e-01 -5.6427443027496338e-01</leafValues></_></weakClassifiers></_>
    <!-- stage 8 -->
    <_>
      <maxWeakCount>5</maxWeakCount>
      <stageThreshold>-8.1371372938156128e-01</stageThreshold>
      <weakClassifiers>
        <_>
          <internalNodes>
            0 -1 9 6.6896155476570129e-02</internalNodes>
          <leafValues>
            -5.1937985420227051e-01 9.4366198778152466e-01</leafValues></_>
        <_>
          <internalNodes>
            0 -1 63 -2.1838578395545483e-03</internalNodes>
          <leafValues>
            5.6339240074157715e-01 -6.6956865787506104e-01</leafValues></_>
        <_>
          <internalNodes>
            0 -1 73 -4.0794062078930438e-04</internalNodes>
          <leafValues>
            -8.5907506942749023e-01 4.0741154551506042e-01</leafValues></_>
        <_>
          <internalNodes>
            0 -1 70 -4.1295099072158337e-03</internalNodes>
          <leafValues>
            7.8146207332611084e-01 -5.2628284692764282e-01</leafValues></_>
        <_>
          <internalNodes>
            0 -1 41 -6.8776903208345175e-04</internalNodes>
          <leafValues>
            5.2763164043426514e-01 -8.3501005172729492e-01</leafValues></_></weakClassifiers></_>
    <!-- stage 9 -->
    <_>
      <maxWeakCount>5</maxWeakCount>
      <stageThreshold>-7.9799610376358032e-01</stageThreshold>
      <weakClassifiers>
        <_>
          <internalNodes>
            0 -1 59 -1.0881871916353703e-02</internalNodes>
          <leafValues>
            8.4615385532379150e-01 -5.4098361730575562e-01</leafValues></_>
        <_>
          <internalNodes>
            0 -1 1 1.2562494957819581e-03</internalNodes>
          <leafValues>
            -7.9858815670013428e-01 5.2963393926620483e-01</leafValues></_>
        <_>
          <internalNodes>
            0 -1 68 1.1946907266974449e-02</internalNodes>
          <leafValues>
            -7.1410548686981201e-01 4.7243615984916687e-01</leafValues></_>
        <_>
          <internalNodes>
            0 -1 26 -1.0687944479286671e-02</internalNodes>
          <leafValues>
            6.6246670484542847e-01 -5.2297872304916382e-01</leafValues></_>
        <_>
          <internalNodes>
            0 -1 74 -1.6687102615833282e-03</internalNodes>
          <leafValues>
            5.9211820363998413e-01 -6.3377898931503296e-01</leafValues></_></weakClassifiers></_>
    <!-- stage 10 -->
    <_>
      <maxWeakCount>4</maxWeakCount>
      <stageThreshold>-1.1268899440765381e+00</stageThreshold>
      <weakClassifiers>
        <_>
          <internalNodes>
            0 -1 60 6.8734977394342422e-03</internalNodes>
          <leafValues>
            -6.1016947031021118e-01 8.7804877758026123e-01</leafValues></_>
        <_>
          <internalNodes>
            0 -1 4 4.3305349536240101e-03</internalNodes>
          <leafValues>
            -3.6802864074707031e-01 8.8892596960067749e-01</leafValues></_>
        <_>
          <internalNodes>
            0 -1 32 -3.7549756467342377e-02</internalNodes>
          <leafValues>
            7.0479774475097656e-01 -5.4622614383697510e-01</leafValues></_>
        <_>
          <internalNodes>
            0 -1 77 -6.1732449103146791e-04</internalNodes>
          <leafValues>
            -9.4186222553253174e-01 3.9753437042236328e-01</leafValues></_></weakClassifiers></_>
    <!-- stage 11 -->
    <_>
      <maxWeakCount>4</maxWeakCount>
      <stageThreshold>-6.7142456769943237e-01</stageThreshold>
      <weakClassifiers>
        <_>
          <internalNodes>
            0 -1 75 -5.2281953394412994e-02</internalNodes>
          <leafValues>
            9.7058820724487305e-01 -5.0000000000000000e-01</leafValues></_>
        <_>
          <internalNodes>
            0 -1 66 -9.3837445601820946e-03</internalNodes>
          <leafValues>
            7.3102730512619019e-01 -5.0691711902618408e-01</leafValues></_>
        <_>
          <internalNodes>
            0 -1 14 -1.8948705866932869e-02</internalNodes>
          <leafValues>
            7.6716852188110352e-01 -4.8716160655021667e-01</leafValues></_>
        <_>
          <internalNodes>
            0 -1 54 -1.5393063426017761e-02</internalNodes>
          <leafValues>
            8.2265412807464600e-01 -4.0462630987167358e-01</leafValues></_></weakClassifiers></_>
    <!-- stage 12 -->
    <_>
      <maxWeakCount>3</maxWeakCount>
      <stageThreshold>-6.3808119297027588e-01</stageThreshold>
      <weakClassifiers>
        <_>
          <internalNodes>
            0 -1 42 1.6045629978179932e-01</internalNodes>
          <leafValues>
            -7.4736839532852173e-01 6.7619049549102783e-01</leafValues></_>
        <_>
          <internalNodes>
            0 -1 53 -7.5550274923443794e-03</internalNodes>
          <leafValues>
            5.9975743293762207e-01 -6.4843070507049561e-01</leafValues></_>
        <_>
          <internalNodes>
            0 -1 3 4.7460831701755524e-03</internalNodes>
          <leafValues>
            -4.8656824231147766e-01 7.5771790742874146e-01</leafValues></_></weakClassifiers></_>
    <!-- stage 13 -->
    <_>
      <maxWeakCount>4</maxWeakCount>
      <stageThreshold>-1.2166343927383423e+00</stageThreshold>
      <weakClassifiers>
        <_>
          <internalNodes>
            0 -1 47 5.0793513655662537e-02</internalNodes>
          <leafValues>
            -5.2380955219268799e-01 8.9189189672470093e-01</leafValues></_>
        <_>
          <internalNodes>
            0 -1 19 -6.5829232335090637e-04</internalNodes>
          <leafValues>
            -7.1054089069366455e-01 4.9654453992843628e-01</leafValues></_>
        <_>
          <internalNodes>
            0 -1 11 1.2024404713883996e-04</internalNodes>
          <leafValues>
            -7.1644103527069092e-01 4.3573752045631409e-01</leafValues></_>
        <_>
          <internalNodes>
            0 -1 44 4.2885903269052505e-02</internalNodes>
          <leafValues>
            -4.7292834520339966e-01 7.0606631040573120e-01</leafValues></_></weakClassifiers></_>
    <!-- stage 14 -->
    <_>
      <maxWeakCount>5</maxWeakCount>
      <stageThreshold>-1.1912906169891357e+00</stageThreshold>
      <weakClassifiers>
        <_>
          <internalNodes>
            0 -1 72 2.7420043945312500e-02</internalNodes>
          <leafValues>
            -5.2066117525100708e-01 7.9746836423873901e-01</leafValues></_>
        <_>
          <internalNodes>
            0 -1 22 -6.3686832785606384e-02</internalNodes>
          <leafValues>
            3.5111272335052490e-01 -9.7372096776962280e-01</leafValues></_>
        <_>
          <internalNodes>
            0 -1 2 8.6647763848304749e-02</internalNodes>
          <leafValues>
            -6.4474350214004517e-01 5.7517856359481812e-01</leafValues></_>
        <_>
          <internalNodes>
            0 -1 15 2.9710438102483749e-03</internalNodes>
          <leafValues>
            -6.7496824264526367e-01 4.8858651518821716e-01</leafValues></_>
        <_>
          <internalNodes>
            0 -1 78 1.7245094932150096e-04</internalNodes>
          <leafValues>
            2.9796954989433289e-01 -9.3260788917541504e-01</leafValues></_></weakClassifiers></_>
    <!-- stage 15 -->
    <_>
      <maxWeakCount>4</maxWeakCount>
      <stageThreshold>-3.1900170445442200e-01</stageThreshold>
      <weakClassifiers>
        <_>
          <internalNodes>
            0 -1 6 -1.0392697528004646e-02</internalNodes>
          <leafValues>
            9.6875000000000000e-01 -4.5588234066963196e-01</leafValues></_>
        <_>
          <internalNodes>
            0 -1 50 -5.2925397176295519e-04</internalNodes>
          <leafValues>
            -1. 3.8233864307403564e-01</leafValues></_>
        <_>
          <internalNodes>
            0 -1 36 -6.3847278943285346e-04</internalNodes>
          <leafValues>
            -7.8470069169998169e-01 3.4362027049064636e-01</leafValues></_>
        <_>
          <internalNodes>
            0 -1 7 4.6063303016126156e-03</internalNodes>
          <leafValues>
            -5.8412528038024902e-01 5.3924268484115601e-01</leafValues></_></weakClassifiers></_>
    <!-- stage 16 -->
    <_>
      <maxWeakCount>5</maxWeakCount>
      <stageThreshold>-5.6670528650283813e-01</stageThreshold>
      <weakClassifiers>
        <_>
          <internalNodes>
            0 -1 48 -1.4212116599082947e-01</internalNodes>
          <leafValues>
            1. -4.3884891271591187e-01</leafValues></_>
        <_>
          <internalNodes>
            0 -1 0 -7.5288442894816399e-04</internalNodes>
          <leafValues>
            -6.3799387216567993e-01 4.5917123556137085e-01</leafValues></_>
        <_>
          <internalNodes>
            0 -1 20 3.0804211273789406e-03</internalNodes>
          <leafValues>
            -7.0406079292297363e-01 4.2401000857353210e-01</leafValues></_>
        <_>
          <internalNodes>
            0 -1 23 -1.3338369317352772e-02</internalNodes>
          <leafValues>
            7.8721749782562256e-01 -3.4858644008636475e-01</leafValues></_>
        <_>
          <internalNodes>
            0 -1 39 5.6337425485253334e-03</internalNodes>
          <leafValues>
            -6.3896977901458740e-01 4.6561968326568604e-01</leafValues></_></weakClassifiers></_>
    <!-- stage 17 -->
    <_>
      <maxWeakCount>4</maxWeakCount>
      <stageThreshold>-6.1684441566467285e-01</stageThreshold>
      <weakClassifiers>
        <_>
          <internalNodes>
            0 -1 61 5.2304089069366455e-02</internalNodes>
          <leafValues>
            -4.3703705072402954e-01 9.0769231319427490e-01</leafValues></_>
        <_>
          <internalNodes>
            0 -1 31 -1.4421569649130106e-03</internalNodes>
          <leafValues>
            -9.0452480316162109e-01 3.6900395154953003e-01</leafValues></_>
        <_>
          <internalNodes>
            0 -1 46 2.9386887326836586e-03</internalNodes>
          <leafValues>
            3.9854162931442261e-01 -6.7525827884674072e-01</leafValues></_>
        <_>
          <internalNodes>
            0 -1 52 -1.6935836523771286e-02</internalNodes>
          <leafValues>
            3.1951981782913208e-01 -9.4735294580459595e-01</leafValues></_></weakClassifiers></_>
    <!-- stage 18 -->
    <_>
      <maxWeakCount>6</maxWeakCount>
      <stageThreshold>-8.8662987947463989e-01</stageThreshold>
      <weakClassifiers>
        <_>
          <internalNodes>
            0 -1 38 2.1403560414910316e-02</internalNodes>
          <leafValues>
            -4.4927537441253662e-01 1.</leafValues></_>
        <_>
          <internalNodes>
            0 -1 43 7.0470012724399567e-02</internalNodes>
          <leafValues>
            -2.9770481586456299e-01 7.9735875129699707e-01</leafValues></_>
        <_>
          <internalNodes>
            0 -1 5 1.0219569317996502e-02</internalNodes>
          <leafValues>
            -4.9797996878623962e-01 5.5619597434997559e-01</leafValues></_>
        <_>
          <internalNodes>
            0 -1 80 -2.4558551376685500e-04</internalNodes>
          <leafValues>
            -9.1937017440795898e-01 3.3026468753814697e-01</leafValues></_>
        <_>
          <internalNodes>
            0 -1 55 -1.9209835678339005e-02</internalNodes>
          <leafValues>
            8.1083810329437256e-01 -4.0119126439094543e-01</leafValues></_>
        <_>
          <internalNodes>
            0 -1 28 1.9878679886460304e-03</internalNodes>
          <leafValues>
            -6.2491905689239502e-01 5.0824463367462158e-01</leafValues></_></weakClassifiers></_>
    <!-- stage 19 -->
    <_>
      <maxWeakCount>5</maxWeakCount>
      <stageThreshold>-8.4364050626754761e-01</stageThreshold>
      <weakClassifiers>
        <_>
          <internalNodes>
            0 -1 57 1.7297625541687012e-02</internalNodes>
          <leafValues>
            -4.5185184478759766e-01 9.3846154212951660e-01</leafValues></_>
        <_>
          <internalNodes>
            0 -1 27 1.1275178985670209e-04</internalNodes>
          <leafValues>
            4.1694685816764832e-01 -8.7188220024108887e-01</leafValues></_>
        <_>
          <internalNodes>
            0 -1 71 -3.0227587558329105e-04</internalNodes>
          <leafValues>
            -9.1198462247848511e-01 2.9761749505996704e-01</leafValues></_>
        <_>
          <internalNodes>
            0 -1 29 -6.0885970015078783e-04</internalNodes>
          <leafValues>
            -7.7364885807037354e-01 2.9975461959838867e-01</leafValues></_>
        <_>
          <internalNodes>
            0 -1 18 1.1410389095544815e-02</internalNodes>
          <leafValues>
            -4.3418842554092407e-01 7.2220879793167114e-01</leafValues></_></weakClassifiers></_></stages>
  <features>
    <_>
      <rects>
        <_>
          0 0 6 1 -1.</_>
        <_>
          2 0 2 1 3.</_></rects>
      <tilted>0</tilted></_>
    <_>
      <rects>
        <_>
          0 0 8 1 -1.</_>
        <_>
          4 0 4 1 2.</_></rects>
      <tilted>0</tilted></_>
    <_>
      <rects>
        <_>
          0 0 16 11 -1.</_>
        <_>
          8 0 8 11 2.</_></rects>
      <tilted>0</tilted></_>
    <_>
      <rects>
        <_>
          0 2 3 6 -1.</_>
        <_>
          1 2 1 6 3.</_></rects>
      <tilted>0</tilted></_>
    <_>
      <rects>
        <_>
          0 3 3 5 -1.</_>
        <_>
          1 3 1 5 3.</_></rects>
      <tilted>0</tilted></_>
    <_>
      <rects>
        <_>
          0 3 6 15 -1.</_>
        <_>
          2 3 2 15 3.</_></rects>
      <tilted>0</tilted></_>
    <_>
      <rects>
        <_>
          0 6 6 1 -1.</_>
        <_>
          3 6 3 1 2.</_></rects>
      <tilted>0</tilted></_>
    <_>
      <rects>
        <_>
          0 6 8 4 -1.</_>
        <_>
          0 6 4 2 2.</_>
        <_>
          4 8 4 2 2.</_></rects>
      <tilted>0</tilted></_>
    <_>
      <rects>
        <_>
          0 6 24 12 -1.</_>
        <_>
          0 10 24 4 3.</_></rects>
      <tilted>0</tilted></_>
    <_>
      <rects>
        <_>
          0 9 24 4 -1.</_>
        <_>
          0 11 24 2 2.</_></rects>
      <tilted>0</tilted></_>
    <_>
      <rects>
        <_>
          0 11 2 2 -1.</_>
        <_>
          1 11 1 2 2.</_></rects>
      <tilted>0</tilted></_>
    <_>
      <rects>
        <_>
          1 0 3 10 -1.</_>
        <_>
          2 0 1 10 3.</_></rects>
      <tilted>0</tilted></_>
    <_>
      <rects>
        <_>
          1 0 6 8 -1.</_>
        <_>
          1 0 3 4 2.</_>
        <_>
          4 4 3 4 2.</_></rects>
      <tilted>0</tilted></_>
    <_>
      <rects>
        <_>
          1 0 16 10 -1.</_>
        <_>
          9 0 8 10 2.</_></rects>
      <tilted>0</tilted></_>
    <_>
      <rects>
        <_>
          1 6 12 2 -1.</_>
        <_>
          5 6 4 2 3.</_></rects>
      <tilted>0</tilted></_>
    <_>
      <rects>
        <_>
          1 10 13 3 -1.</_>
        <_>
          1 11 13 1 3.</_></rects>
      <tilted>0</tilted></_>
    <_>
      <rects>
        <_>
          1 11 22 12 -1.</_>
        <_>
          1 17 22 6 2.</_></rects>
      <tilted>0</tilted></_>
    <_>
      <rects>
        <_>
          1 15 3 8 -1.</_>
        <_>
          1 19 3 4 2.</_></rects>
      <tilted>0</tilted></_>
    <_>
      <rects>
        <_>
          1 21 6 3 -1.</_>
        <_>
          4 21 3 3 2.</_></rects>
      <tilted>0</tilted></_>
    <_>
      <rects>
        <_>
          2 0 3 6 -1.</_>
        <_>
          2 2 3 2 3.</_></rects>
      <tilted>0</tilted></_>
    <_>
      <rects>
        <_>
          2 2 10 1 -1.</_>
        <_>
          7 2 5 1 2.</_></rects>
      <tilted>0</tilted></_>
    <_>
      <rects>
        <_>
          2 3 11 21 -1.</_>
        <_>
          2 10 11 7 3.</_></rects>
      <tilted>0</tilted></_>
    <_>
      <rects>
        <_>
          2 11 22 8 -1.</_>
        <_>
          2 15 22 4 2.</_></rects>
      <tilted>0</tilted></_>
    <_>
      <rects>
        <_>
          2 17 19 3 -1.</_>
        <_>
          2 18 19 1 3.</_></rects>
      <tilted>0</tilted></_>
    <_>
      <rects>
        <_>
          3 0 21 3 -1.</_>
        <_>
          10 0 7 3 3.</_></rects>
      <tilted>0</tilted></_>
    <_>
      <rects>
        <_>
          3 1 21 7 -1.</_>
        <_>
          10 1 7 7 3.</_></rects>
      <tilted>0</tilted></_>
    <_>
      <rects>
        <_>
          3 6 9 2 -1.</_>
        <_>
          6 6 3 2 3.</_></rects>
      <tilted>0</tilted></_>
    <_>
      <rects>
        <_>
          3 13 1 2 -1.</_>
        <_>
          3 14 1 1 2.</_></rects>
      <tilted>0</tilted></_>
    <_>
      <rects>
        <_>
          3 18 6 2 -1.</_>
        <_>
          5 18 2 2 3.</_></rects>
      <tilted>0</tilted></_>
    <_>
      <rects>
        <_>
          4 0 6 1 -1.</_>
        <_>
          6 0 2 1 3.</_></rects>
      <tilted>0</tilted></_>
    <_>
      <rects>
        <_>
          4 0 15 7 -1.</_>
        <_>
          9 0 5 7 3.</_></rects>
      <tilted>0</tilted></_>
    <_>
      <rects>
        <_>
          4 1 3 5 -1.</_>
        <_>
          5 1 1 5 3.</_></rects>
      <tilted>0</tilted></_>
    <_>
      <rects>
        <_>
          4 4 20 6 -1.</_>
        <_>
          4 6 20 2 3.</_></rects>
      <tilted>0</tilted></_>
    <_>
      <rects>
        <_>
          4 5 15 3 -1.</_>
        <_>
          9 5 5 3 3.</_></rects>
      <tilted>0</tilted></_>
    <_>
      <rects>
        <_>
          4 6 20 12 -1.</_>
        <_>
          4 10 20 4 3.</_></rects>
      <tilted>0</tilted></_>
    <_>
      <rects>
        <_>
          5 0 12 10 -1.</_>
        <_>
          9 0 4 10 3.</_></rects>
      <tilted>0</tilted></_>
    <_>
      <rects>
        <_>
          5 2 3 2 -1.</_>
        <_>
          6 2 1 2 3.</_></rects>
      <tilted>0</tilted></_>
    <_>
      <rects>
        <_>
          5 2 14 6 -1.</_>
        <_>
          5 5 14 3 2.</_></rects>
      <tilted>0</tilted></_>
    <_>
      <rects>
        <_>
          5 4 19 3 -1.</_>
        <_>
          5 5 19 1 3.</_></rects>
      <tilted>0</tilted></_>
    <_>
      <rects>
        <_>
          5 7 13 2 -1.</_>
        <_>
          5 8 13 1 2.</_></rects>
      <tilted>0</tilted></_>
    <_>
      <rects>
        <_>
          5 19 3 2 -1.</_>
        <_>
          6 19 1 2 3.</_></rects>
      <tilted>0</tilted></_>
    <_>
      <rects>
        <_>
          5 22 8 2 -1.</_>
        <_>
          5 23 8 1 2.</_></rects>
      <tilted>0</tilted></_>
    <_>
      <rects>
        <_>
          6 6 18 12 -1.</_>
        <_>
          6 10 18 4 3.</_></rects>
      <tilted>0</tilted></_>
    <_>
      <rects>
        <_>
          7 2 9 13 -1.</_>
        <_>
          10 2 3 13 3.</_></rects>
      <tilted>0</tilted></_>
    <_>
      <rects>
        <_>
          7 3 12 5 -1.</_>
        <_>
          11 3 4 5 3.</_></rects>
      <tilted>0</tilted></_>
    <_>
      <rects>
        <_>
          8 21 15 1 -1.</_>
        <_>
          13 21 5 1 3.</_></rects>
      <tilted>0</tilted></_>
    <_>
      <rects>
        <_>
          10 1 2 12 -1.</_>
        <_>
          10 7 2 6 2.</_></rects>
      <tilted>0</tilted></_>
    <_>
      <rects>
        <_>
          10 2 13 6 -1.</_>
        <_>
          10 4 13 2 3.</_></rects>
      <tilted>0</tilted></_>
    <_>
      <rects>
        <_>
          10 5 14 9 -1.</_>
        <_>
          10 8 14 3 3.</_></rects>
      <tilted>0</tilted></_>
    <_>
      <rects>
        <_>
          10 6 9 7 -1.</_>
        <_>
          13 6 3 7 3.</_></rects>
      <tilted>0</tilted></_>
    <_>
      <rects>
        <_>
          10 20 3 1 -1.</_>
        <_>
          11 20 1 1 3.</_></rects>
      <tilted>0</tilted></_>
    <_>
      <rects>
        <_>
          11 9 4 3 -1.</_>
        <_>
          13 9 2 3 2.</_></rects>
      <tilted>0</tilted></_>
    <_>
      <rects>
        <_>
          11 10 6 12 -1.</_>
        <_>
          11 16 6 6 2.</_></rects>
      <tilted>0</tilted></_>
    <_>
      <rects>
        <_>
          12 3 6 7 -1.</_>
        <_>
          14 3 2 7 3.</_></rects>
      <tilted>0</tilted></_>
    <_>
      <rects>
        <_>
          12 18 10 6 -1.</_>
        <_>
          12 18 5 3 2.</_>
        <_>
          17 21 5 3 2.</_></rects>
      <tilted>0</tilted></_>
    <_>
      <rects>
        <_>
          13 1 4 6 -1.</_>
        <_>
          13 4 4 3 2.</_></rects>
      <tilted>0</tilted></_>
    <_>
      <rects>
        <_>
          14 4 9 9 -1.</_>
        <_>
          17 4 3 9 3.</_></rects>
      <tilted>0</tilted></_>
    <_>
      <rects>
        <_>
          14 9 9 1 -1.</_>
        <_>
          17 9 3 1 3.</_></rects>
      <tilted>0</tilted></_>
    <_>
      <rects>
        <_>
          14 17 8 6 -1.</_>
        <_>
          18 17 4 6 2.</_></rects>
      <tilted>0</tilted></_>
    <_>
      <rects>
        <_>
          15 4 1 9 -1.</_>
        <_>
          15 7 1 3 3.</_></rects>
      <tilted>0</tilted></_>
    <_>
      <rects>
        <_>
          15 4 9 3 -1.</_>
        <_>
          15 5 9 1 3.</_></rects>
      <tilted>0</tilted></_>
    <_>
      <rects>
        <_>
          15 6 6 8 -1.</_>
        <_>
          17 6 2 8 3.</_></rects>
      <tilted>0</tilted></_>
    <_>
      <rects>
        <_>
          16 0 8 14 -1.</_>
        <_>
          20 0 4 14 2.</_></rects>
      <tilted>0</tilted></_>
    <_>
      <rects>
        <_>
          16 6 8 4 -1.</_>
        <_>
          16 6 4 2 2.</_>
        <_>
          20 8 4 2 2.</_></rects>
      <tilted>0</tilted></_>
    <_>
      <rects>
        <_>
          16 11 8 8 -1.</_>
        <_>
          16 15 8 4 2.</_></rects>
      <tilted>0</tilted></_>
    <_>
      <rects>
        <_>
          17 0 6 14 -1.</_>
        <_>
          20 0 3 14 2.</_></rects>
      <tilted>0</tilted></_>
    <_>
      <rects>
        <_>
          17 2 2 9 -1.</_>
        <_>
          17 5 2 3 3.</_></rects>
      <tilted>0</tilted></_>
    <_>
      <rects>
        <_>
          18 0 6 21 -1.</_>
        <_>
          21 0 3 21 2.</_></rects>
      <tilted>0</tilted></_>
    <_>
      <rects>
        <_>
          18 5 1 12 -1.</_>
        <_>
          18 9 1 4 3.</_></rects>
      <tilted>0</tilted></_>
    <_>
      <rects>
        <_>
          18 10 2 14 -1.</_>
        <_>
          18 17 2 7 2.</_></rects>
      <tilted>0</tilted></_>
    <_>
      <rects>
        <_>
          18 15 4 6 -1.</_>
        <_>
          18 15 2 3 2.</_>
        <_>
          20 18 2 3 2.</_></rects>
      <tilted>0</tilted></_>
    <_>
      <rects>
        <_>
          19 0 3 2 -1.</_>
        <_>
          19 1 3 1 2.</_></rects>
      <tilted>0</tilted></_>
    <_>
      <rects>
        <_>
          19 0 3 9 -1.</_>
        <_>
          19 3 3 3 3.</_></rects>
      <tilted>0</tilted></_>
    <_>
      <rects>
        <_>
          19 10 5 3 -1.</_>
        <_>
          19 11 5 1 3.</_></rects>
      <tilted>0</tilted></_>
    <_>
      <rects>
        <_>
          19 18 1 6 -1.</_>
        <_>
          19 21 1 3 2.</_></rects>
      <tilted>0</tilted></_>
    <_>
      <rects>
        <_>
          20 4 4 9 -1.</_>
        <_>
          20 7 4 3 3.</_></rects>
      <tilted>0</tilted></_>
    <_>
      <rects>
        <_>
          20 14 2 6 -1.</_>
        <_>
          20 16 2 2 3.</_></rects>
      <tilted>0</tilted></_>
    <_>
      <rects>
        <_>
          21 0 2 6 -1.</_>
        <_>
          21 3 2 3 2.</_></rects>
      <tilted>0</tilted></_>
    <_>
      <rects>
        <_>
          21 3 2 1 -1.</_>
        <_>
          22 3 1 1 2.</_></rects>
      <tilted>0</tilted></_>
    <_>
      <rects>
        <_>
          22 0 2 15 -1.</_>
        <_>
          23 0 1 15 2.</_></rects>
      <tilted>0</tilted></_>
    <_>
      <rects>
        <_>
          22 12 1 3 -1.</_>
        <_>
          22 13 1 1 3.</_></rects>
      <tilted>0</tilted></_></features></cascade>
</opencv_storage>
