<?xml version="1.0"?>
<opencv_storage>
<stage19>
  <maxWeakCount>5</maxWeakCount>
  <stageThreshold>-8.4364050626754761e-01</stageThreshold>
  <weakClassifiers>
    <_>
      <internalNodes>
        0 -1 137186 1.7297625541687012e-02</internalNodes>
      <leafValues>
        -4.5185184478759766e-01 9.3846154212951660e-01</leafValues></_>
    <_>
      <internalNodes>
        0 -1 47047 1.1275178985670209e-04</internalNodes>
      <leafValues>
        4.1694685816764832e-01 -8.7188220024108887e-01</leafValues></_>
    <_>
      <internalNodes>
        0 -1 155368 -3.0227587558329105e-04</internalNodes>
      <leafValues>
        -9.1198462247848511e-01 2.9761749505996704e-01</leafValues></_>
    <_>
      <internalNodes>
        0 -1 49558 -6.0885970015078783e-04</internalNodes>
      <leafValues>
        -7.7364885807037354e-01 2.9975461959838867e-01</leafValues></_>
    <_>
      <internalNodes>
        0 -1 25630 1.1410389095544815e-02</internalNodes>
      <leafValues>
        -4.3418842554092407e-01 7.2220879793167114e-01</leafValues></_></weakClassifiers></stage19>
</opencv_storage>
