<?xml version="1.0"?>
<opencv_storage>
<stage9>
  <maxWeakCount>5</maxWeakCount>
  <stageThreshold>-7.9799610376358032e-01</stageThreshold>
  <weakClassifiers>
    <_>
      <internalNodes>
        0 -1 140712 -1.0881871916353703e-02</internalNodes>
      <leafValues>
        8.4615385532379150e-01 -5.4098361730575562e-01</leafValues></_>
    <_>
      <internalNodes>
        0 -1 240 1.2562494957819581e-03</internalNodes>
      <leafValues>
        -7.9858815670013428e-01 5.2963393926620483e-01</leafValues></_>
    <_>
      <internalNodes>
        0 -1 153148 1.1946907266974449e-02</internalNodes>
      <leafValues>
        -7.1410548686981201e-01 4.7243615984916687e-01</leafValues></_>
    <_>
      <internalNodes>
        0 -1 43114 -1.0687944479286671e-02</internalNodes>
      <leafValues>
        6.6246670484542847e-01 -5.2297872304916382e-01</leafValues></_>
    <_>
      <internalNodes>
        0 -1 157460 -1.6687102615833282e-03</internalNodes>
      <leafValues>
        5.9211820363998413e-01 -6.3377898931503296e-01</leafValues></_></weakClassifiers></stage9>
</opencv_storage>
