<?xml version="1.0"?>
<opencv_storage>
<stage8>
  <maxWeakCount>5</maxWeakCount>
  <stageThreshold>-8.1371372938156128e-01</stageThreshold>
  <weakClassifiers>
    <_>
      <internalNodes>
        0 -1 8798 6.6896155476570129e-02</internalNodes>
      <leafValues>
        -5.1937985420227051e-01 9.4366198778152466e-01</leafValues></_>
    <_>
      <internalNodes>
        0 -1 146063 -2.1838578395545483e-03</internalNodes>
      <leafValues>
        5.6339240074157715e-01 -6.6956865787506104e-01</leafValues></_>
    <_>
      <internalNodes>
        0 -1 156893 -4.0794062078930438e-04</internalNodes>
      <leafValues>
        -8.5907506942749023e-01 4.0741154551506042e-01</leafValues></_>
    <_>
      <internalNodes>
        0 -1 154798 -4.1295099072158337e-03</internalNodes>
      <leafValues>
        7.8146207332611084e-01 -5.2628284692764282e-01</leafValues></_>
    <_>
      <internalNodes>
        0 -1 70684 -6.8776903208345175e-04</internalNodes>
      <leafValues>
        5.2763164043426514e-01 -8.3501005172729492e-01</leafValues></_></weakClassifiers></stage8>
</opencv_storage>
