<?xml version="1.0"?>
<opencv_storage>
<cascade>
  <stageType>BOOST</stageType>
  <featureType>HAAR</featureType>
  <height>24</height>
  <width>24</width>
  <stageParams>
    <boostType>GAB</boostType>
    <minHitRate>9.9500000476837158e-01</minHitRate>
    <maxFalseAlarm>5.0000000000000000e-01</maxFalseAlarm>
    <weightTrimRate>9.4999999999999996e-01</weightTrimRate>
    <maxDepth>1</maxDepth>
    <maxWeakCount>100</maxWeakCount></stageParams>
  <featureParams>
    <maxCatCount>0</maxCatCount>
    <featSize>1</featSize>
    <mode>BASIC</mode></featureParams>
  <stageNum>14</stageNum>
  <stages>
    <!-- stage 0 -->
    <_>
      <maxWeakCount>4</maxWeakCount>
      <stageThreshold>-2.1284759044647217e+00</stageThreshold>
      <weakClassifiers>
        <_>
          <internalNodes>
            0 -1 48 4.9678750336170197e-02</internalNodes>
          <leafValues>
            -9.8047029972076416e-01 8.7136930227279663e-01</leafValues></_>
        <_>
          <internalNodes>
            0 -1 20 -2.3047301173210144e-01</internalNodes>
          <leafValues>
            6.6406768560409546e-01 -9.2457288503646851e-01</leafValues></_>
        <_>
          <internalNodes>
            0 -1 55 -5.4842226207256317e-02</internalNodes>
          <leafValues>
            6.2777388095855713e-01 -8.3839327096939087e-01</leafValues></_>
        <_>
          <internalNodes>
            0 -1 54 -7.4956201016902924e-02</internalNodes>
          <leafValues>
            6.1496055126190186e-01 -9.1086792945861816e-01</leafValues></_></weakClassifiers></_>
    <!-- stage 1 -->
    <_>
      <maxWeakCount>4</maxWeakCount>
      <stageThreshold>-2.0488235950469971e+00</stageThreshold>
      <weakClassifiers>
        <_>
          <internalNodes>
            0 -1 18 1.2611189484596252e-01</internalNodes>
          <leafValues>
            -9.5241838693618774e-01 8.3091789484024048e-01</leafValues></_>
        <_>
          <internalNodes>
            0 -1 50 3.8689434528350830e-02</internalNodes>
          <leafValues>
            -9.0110385417938232e-01 7.2532308101654053e-01</leafValues></_>
        <_>
          <internalNodes>
            0 -1 55 -6.6118322312831879e-02</internalNodes>
          <leafValues>
            4.9261438846588135e-01 -7.3294150829315186e-01</leafValues></_>
        <_>
          <internalNodes>
            0 -1 25 5.5922679603099823e-02</internalNodes>
          <leafValues>
            -6.6766476631164551e-01 5.3764021396636963e-01</leafValues></_></weakClassifiers></_>
    <!-- stage 2 -->
    <_>
      <maxWeakCount>4</maxWeakCount>
      <stageThreshold>-2.2156651020050049e+00</stageThreshold>
      <weakClassifiers>
        <_>
          <internalNodes>
            0 -1 43 -2.2992685437202454e-02</internalNodes>
          <leafValues>
            6.6094422340393066e-01 -9.5510530471801758e-01</leafValues></_>
        <_>
          <internalNodes>
            0 -1 51 -3.6825105547904968e-02</internalNodes>
          <leafValues>
            6.1291223764419556e-01 -8.8735228776931763e-01</leafValues></_>
        <_>
          <internalNodes>
            0 -1 9 6.2986001372337341e-02</internalNodes>
          <leafValues>
            -8.1822335720062256e-01 3.5799387097358704e-01</leafValues></_>
        <_>
          <internalNodes>
            0 -1 41 -4.7937547788023949e-03</internalNodes>
          <leafValues>
            4.4501575827598572e-01 -7.2374004125595093e-01</leafValues></_></weakClassifiers></_>
    <!-- stage 3 -->
    <_>
      <maxWeakCount>4</maxWeakCount>
      <stageThreshold>-2.3514726161956787e+00</stageThreshold>
      <weakClassifiers>
        <_>
          <internalNodes>
            0 -1 39 -1.5770979225635529e-01</internalNodes>
          <leafValues>
            5.7575756311416626e-01 -9.6621078252792358e-01</leafValues></_>
        <_>
          <internalNodes>
            0 -1 40 -2.0796831697225571e-02</internalNodes>
          <leafValues>
            5.4081499576568604e-01 -8.6342912912368774e-01</leafValues></_>
        <_>
          <internalNodes>
            0 -1 57 2.6485662907361984e-02</internalNodes>
          <leafValues>
            -8.8021111488342285e-01 3.2500919699668884e-01</leafValues></_>
        <_>
          <internalNodes>
            0 -1 22 3.8950085639953613e-02</internalNodes>
          <leafValues>
            -8.4838366508483887e-01 3.5837846994400024e-01</leafValues></_></weakClassifiers></_>
    <!-- stage 4 -->
    <_>
      <maxWeakCount>5</maxWeakCount>
      <stageThreshold>-2.8869395256042480e+00</stageThreshold>
      <weakClassifiers>
        <_>
          <internalNodes>
            0 -1 31 -5.5233798921108246e-02</internalNodes>
          <leafValues>
            4.8148149251937866e-01 -9.5187485218048096e-01</leafValues></_>
        <_>
          <internalNodes>
            0 -1 60 -2.9458938166499138e-02</internalNodes>
          <leafValues>
            6.0529953241348267e-01 -8.7011295557022095e-01</leafValues></_>
        <_>
          <internalNodes>
            0 -1 37 -4.7579176723957062e-02</internalNodes>
          <leafValues>
            4.4087371230125427e-01 -8.2530313730239868e-01</leafValues></_>
        <_>
          <internalNodes>
            0 -1 56 -7.0863156579434872e-03</internalNodes>
          <leafValues>
            5.5840766429901123e-01 -6.3261330127716064e-01</leafValues></_>
        <_>
          <internalNodes>
            0 -1 34 -4.8438012599945068e-02</internalNodes>
          <leafValues>
            3.9296466112136841e-01 -9.4040024280548096e-01</leafValues></_></weakClassifiers></_>
    <!-- stage 5 -->
    <_>
      <maxWeakCount>4</maxWeakCount>
      <stageThreshold>-2.1739957332611084e+00</stageThreshold>
      <weakClassifiers>
        <_>
          <internalNodes>
            0 -1 53 2.2055691108107567e-02</internalNodes>
          <leafValues>
            -9.7594934701919556e-01 1.6578947007656097e-01</leafValues></_>
        <_>
          <internalNodes>
            0 -1 27 1.6786577180027962e-02</internalNodes>
          <leafValues>
            -8.5312461853027344e-01 6.1958777904510498e-01</leafValues></_>
        <_>
          <internalNodes>
            0 -1 42 5.1188219338655472e-02</internalNodes>
          <leafValues>
            -7.1361738443374634e-01 5.6705147027969360e-01</leafValues></_>
        <_>
          <internalNodes>
            0 -1 14 2.0516274962574244e-03</internalNodes>
          <leafValues>
            -8.5251283645629883e-01 3.6869558691978455e-01</leafValues></_></weakClassifiers></_>
    <!-- stage 6 -->
    <_>
      <maxWeakCount>5</maxWeakCount>
      <stageThreshold>-2.7322871685028076e+00</stageThreshold>
      <weakClassifiers>
        <_>
          <internalNodes>
            0 -1 53 2.5003395974636078e-02</internalNodes>
          <leafValues>
            -9.6262067556381226e-01 2.9635497927665710e-01</leafValues></_>
        <_>
          <internalNodes>
            0 -1 49 -3.9965178817510605e-02</internalNodes>
          <leafValues>
            3.4815859794616699e-01 -9.0274435281753540e-01</leafValues></_>
        <_>
          <internalNodes>
            0 -1 45 -1.8673691153526306e-01</internalNodes>
          <leafValues>
            5.4469674825668335e-01 -6.8973922729492188e-01</leafValues></_>
        <_>
          <internalNodes>
            0 -1 12 -1.6948070377111435e-02</internalNodes>
          <leafValues>
            5.4455292224884033e-01 -6.4668035507202148e-01</leafValues></_>
        <_>
          <internalNodes>
            0 -1 36 -4.4106699526309967e-02</internalNodes>
          <leafValues>
            4.6949732303619385e-01 -6.0935121774673462e-01</leafValues></_></weakClassifiers></_>
    <!-- stage 7 -->
    <_>
      <maxWeakCount>7</maxWeakCount>
      <stageThreshold>-2.4121036529541016e+00</stageThreshold>
      <weakClassifiers>
        <_>
          <internalNodes>
            0 -1 15 2.1852949261665344e-01</internalNodes>
          <leafValues>
            -9.3717485666275024e-01 3.6653387546539307e-01</leafValues></_>
        <_>
          <internalNodes>
            0 -1 52 -4.0465261787176132e-02</internalNodes>
          <leafValues>
            4.0083435177803040e-01 -8.7391567230224609e-01</leafValues></_>
        <_>
          <internalNodes>
            0 -1 8 -1.4987672865390778e-01</internalNodes>
          <leafValues>
            5.3655648231506348e-01 -6.7551386356353760e-01</leafValues></_>
        <_>
          <internalNodes>
            0 -1 61 1.1948302388191223e-02</internalNodes>
          <leafValues>
            -8.7547218799591064e-01 3.1284454464912415e-01</leafValues></_>
        <_>
          <internalNodes>
            0 -1 0 -1.6026799130486324e-05</internalNodes>
          <leafValues>
            -8.2442831993103027e-01 3.1977331638336182e-01</leafValues></_>
        <_>
          <internalNodes>
            0 -1 16 4.5722123468294740e-04</internalNodes>
          <leafValues>
            -8.9382958412170410e-01 3.0635553598403931e-01</leafValues></_>
        <_>
          <internalNodes>
            0 -1 24 -3.8840446621179581e-02</internalNodes>
          <leafValues>
            3.2384401559829712e-01 -7.9214441776275635e-01</leafValues></_></weakClassifiers></_>
    <!-- stage 8 -->
    <_>
      <maxWeakCount>6</maxWeakCount>
      <stageThreshold>-2.1359791755676270e+00</stageThreshold>
      <weakClassifiers>
        <_>
          <internalNodes>
            0 -1 21 9.2651396989822388e-02</internalNodes>
          <leafValues>
            -9.3415969610214233e-01 1.6753022372722626e-01</leafValues></_>
        <_>
          <internalNodes>
            0 -1 27 1.5758283436298370e-02</internalNodes>
          <leafValues>
            -8.0619788169860840e-01 5.1316720247268677e-01</leafValues></_>
        <_>
          <internalNodes>
            0 -1 2 4.6090232208371162e-03</internalNodes>
          <leafValues>
            -7.0046192407608032e-01 5.0973099470138550e-01</leafValues></_>
        <_>
          <internalNodes>
            0 -1 28 3.9299972355365753e-02</internalNodes>
          <leafValues>
            -6.2665331363677979e-01 5.5229598283767700e-01</leafValues></_>
        <_>
          <internalNodes>
            0 -1 13 1.7029304057359695e-02</internalNodes>
          <leafValues>
            -5.4298686981201172e-01 5.7295876741409302e-01</leafValues></_>
        <_>
          <internalNodes>
            0 -1 63 -2.4493373930454254e-03</internalNodes>
          <leafValues>
            3.5853493213653564e-01 -8.4099316596984863e-01</leafValues></_></weakClassifiers></_>
    <!-- stage 9 -->
    <_>
      <maxWeakCount>5</maxWeakCount>
      <stageThreshold>-1.8881031274795532e+00</stageThreshold>
      <weakClassifiers>
        <_>
          <internalNodes>
            0 -1 19 1.3442450761795044e-01</internalNodes>
          <leafValues>
            -9.5528203248977661e-01 2.5119999051094055e-01</leafValues></_>
        <_>
          <internalNodes>
            0 -1 4 1.0841321200132370e-02</internalNodes>
          <leafValues>
            -8.8299250602722168e-01 2.1896849572658539e-01</leafValues></_>
        <_>
          <internalNodes>
            0 -1 58 5.5783204734325409e-02</internalNodes>
          <leafValues>
            -7.3334461450576782e-01 4.1076537966728210e-01</leafValues></_>
        <_>
          <internalNodes>
            0 -1 26 2.6858262717723846e-02</internalNodes>
          <leafValues>
            -6.4151418209075928e-01 4.1570138931274414e-01</leafValues></_>
        <_>
          <internalNodes>
            0 -1 1 -2.6121002520085312e-05</internalNodes>
          <leafValues>
            -9.9808108806610107e-01 2.6781466603279114e-01</leafValues></_></weakClassifiers></_>
    <!-- stage 10 -->
    <_>
      <maxWeakCount>4</maxWeakCount>
      <stageThreshold>-2.2463350296020508e+00</stageThreshold>
      <weakClassifiers>
        <_>
          <internalNodes>
            0 -1 1 1.2848303413193207e-05</internalNodes>
          <leafValues>
            1.2470588088035583e-01 -9.9053764343261719e-01</leafValues></_>
        <_>
          <internalNodes>
            0 -1 17 2.1527484059333801e-01</internalNodes>
          <leafValues>
            -8.5195732116699219e-01 3.6113935708999634e-01</leafValues></_>
        <_>
          <internalNodes>
            0 -1 44 4.7774620354175568e-02</internalNodes>
          <leafValues>
            -7.2358059883117676e-01 3.7572678923606873e-01</leafValues></_>
        <_>
          <internalNodes>
            0 -1 64 -1.9902754575014114e-03</internalNodes>
          <leafValues>
            3.5478445887565613e-01 -7.9550307989120483e-01</leafValues></_></weakClassifiers></_>
    <!-- stage 11 -->
    <_>
      <maxWeakCount>6</maxWeakCount>
      <stageThreshold>-2.5680847167968750e+00</stageThreshold>
      <weakClassifiers>
        <_>
          <internalNodes>
            0 -1 3 -2.0395097136497498e-01</internalNodes>
          <leafValues>
            6.0409557819366455e-01 -8.9821392297744751e-01</leafValues></_>
        <_>
          <internalNodes>
            0 -1 1 1.9865474314428866e-05</internalNodes>
          <leafValues>
            3.8473084568977356e-01 -9.4673395156860352e-01</leafValues></_>
        <_>
          <internalNodes>
            0 -1 46 -1.7763489484786987e-01</internalNodes>
          <leafValues>
            4.4011682271957397e-01 -7.6474452018737793e-01</leafValues></_>
        <_>
          <internalNodes>
            0 -1 59 -1.6244370490312576e-02</internalNodes>
          <leafValues>
            4.0067365765571594e-01 -6.6153305768966675e-01</leafValues></_>
        <_>
          <internalNodes>
            0 -1 10 3.0422178679145873e-04</internalNodes>
          <leafValues>
            -6.6906845569610596e-01 3.7280166149139404e-01</leafValues></_>
        <_>
          <internalNodes>
            0 -1 47 1.0622954368591309e-01</internalNodes>
          <leafValues>
            -7.3186749219894409e-01 3.6248013377189636e-01</leafValues></_></weakClassifiers></_>
    <!-- stage 12 -->
    <_>
      <maxWeakCount>6</maxWeakCount>
      <stageThreshold>-2.4244761466979980e+00</stageThreshold>
      <weakClassifiers>
        <_>
          <internalNodes>
            0 -1 5 -9.7554109990596771e-02</internalNodes>
          <leafValues>
            1.2733446061611176e-01 -9.3158215284347534e-01</leafValues></_>
        <_>
          <internalNodes>
            0 -1 11 3.1092312186956406e-02</internalNodes>
          <leafValues>
            -8.5792177915573120e-01 3.9112308621406555e-01</leafValues></_>
        <_>
          <internalNodes>
            0 -1 7 -1.5427056699991226e-02</internalNodes>
          <leafValues>
            4.2043298482894897e-01 -7.4412596225738525e-01</leafValues></_>
        <_>
          <internalNodes>
            0 -1 32 7.5606117025017738e-03</internalNodes>
          <leafValues>
            -5.0443142652511597e-01 6.0324579477310181e-01</leafValues></_>
        <_>
          <internalNodes>
            0 -1 35 -1.7423380166292191e-02</internalNodes>
          <leafValues>
            3.4533122181892395e-01 -7.5958985090255737e-01</leafValues></_>
        <_>
          <internalNodes>
            0 -1 29 2.0346097880974412e-04</internalNodes>
          <leafValues>
            2.6825410127639771e-01 -8.8376510143280029e-01</leafValues></_></weakClassifiers></_>
    <!-- stage 13 -->
    <_>
      <maxWeakCount>6</maxWeakCount>
      <stageThreshold>-2.5351607799530029e+00</stageThreshold>
      <weakClassifiers>
        <_>
          <internalNodes>
            0 -1 6 -1.6641521453857422e-01</internalNodes>
          <leafValues>
            6.4412808418273926e-01 -8.9691513776779175e-01</leafValues></_>
        <_>
          <internalNodes>
            0 -1 30 -6.7394949495792389e-02</internalNodes>
          <leafValues>
            4.9780869483947754e-01 -8.5099148750305176e-01</leafValues></_>
        <_>
          <internalNodes>
            0 -1 38 -5.0837296992540359e-02</internalNodes>
          <leafValues>
            4.2209815979003906e-01 -7.9358488321304321e-01</leafValues></_>
        <_>
          <internalNodes>
            0 -1 23 -2.5176711380481720e-02</internalNodes>
          <leafValues>
            5.6647396087646484e-01 -5.8333790302276611e-01</leafValues></_>
        <_>
          <internalNodes>
            0 -1 33 -2.6028743013739586e-02</internalNodes>
          <leafValues>
            2.8801065683364868e-01 -9.9607110023498535e-01</leafValues></_>
        <_>
          <internalNodes>
            0 -1 62 1.1503470595926046e-03</internalNodes>
          <leafValues>
            -7.1456634998321533e-01 3.0165788531303406e-01</leafValues></_></weakClassifiers></_></stages>
  <features>
    <_>
      <rects>
        <_>
          0 0 6 1 -1.</_>
        <_>
          2 0 2 1 3.</_></rects>
      <tilted>0</tilted></_>
    <_>
      <rects>
        <_>
          0 0 6 1 -1.</_>
        <_>
          3 0 3 1 2.</_></rects>
      <tilted>0</tilted></_>
    <_>
      <rects>
        <_>
          0 0 6 2 -1.</_>
        <_>
          0 1 6 1 2.</_></rects>
      <tilted>0</tilted></_>
    <_>
      <rects>
        <_>
          0 1 12 14 -1.</_>
        <_>
          4 1 4 14 3.</_></rects>
      <tilted>0</tilted></_>
    <_>
      <rects>
        <_>
          0 3 4 8 -1.</_>
        <_>
          0 3 2 4 2.</_>
        <_>
          2 7 2 4 2.</_></rects>
      <tilted>0</tilted></_>
    <_>
      <rects>
        <_>
          0 3 9 21 -1.</_>
        <_>
          3 3 3 21 3.</_></rects>
      <tilted>0</tilted></_>
    <_>
      <rects>
        <_>
          0 4 12 12 -1.</_>
        <_>
          4 4 4 12 3.</_></rects>
      <tilted>0</tilted></_>
    <_>
      <rects>
        <_>
          0 5 2 9 -1.</_>
        <_>
          0 8 2 3 3.</_></rects>
      <tilted>0</tilted></_>
    <_>
      <rects>
        <_>
          0 5 24 9 -1.</_>
        <_>
          0 8 24 3 3.</_></rects>
      <tilted>0</tilted></_>
    <_>
      <rects>
        <_>
          0 7 20 6 -1.</_>
        <_>
          0 10 20 3 2.</_></rects>
      <tilted>0</tilted></_>
    <_>
      <rects>
        <_>
          0 11 2 1 -1.</_>
        <_>
          1 11 1 1 2.</_></rects>
      <tilted>0</tilted></_>
    <_>
      <rects>
        <_>
          1 5 18 1 -1.</_>
        <_>
          10 5 9 1 2.</_></rects>
      <tilted>0</tilted></_>
    <_>
      <rects>
        <_>
          1 6 12 2 -1.</_>
        <_>
          5 6 4 2 3.</_></rects>
      <tilted>0</tilted></_>
    <_>
      <rects>
        <_>
          1 10 6 14 -1.</_>
        <_>
          1 10 3 7 2.</_>
        <_>
          4 17 3 7 2.</_></rects>
      <tilted>0</tilted></_>
    <_>
      <rects>
        <_>
          2 0 8 1 -1.</_>
        <_>
          6 0 4 1 2.</_></rects>
      <tilted>0</tilted></_>
    <_>
      <rects>
        <_>
          2 0 18 6 -1.</_>
        <_>
          11 0 9 6 2.</_></rects>
      <tilted>0</tilted></_>
    <_>
      <rects>
        <_>
          3 0 4 1 -1.</_>
        <_>
          5 0 2 1 2.</_></rects>
      <tilted>0</tilted></_>
    <_>
      <rects>
        <_>
          3 0 18 7 -1.</_>
        <_>
          12 0 9 7 2.</_></rects>
      <tilted>0</tilted></_>
    <_>
      <rects>
        <_>
          3 2 16 4 -1.</_>
        <_>
          11 2 8 4 2.</_></rects>
      <tilted>0</tilted></_>
    <_>
      <rects>
        <_>
          3 2 18 4 -1.</_>
        <_>
          12 2 9 4 2.</_></rects>
      <tilted>0</tilted></_>
    <_>
      <rects>
        <_>
          3 2 21 12 -1.</_>
        <_>
          3 6 21 4 3.</_></rects>
      <tilted>0</tilted></_>
    <_>
      <rects>
        <_>
          3 3 14 3 -1.</_>
        <_>
          10 3 7 3 2.</_></rects>
      <tilted>0</tilted></_>
    <_>
      <rects>
        <_>
          3 5 9 10 -1.</_>
        <_>
          3 10 9 5 2.</_></rects>
      <tilted>0</tilted></_>
    <_>
      <rects>
        <_>
          3 5 21 2 -1.</_>
        <_>
          3 6 21 1 2.</_></rects>
      <tilted>0</tilted></_>
    <_>
      <rects>
        <_>
          4 4 18 6 -1.</_>
        <_>
          4 6 18 2 3.</_></rects>
      <tilted>0</tilted></_>
    <_>
      <rects>
        <_>
          5 0 15 8 -1.</_>
        <_>
          10 0 5 8 3.</_></rects>
      <tilted>0</tilted></_>
    <_>
      <rects>
        <_>
          5 0 18 2 -1.</_>
        <_>
          11 0 6 2 3.</_></rects>
      <tilted>0</tilted></_>
    <_>
      <rects>
        <_>
          5 7 3 17 -1.</_>
        <_>
          6 7 1 17 3.</_></rects>
      <tilted>0</tilted></_>
    <_>
      <rects>
        <_>
          6 4 9 9 -1.</_>
        <_>
          9 4 3 9 3.</_></rects>
      <tilted>0</tilted></_>
    <_>
      <rects>
        <_>
          6 22 2 2 -1.</_>
        <_>
          6 23 2 1 2.</_></rects>
      <tilted>0</tilted></_>
    <_>
      <rects>
        <_>
          7 1 8 10 -1.</_>
        <_>
          7 1 4 5 2.</_>
        <_>
          11 6 4 5 2.</_></rects>
      <tilted>0</tilted></_>
    <_>
      <rects>
        <_>
          7 2 8 8 -1.</_>
        <_>
          7 2 4 4 2.</_>
        <_>
          11 6 4 4 2.</_></rects>
      <tilted>0</tilted></_>
    <_>
      <rects>
        <_>
          8 16 15 3 -1.</_>
        <_>
          8 17 15 1 3.</_></rects>
      <tilted>0</tilted></_>
    <_>
      <rects>
        <_>
          9 10 7 14 -1.</_>
        <_>
          9 17 7 7 2.</_></rects>
      <tilted>0</tilted></_>
    <_>
      <rects>
        <_>
          9 10 11 10 -1.</_>
        <_>
          9 15 11 5 2.</_></rects>
      <tilted>0</tilted></_>
    <_>
      <rects>
        <_>
          9 14 14 9 -1.</_>
        <_>
          16 14 7 9 2.</_></rects>
      <tilted>0</tilted></_>
    <_>
      <rects>
        <_>
          10 5 9 8 -1.</_>
        <_>
          13 5 3 8 3.</_></rects>
      <tilted>0</tilted></_>
    <_>
      <rects>
        <_>
          10 5 9 9 -1.</_>
        <_>
          13 5 3 9 3.</_></rects>
      <tilted>0</tilted></_>
    <_>
      <rects>
        <_>
          10 8 9 6 -1.</_>
        <_>
          13 8 3 6 3.</_></rects>
      <tilted>0</tilted></_>
    <_>
      <rects>
        <_>
          11 4 13 9 -1.</_>
        <_>
          11 7 13 3 3.</_></rects>
      <tilted>0</tilted></_>
    <_>
      <rects>
        <_>
          11 5 13 2 -1.</_>
        <_>
          11 6 13 1 2.</_></rects>
      <tilted>0</tilted></_>
    <_>
      <rects>
        <_>
          11 6 4 5 -1.</_>
        <_>
          13 6 2 5 2.</_></rects>
      <tilted>0</tilted></_>
    <_>
      <rects>
        <_>
          12 2 12 6 -1.</_>
        <_>
          12 4 12 2 3.</_></rects>
      <tilted>0</tilted></_>
    <_>
      <rects>
        <_>
          12 5 12 2 -1.</_>
        <_>
          12 6 12 1 2.</_></rects>
      <tilted>0</tilted></_>
    <_>
      <rects>
        <_>
          12 10 12 6 -1.</_>
        <_>
          12 12 12 2 3.</_></rects>
      <tilted>0</tilted></_>
    <_>
      <rects>
        <_>
          13 2 10 12 -1.</_>
        <_>
          13 6 10 4 3.</_></rects>
      <tilted>0</tilted></_>
    <_>
      <rects>
        <_>
          13 3 11 12 -1.</_>
        <_>
          13 7 11 4 3.</_></rects>
      <tilted>0</tilted></_>
    <_>
      <rects>
        <_>
          13 6 11 12 -1.</_>
        <_>
          13 10 11 4 3.</_></rects>
      <tilted>0</tilted></_>
    <_>
      <rects>
        <_>
          15 6 6 7 -1.</_>
        <_>
          17 6 2 7 3.</_></rects>
      <tilted>0</tilted></_>
    <_>
      <rects>
        <_>
          15 6 4 16 -1.</_>
        <_>
          15 6 2 8 2.</_>
        <_>
          17 14 2 8 2.</_></rects>
      <tilted>0</tilted></_>
    <_>
      <rects>
        <_>
          15 8 6 5 -1.</_>
        <_>
          17 8 2 5 3.</_></rects>
      <tilted>0</tilted></_>
    <_>
      <rects>
        <_>
          15 8 4 12 -1.</_>
        <_>
          15 8 2 6 2.</_>
        <_>
          17 14 2 6 2.</_></rects>
      <tilted>0</tilted></_>
    <_>
      <rects>
        <_>
          15 8 4 14 -1.</_>
        <_>
          15 8 2 7 2.</_>
        <_>
          17 15 2 7 2.</_></rects>
      <tilted>0</tilted></_>
    <_>
      <rects>
        <_>
          15 9 6 2 -1.</_>
        <_>
          17 9 2 2 3.</_></rects>
      <tilted>0</tilted></_>
    <_>
      <rects>
        <_>
          15 10 8 14 -1.</_>
        <_>
          15 17 8 7 2.</_></rects>
      <tilted>0</tilted></_>
    <_>
      <rects>
        <_>
          16 0 8 14 -1.</_>
        <_>
          20 0 4 14 2.</_></rects>
      <tilted>0</tilted></_>
    <_>
      <rects>
        <_>
          16 5 6 2 -1.</_>
        <_>
          16 6 6 1 2.</_></rects>
      <tilted>0</tilted></_>
    <_>
      <rects>
        <_>
          17 5 2 12 -1.</_>
        <_>
          17 9 2 4 3.</_></rects>
      <tilted>0</tilted></_>
    <_>
      <rects>
        <_>
          17 6 6 16 -1.</_>
        <_>
          17 6 3 8 2.</_>
        <_>
          20 14 3 8 2.</_></rects>
      <tilted>0</tilted></_>
    <_>
      <rects>
        <_>
          17 8 4 16 -1.</_>
        <_>
          19 8 2 16 2.</_></rects>
      <tilted>0</tilted></_>
    <_>
      <rects>
        <_>
          17 11 3 6 -1.</_>
        <_>
          17 14 3 3 2.</_></rects>
      <tilted>0</tilted></_>
    <_>
      <rects>
        <_>
          18 5 1 12 -1.</_>
        <_>
          18 9 1 4 3.</_></rects>
      <tilted>0</tilted></_>
    <_>
      <rects>
        <_>
          18 16 6 1 -1.</_>
        <_>
          20 16 2 1 3.</_></rects>
      <tilted>0</tilted></_>
    <_>
      <rects>
        <_>
          20 0 4 7 -1.</_>
        <_>
          22 0 2 7 2.</_></rects>
      <tilted>0</tilted></_>
    <_>
      <rects>
        <_>
          21 15 1 6 -1.</_>
        <_>
          21 18 1 3 2.</_></rects>
      <tilted>0</tilted></_></features></cascade>
</opencv_storage>
