<?xml version="1.0"?>
<opencv_storage>
<stage7>
  <maxWeakCount>7</maxWeakCount>
  <stageThreshold>-2.4121036529541016e+00</stageThreshold>
  <weakClassifiers>
    <_>
      <internalNodes>
        0 -1 26440 2.1852949261665344e-01</internalNodes>
      <leafValues>
        -9.3717485666275024e-01 3.6653387546539307e-01</leafValues></_>
    <_>
      <internalNodes>
        0 -1 141977 -4.0465261787176132e-02</internalNodes>
      <leafValues>
        4.0083435177803040e-01 -8.7391567230224609e-01</leafValues></_>
    <_>
      <internalNodes>
        0 -1 5822 -1.4987672865390778e-01</internalNodes>
      <leafValues>
        5.3655648231506348e-01 -6.7551386356353760e-01</leafValues></_>
    <_>
      <internalNodes>
        0 -1 153148 1.1948302388191223e-02</internalNodes>
      <leafValues>
        -8.7547218799591064e-01 3.1284454464912415e-01</leafValues></_>
    <_>
      <internalNodes>
        0 -1 82 -1.6026799130486324e-05</internalNodes>
      <leafValues>
        -8.2442831993103027e-01 3.1977331638336182e-01</leafValues></_>
    <_>
      <internalNodes>
        0 -1 38060 4.5722123468294740e-04</internalNodes>
      <leafValues>
        -8.9382958412170410e-01 3.0635553598403931e-01</leafValues></_>
    <_>
      <internalNodes>
        0 -1 53511 -3.8840446621179581e-02</internalNodes>
      <leafValues>
        3.2384401559829712e-01 -7.9214441776275635e-01</leafValues></_></weakClassifiers></stage7>
</opencv_storage>
