<?xml version="1.0"?>
<opencv_storage>
<stage12>
  <maxWeakCount>6</maxWeakCount>
  <stageThreshold>-2.4244761466979980e+00</stageThreshold>
  <weakClassifiers>
    <_>
      <internalNodes>
        0 -1 3338 -9.7554109990596771e-02</internalNodes>
      <leafValues>
        1.2733446061611176e-01 -9.3158215284347534e-01</leafValues></_>
    <_>
      <internalNodes>
        0 -1 18490 3.1092312186956406e-02</internalNodes>
      <leafValues>
        -8.5792177915573120e-01 3.9112308621406555e-01</leafValues></_>
    <_>
      <internalNodes>
        0 -1 5059 -1.5427056699991226e-02</internalNodes>
      <leafValues>
        4.2043298482894897e-01 -7.4412596225738525e-01</leafValues></_>
    <_>
      <internalNodes>
        0 -1 97877 7.5606117025017738e-03</internalNodes>
      <leafValues>
        -5.0443142652511597e-01 6.0324579477310181e-01</leafValues></_>
    <_>
      <internalNodes>
        0 -1 105574 -1.7423380166292191e-02</internalNodes>
      <leafValues>
        3.4533122181892395e-01 -7.5958985090255737e-01</leafValues></_>
    <_>
      <internalNodes>
        0 -1 80695 2.0346097880974412e-04</internalNodes>
      <leafValues>
        2.6825410127639771e-01 -8.8376510143280029e-01</leafValues></_></weakClassifiers></stage12>
</opencv_storage>
