<?xml version="1.0"?>
<opencv_storage>
<stage13>
  <maxWeakCount>6</maxWeakCount>
  <stageThreshold>-2.5351607799530029e+00</stageThreshold>
  <weakClassifiers>
    <_>
      <internalNodes>
        0 -1 4327 -1.6641521453857422e-01</internalNodes>
      <leafValues>
        6.4412808418273926e-01 -8.9691513776779175e-01</leafValues></_>
    <_>
      <internalNodes>
        0 -1 81757 -6.7394949495792389e-02</internalNodes>
      <leafValues>
        4.9780869483947754e-01 -8.5099148750305176e-01</leafValues></_>
    <_>
      <internalNodes>
        0 -1 111145 -5.0837296992540359e-02</internalNodes>
      <leafValues>
        4.2209815979003906e-01 -7.9358488321304321e-01</leafValues></_>
    <_>
      <internalNodes>
        0 -1 42972 -2.5176711380481720e-02</internalNodes>
      <leafValues>
        5.6647396087646484e-01 -5.8333790302276611e-01</leafValues></_>
    <_>
      <internalNodes>
        0 -1 104297 -2.6028743013739586e-02</internalNodes>
      <leafValues>
        2.8801065683364868e-01 -9.9607110023498535e-01</leafValues></_>
    <_>
      <internalNodes>
        0 -1 154882 1.1503470595926046e-03</internalNodes>
      <leafValues>
        -7.1456634998321533e-01 3.0165788531303406e-01</leafValues></_></weakClassifiers></stage13>
</opencv_storage>
