<?xml version="1.0"?>
<opencv_storage>
<stage9>
  <maxWeakCount>5</maxWeakCount>
  <stageThreshold>-1.8881031274795532e+00</stageThreshold>
  <weakClassifiers>
    <_>
      <internalNodes>
        0 -1 40381 1.3442450761795044e-01</internalNodes>
      <leafValues>
        -9.5528203248977661e-01 2.5119999051094055e-01</leafValues></_>
    <_>
      <internalNodes>
        0 -1 3220 1.0841321200132370e-02</internalNodes>
      <leafValues>
        -8.8299250602722168e-01 2.1896849572658539e-01</leafValues></_>
    <_>
      <internalNodes>
        0 -1 150011 5.5783204734325409e-02</internalNodes>
      <leafValues>
        -7.3334461450576782e-01 4.1076537966728210e-01</leafValues></_>
    <_>
      <internalNodes>
        0 -1 60843 2.6858262717723846e-02</internalNodes>
      <leafValues>
        -6.4151418209075928e-01 4.1570138931274414e-01</leafValues></_>
    <_>
      <internalNodes>
        0 -1 160 -2.6121002520085312e-05</internalNodes>
      <leafValues>
        -9.9808108806610107e-01 2.6781466603279114e-01</leafValues></_></weakClassifiers></stage9>
</opencv_storage>
