<?xml version="1.0"?>
<opencv_storage>
<stage11>
  <maxWeakCount>6</maxWeakCount>
  <stageThreshold>-2.5680847167968750e+00</stageThreshold>
  <weakClassifiers>
    <_>
      <internalNodes>
        0 -1 1385 -2.0395097136497498e-01</internalNodes>
      <leafValues>
        6.0409557819366455e-01 -8.9821392297744751e-01</leafValues></_>
    <_>
      <internalNodes>
        0 -1 160 1.9865474314428866e-05</internalNodes>
      <leafValues>
        3.8473084568977356e-01 -9.4673395156860352e-01</leafValues></_>
    <_>
      <internalNodes>
        0 -1 129773 -1.7763489484786987e-01</internalNodes>
      <leafValues>
        4.4011682271957397e-01 -7.6474452018737793e-01</leafValues></_>
    <_>
      <internalNodes>
        0 -1 150388 -1.6244370490312576e-02</internalNodes>
      <leafValues>
        4.0067365765571594e-01 -6.6153305768966675e-01</leafValues></_>
    <_>
      <internalNodes>
        0 -1 9436 3.0422178679145873e-04</internalNodes>
      <leafValues>
        -6.6906845569610596e-01 3.7280166149139404e-01</leafValues></_>
    <_>
      <internalNodes>
        0 -1 130877 1.0622954368591309e-01</internalNodes>
      <leafValues>
        -7.3186749219894409e-01 3.6248013377189636e-01</leafValues></_></weakClassifiers></stage11>
</opencv_storage>
