<?xml version="1.0"?>
<opencv_storage>
<stage6>
  <maxWeakCount>5</maxWeakCount>
  <stageThreshold>-2.7322871685028076e+00</stageThreshold>
  <weakClassifiers>
    <_>
      <internalNodes>
        0 -1 142209 2.5003395974636078e-02</internalNodes>
      <leafValues>
        -9.6262067556381226e-01 2.9635497927665710e-01</leafValues></_>
    <_>
      <internalNodes>
        0 -1 141424 -3.9965178817510605e-02</internalNodes>
      <leafValues>
        3.4815859794616699e-01 -9.0274435281753540e-01</leafValues></_>
    <_>
      <internalNodes>
        0 -1 129349 -1.8673691153526306e-01</internalNodes>
      <leafValues>
        5.4469674825668335e-01 -6.8973922729492188e-01</leafValues></_>
    <_>
      <internalNodes>
        0 -1 18986 -1.6948070377111435e-02</internalNodes>
      <leafValues>
        5.4455292224884033e-01 -6.4668035507202148e-01</leafValues></_>
    <_>
      <internalNodes>
        0 -1 109794 -4.4106699526309967e-02</internalNodes>
      <leafValues>
        4.6949732303619385e-01 -6.0935121774673462e-01</leafValues></_></weakClassifiers></stage6>
</opencv_storage>
