<?xml version="1.0"?>
<opencv_storage>
<stage10>
  <maxWeakCount>9</maxWeakCount>
  <stageThreshold>-1.9648358821868896e+00</stageThreshold>
  <weakClassifiers>
    <_>
      <internalNodes>
        0 -1 140 -7.1762204170227051e-02</internalNodes>
      <leafValues>
        8.2524269819259644e-01 -8.4954601526260376e-01</leafValues></_>
    <_>
      <internalNodes>
        0 -1 15531 2.8583537787199020e-02</internalNodes>
      <leafValues>
        -5.9504175186157227e-01 3.3799830079078674e-01</leafValues></_>
    <_>
      <internalNodes>
        0 -1 103244 2.1437369287014008e-02</internalNodes>
      <leafValues>
        -4.3668276071548462e-01 4.0206122398376465e-01</leafValues></_>
    <_>
      <internalNodes>
        0 -1 67103 5.5566914379596710e-03</internalNodes>
      <leafValues>
        -6.1862313747406006e-01 2.5297927856445312e-01</leafValues></_>
    <_>
      <internalNodes>
        0 -1 134536 -2.1940952539443970e-01</internalNodes>
      <leafValues>
        7.9853898286819458e-01 -1.9867604970932007e-01</leafValues></_>
    <_>
      <internalNodes>
        0 -1 126147 -7.4611889431253076e-04</internalNodes>
      <leafValues>
        -8.0540996789932251e-01 2.1783584356307983e-01</leafValues></_>
    <_>
      <internalNodes>
        0 -1 122415 8.9033995755016804e-04</internalNodes>
      <leafValues>
        1.8964581191539764e-01 -7.2900110483169556e-01</leafValues></_>
    <_>
      <internalNodes>
        0 -1 101962 1.0402459651231766e-02</internalNodes>
      <leafValues>
        -6.8319153785705566e-01 1.8270212411880493e-01</leafValues></_>
    <_>
      <internalNodes>
        0 -1 116594 -1.4569432823918760e-04</internalNodes>
      <leafValues>
        -7.0090264081954956e-01 2.0533074438571930e-01</leafValues></_></weakClassifiers></stage10>
</opencv_storage>
