<?xml version="1.0"?>
<opencv_storage>
<stage5>
  <maxWeakCount>6</maxWeakCount>
  <stageThreshold>-2.0299930572509766e+00</stageThreshold>
  <weakClassifiers>
    <_>
      <internalNodes>
        0 -1 135634 -5.9042140841484070e-02</internalNodes>
      <leafValues>
        -6.0931898653507233e-02 -9.0368270874023438e-01</leafValues></_>
    <_>
      <internalNodes>
        0 -1 27977 -2.4328079074621201e-02</internalNodes>
      <leafValues>
        1.6317981481552124e-01 -7.6050955057144165e-01</leafValues></_>
    <_>
      <internalNodes>
        0 -1 102310 1.7028547823429108e-02</internalNodes>
      <leafValues>
        -6.4286416769027710e-01 3.3122962713241577e-01</leafValues></_>
    <_>
      <internalNodes>
        0 -1 131467 2.3476062342524529e-02</internalNodes>
      <leafValues>
        -7.0941680669784546e-01 3.4788128733634949e-01</leafValues></_>
    <_>
      <internalNodes>
        0 -1 3404 1.1755855381488800e-01</internalNodes>
      <leafValues>
        -3.2445940375328064e-01 7.5223785638809204e-01</leafValues></_>
    <_>
      <internalNodes>
        0 -1 64400 -1.3595297001302242e-02</internalNodes>
      <leafValues>
        4.3142667412757874e-01 -5.8684355020523071e-01</leafValues></_></weakClassifiers></stage5>
</opencv_storage>
