<?xml version="1.0"?>
<opencv_storage>
<stage13>
  <maxWeakCount>8</maxWeakCount>
  <stageThreshold>-2.1620001792907715e+00</stageThreshold>
  <weakClassifiers>
    <_>
      <internalNodes>
        0 -1 151707 3.3050343394279480e-02</internalNodes>
      <leafValues>
        -8.6567163467407227e-01 1.</leafValues></_>
    <_>
      <internalNodes>
        0 -1 60431 8.5672754794359207e-03</internalNodes>
      <leafValues>
        -7.4152499437332153e-01 2.1255958080291748e-01</leafValues></_>
    <_>
      <internalNodes>
        0 -1 99966 2.7991418028250337e-04</internalNodes>
      <leafValues>
        -6.8692040443420410e-01 3.0665969848632812e-01</leafValues></_>
    <_>
      <internalNodes>
        0 -1 149759 -4.3177246116101742e-03</internalNodes>
      <leafValues>
        5.5355912446975708e-01 -4.3391308188438416e-01</leafValues></_>
    <_>
      <internalNodes>
        0 -1 64124 -4.5895554125308990e-02</internalNodes>
      <leafValues>
        3.2231578230857849e-01 -7.8710448741912842e-01</leafValues></_>
    <_>
      <internalNodes>
        0 -1 143735 7.2691723471507430e-04</internalNodes>
      <leafValues>
        -4.5147740840911865e-01 5.0229668617248535e-01</leafValues></_>
    <_>
      <internalNodes>
        0 -1 100588 1.5939818695187569e-03</internalNodes>
      <leafValues>
        -5.8879494667053223e-01 4.0266564488410950e-01</leafValues></_>
    <_>
      <internalNodes>
        0 -1 162268 7.0611527189612389e-04</internalNodes>
      <leafValues>
        3.3021250367164612e-01 -7.6502138376235962e-01</leafValues></_></weakClassifiers></stage13>
</opencv_storage>
