<?xml version="1.0"?>
<opencv_storage>
<stage8>
  <maxWeakCount>10</maxWeakCount>
  <stageThreshold>-2.4659142494201660e+00</stageThreshold>
  <weakClassifiers>
    <_>
      <internalNodes>
        0 -1 161225 1.7687760293483734e-02</internalNodes>
      <leafValues>
        -8.5575121641159058e-01 4.1975307464599609e-01</leafValues></_>
    <_>
      <internalNodes>
        0 -1 113174 -5.9585552662611008e-03</internalNodes>
      <leafValues>
        3.7139624357223511e-01 -5.9362977743148804e-01</leafValues></_>
    <_>
      <internalNodes>
        0 -1 85395 1.2804460711777210e-02</internalNodes>
      <leafValues>
        -6.6389244794845581e-01 2.9241707921028137e-01</leafValues></_>
    <_>
      <internalNodes>
        0 -1 27582 2.4146227166056633e-02</internalNodes>
      <leafValues>
        -7.4768394231796265e-01 2.6485562324523926e-01</leafValues></_>
    <_>
      <internalNodes>
        0 -1 147181 -7.3462054133415222e-02</internalNodes>
      <leafValues>
        6.6708117723464966e-01 -2.8018099069595337e-01</leafValues></_>
    <_>
      <internalNodes>
        0 -1 134452 1.3073529116809368e-02</internalNodes>
      <leafValues>
        -6.7243051528930664e-01 2.8545150160789490e-01</leafValues></_>
    <_>
      <internalNodes>
        0 -1 66664 6.3035942614078522e-02</internalNodes>
      <leafValues>
        -8.0565738677978516e-01 2.0357079803943634e-01</leafValues></_>
    <_>
      <internalNodes>
        0 -1 60643 -1.1013124603778124e-03</internalNodes>
      <leafValues>
        2.3614002764225006e-01 -6.8695497512817383e-01</leafValues></_>
    <_>
      <internalNodes>
        0 -1 37834 2.4076297879219055e-02</internalNodes>
      <leafValues>
        -2.5840455293655396e-01 6.5056145191192627e-01</leafValues></_>
    <_>
      <internalNodes>
        0 -1 86471 5.1411744207143784e-03</internalNodes>
      <leafValues>
        -7.6587641239166260e-01 2.0846636593341827e-01</leafValues></_></weakClassifiers></stage8>
</opencv_storage>
